{"NumberInput":9,"NumberNeurons":18,"NumberOutput":9,"NumberOfLayers":2,"WeightsHidden":[{"Values":[-7.438818948736103,45.19439858407244,20.00792499410564,45.45623988831894,4.960671827475229,-23.30887100697699,10.905160792259032,2.1831886621306045,-27.067178137927716,-7.991260324919682,-76.82922217662069,1.775025707711442,-9.374032302771168,-39.25202822547593,-28.971421022341012,-12.501693300837404,2.312996070839662,-11.977482041317991,-10.56507264353271,6.880830388257486,3.417762583782113,10.231266276581678,1.9761671236049247,24.05007113575953,40.04815215375752,2.6718340203707123,-0.6780162191893219,8.613960312001941,51.36620796089331,39.99567259743502,19.662286290578017,-23.255683182908616,137.97908459045257,2.04923876740806,-107.74786746110898,0.2920884956895671,-10.388314759965386,-109.69790742367871,-18.87945406718479,-2.76108059422354,4.12643634002707,13.947383784663405,-29.16131224624594,3.5935190815702374,-112.67090468501205,12.202763229702795,12.185380100912154,14.351728935873,2.9776027368369,2.3061452902465014,-16.298317424945935,3.97802486495146,42.609473732236715,23.642464677601055,-11.791500586011969,-6.733032479088176,6.0250230523717185,3.8044437207732282,4.6796654818060945,14.402714644818646,24.611888132206893,0.22856539277551513,12.447240866378909,9.912736619395641,3.9665273913311463,-16.386569253682605,8.056761412796053,-0.6619616710565202,-10.552621771494392,-1.3234374653544925,-48.79775829664581,17.258748265232644,84.95802629356386,13.156477183012537,12.958630644922382,-16.140603399691667,4.386632521667504,2.9239257823823084,29.54528535851212,-0.8897137254038094,-13.362808663639731,9.546741321851334,37.87346944502485,125.54013151600266,-3.585513959565229,-0.4054012622248568,-2.6582652952794104,6.356887606744333,18.005056907597666,15.197335094817376,-16.3747906103884,-0.17865452361166456,6.732495928728818,8.624935155404938,5.655276901653902,17.572157576158695,-1.311108125333835,4.751003083436574,-15.42226370335386,5.797118919041853,6.7667003853795,19.624925276018917,12.174299151830532,0.508210142612965,-3.76687495249871,18.29464104028645,22.481811582330504,9.534938906741083,-14.801376311742796,54.388046996451685,5.718088996638963,14.36818092042092,-59.43652919915406,22.853920966930247,29.227691547839683,5.853129420222219,-1.1793016887605001,16.596103288809747,52.8410931175627,1.284854739646897,40.90447084203451,-0.05136402584836609,-12.765867039193457,33.914598208686776,44.86250479895966,46.3994564029545,-14.654737873017247,7.27366284386115,-1.5496118341192795,10.06438521618847,2.7117302794986524,11.746566331655526,-8.756007428444432,7.42435271090426,26.88622035583962,5.151116048644038,21.190583867584802,-3.8506680081096243,11.524329555676657,-0.495286185844142,3.6259992725537886,24.232052652536375,13.07064378612798,17.308855669704567,-16.25476363692939,-46.817816196954034,27.0511282197291,-22.546409315616344,4.192200023659072,-7.452679823539534,143.99597346940018,3.3476727446476997,-10.896608887042916,-108.61146815747777,38.06718375862992,-16.988932487913193,-0.9026352228670701,-5.85721116124264,7.654936764598962,1.7878278950772348,3.4463696355613234,-14.555466120380355],"Storage":{"Data":[-7.438818948736103,45.19439858407244,20.00792499410564,45.45623988831894,4.960671827475229,-23.30887100697699,10.905160792259032,2.1831886621306045,-27.067178137927716,-7.991260324919682,-76.82922217662069,1.775025707711442,-9.374032302771168,-39.25202822547593,-28.971421022341012,-12.501693300837404,2.312996070839662,-11.977482041317991,-10.56507264353271,6.880830388257486,3.417762583782113,10.231266276581678,1.9761671236049247,24.05007113575953,40.04815215375752,2.6718340203707123,-0.6780162191893219,8.613960312001941,51.36620796089331,39.99567259743502,19.662286290578017,-23.255683182908616,137.97908459045257,2.04923876740806,-107.74786746110898,0.2920884956895671,-10.388314759965386,-109.69790742367871,-18.87945406718479,-2.76108059422354,4.12643634002707,13.947383784663405,-29.16131224624594,3.5935190815702374,-112.67090468501205,12.202763229702795,12.185380100912154,14.351728935873,2.9776027368369,2.3061452902465014,-16.298317424945935,3.97802486495146,42.609473732236715,23.642464677601055,-11.791500586011969,-6.733032479088176,6.0250230523717185,3.8044437207732282,4.6796654818060945,14.402714644818646,24.611888132206893,0.22856539277551513,12.447240866378909,9.912736619395641,3.9665273913311463,-16.386569253682605,8.056761412796053,-0.6619616710565202,-10.552621771494392,-1.3234374653544925,-48.79775829664581,17.258748265232644,84.95802629356386,13.156477183012537,12.958630644922382,-16.140603399691667,4.386632521667504,2.9239257823823084,29.54528535851212,-0.8897137254038094,-13.362808663639731,9.546741321851334,37.87346944502485,125.54013151600266,-3.585513959565229,-0.4054012622248568,-2.6582652952794104,6.356887606744333,18.005056907597666,15.197335094817376,-16.3747906103884,-0.17865452361166456,6.732495928728818,8.624935155404938,5.655276901653902,17.572157576158695,-1.311108125333835,4.751003083436574,-15.42226370335386,5.797118919041853,6.7667003853795,19.624925276018917,12.174299151830532,0.508210142612965,-3.76687495249871,18.29464104028645,22.481811582330504,9.534938906741083,-14.801376311742796,54.388046996451685,5.718088996638963,14.36818092042092,-59.43652919915406,22.853920966930247,29.227691547839683,5.853129420222219,-1.1793016887605001,16.596103288809747,52.8410931175627,1.284854739646897,40.90447084203451,-0.05136402584836609,-12.765867039193457,33.914598208686776,44.86250479895966,46.3994564029545,-14.654737873017247,7.27366284386115,-1.5496118341192795,10.06438521618847,2.7117302794986524,11.746566331655526,-8.756007428444432,7.42435271090426,26.88622035583962,5.151116048644038,21.190583867584802,-3.8506680081096243,11.524329555676657,-0.495286185844142,3.6259992725537886,24.232052652536375,13.07064378612798,17.308855669704567,-16.25476363692939,-46.817816196954034,27.0511282197291,-22.546409315616344,4.192200023659072,-7.452679823539534,143.99597346940018,3.3476727446476997,-10.896608887042916,-108.61146815747777,38.06718375862992,-16.988932487913193,-0.9026352228670701,-5.85721116124264,7.654936764598962,1.7878278950772348,3.4463696355613234,-14.555466120380355],"RowCount":18,"ColumnCount":9},"ColumnCount":9,"RowCount":18},{"Values":[-21.773138870804374,-5.488863592900396,8.633976700630205,20.223450949585814,13.694631519695701,-7.4114757431042895,-15.156235348453192,8.244507018512058,12.344691195230842,-6.131032881951196,0.8375890039729036,0.6903723422799471,7.157869476112034,1.3786906999971076,6.877039173015996,-10.95067261124197,-1.849112095506393,3.4376854791458684,2.49266791213255,4.108131574540722,-5.556524834720994,-0.9190962811369459,5.639111095324993,-6.021951573385715,-2.62172068603833,-10.558822802579694,-5.230062439174374,-3.7482575751352334,-9.94130157277117,5.42339842492586,-0.013472702079590768,-5.0901457048692755,0.3834709100449868,-3.5526499337694983,6.9639693714087025,-0.39298952665837106,-5.515233189623062,0.8898233920438735,-3.4132167334714834,-3.0160280615567046,1.3002491461581516,3.9383237156491573,-0.4351100447528467,3.7001811012681354,-0.6137806042925215,5.292863948742112,-3.0347535336862568,0.42806078905554484,1.1774178202139474,-1.0507198215718678,-6.22023358781092,-0.06660493932061065,-3.882821199674071,-1.6566645938612117,-1.4424964270852325,-4.092183360412179,2.6026158932070835,4.5295264632795895,0.08540155805212267,-7.348417183721672,-4.415091915880843,1.872875347612618,-2.4129855076747053,2.54900604723235,-6.830721576903691,0.32384872192628433,-1.6399943553853185,2.943412658951692,-10.152675157257772,-2.6378725499122666,-6.769354480664756,-4.169990667138998,11.462994914223657,3.5967858325699815,-14.169679734998718,-14.486618410322567,-1.9373230743696943,-6.374234800340874,-7.942131819207321,-16.7401399710063,6.259178715997362,-21.39414174280641,-19.024992350483615,4.939918604327299,-8.668892312961242,-11.51125051195148,-10.119231710964616,4.2690616254306075,13.821524765938864,-4.90914979920694,-2.1750818531606675,-4.828041126365975,3.288941825295867,2.3645885184628144,-0.15533161489374242,-7.326752220511667,-4.149898188528451,0.7097232917269554,-6.269748847235929,2.734235946730767,-4.805652721456574,2.272439572444601,-5.540659215967937,0.5874067148389696,-5.57846045592107,-0.9685792327704625,-3.3896901122312553,-1.5787059563840422,5.747806386133734,-0.7184072364182411,-11.380353821116055,-23.259399302618146,15.155928921195533,6.279073581350369,2.10695765064674,-2.7269648383657805,-5.332095744123547,14.833257677150408,5.3127918278338315,4.28145275903438,0.753005327837958,-3.158581374872045,4.264933390418211,0.48276070642357344,3.7158914542659645,0.3649515603688754,-8.17111510908081,0.25052273019643345,0.6202430916001737,8.30910907680758,0.40411164188678733,-3.1046484045896166,-6.5660536776057,1.8862117656164066,-5.747524376546524,4.577069048585764,-2.5250387785328603,-0.656066877480388,-0.17827603877933174,-4.920894753902096,-5.628221713430948,-9.127403752055832,-10.668938414293333,0.1964621110284846,4.618915015437767,-4.376153704736956,1.443379606536353,5.991445509382784,-5.96196502796739,-5.705315320074961,3.783026398462891,-13.159624233357981,-6.548024677018712,8.01577358136968,-0.365324832250346,1.1116849939823212,-4.541362660682406,-3.596641526397345,6.795323779899567,0.22351147759485646,10.505104143749117,-3.6506440825339417,6.53299500571191,-5.168472465759865,-16.183920356729775,-18.589556992820185,17.62004537404832,16.0681911747585,-0.6420548585913048,6.5831411645451,12.736930972165643,24.04666393434043,-6.872597835194519,-1.7948371761387794,-9.129381651056116,-2.504950109554464,2.1307751798073924,3.891599160753253,2.3457638044065567,1.298231936510949,-1.9356125818496854,1.986095282913379,-8.798245938881207,-1.9111260158725272,5.002646597075623,0.8006862456089135,-6.433015147660692,-2.2466873845595705,-10.740631206440089,0.7142915392006697,-6.79558901990561,-0.3202375831739892,0.06675021870848566,-7.313452822966181,-9.810013310541715,0.6189923777873099,-7.611573991000424,-0.687116875151977,8.45920382468189,-2.301212238740305,-8.650247566595711,-4.847840857987031,-17.408340651205506,2.9796611952310084,14.547015944290607,1.1345121972020427,-1.9587147883071192,12.780830063319216,-13.9925737221243,-1.2423501555818057,-0.2291516144345784,-6.014143727545983,-10.29687340304641,4.1986174817030575,-12.551541376720415,1.7106987274216743,-3.0118193648587988,-0.32921812117395677,3.1869149292110683,1.6846259562291013,0.2321438244307876,-1.4050014399783257,-8.180909704138484,1.8723181786980114,-2.8729741517142204,-2.581424431873532,-3.9477585537137556,0.46071583185047604,-1.7891118749934087,-3.317445237393559,-19.26256283376107,-1.7523350168893765,0.11864029601331327,-2.693623042839569,-5.344358366656013,1.8293759972079313,-8.840454959411023,-3.186544489689084,3.75929053656796,3.5456622684218515,-0.8150389553480154,-0.5986202819335901,0.8956345527175605,1.0418556031505886,1.0957358500724321,0.7056825192082368,5.631766109195074,-4.459417229841208,4.147778818034931,1.295236455203565,-2.4946850296455096,-2.168655245715524,-9.26857425264233,-2.516366804789653,14.366168686676303,-7.242238882903206,6.3054719266180905,-10.18036781722387,-7.107287856454282,0.3958115181332809,10.007241492024102,15.176089278226865,-9.953114301903655,-0.9796246064630072,-8.254954511759772,9.968897028099589,14.068857360286637,-11.114524175653445,7.655652304721909,-1.3254192208224254,-8.21942267112617,0.4555598599393454,-0.93541120949257,4.030005408752416,2.350627985061233,-3.566882608229551,-4.2211807650402555,3.079530999555456,-3.944646486467438,3.296781318343324,-0.22572468878641258,2.0359295671918005,-2.8183301662847855,0.2667975230055164,1.1005891525967508,-7.812987933710107,-6.663323330342718,0.31555394708318857,-1.2119870525649765,-1.1242819973286602,-5.296703601130542,-6.8709471442922645,3.137149128049077,-5.950539514881329,-2.87477343358777,-7.815602884746062,-6.528186671517532,9.18659273577076,-6.853785325042053,0.9491840830066764,2.4677218050631833,-9.06064921179785,6.74062654318381,-0.042530939753480504,-0.9289890492526544,0.6142616496876087,-4.9436989041032735,-4.146592165139253,0.5898505750496792,7.5329652796854925,-0.8726810014529491,-1.7330841983598815,-0.7341002818568503,-6.120540532356616,-8.547321614986911,1.5928066435736186,-5.7550335839550355,3.5873543065942277,-8.888917312184413,-5.462703144950297,-7.166348988106597,-4.931986910307925,-2.022574094732353,-5.435616694878837],"Storage":{"Data":[-21.773138870804374,-5.488863592900396,8.633976700630205,20.223450949585814,13.694631519695701,-7.4114757431042895,-15.156235348453192,8.244507018512058,12.344691195230842,-6.131032881951196,0.8375890039729036,0.6903723422799471,7.157869476112034,1.3786906999971076,6.877039173015996,-10.95067261124197,-1.849112095506393,3.4376854791458684,2.49266791213255,4.108131574540722,-5.556524834720994,-0.9190962811369459,5.639111095324993,-6.021951573385715,-2.62172068603833,-10.558822802579694,-5.230062439174374,-3.7482575751352334,-9.94130157277117,5.42339842492586,-0.013472702079590768,-5.0901457048692755,0.3834709100449868,-3.5526499337694983,6.9639693714087025,-0.39298952665837106,-5.515233189623062,0.8898233920438735,-3.4132167334714834,-3.0160280615567046,1.3002491461581516,3.9383237156491573,-0.4351100447528467,3.7001811012681354,-0.6137806042925215,5.292863948742112,-3.0347535336862568,0.42806078905554484,1.1774178202139474,-1.0507198215718678,-6.22023358781092,-0.06660493932061065,-3.882821199674071,-1.6566645938612117,-1.4424964270852325,-4.092183360412179,2.6026158932070835,4.5295264632795895,0.08540155805212267,-7.348417183721672,-4.415091915880843,1.872875347612618,-2.4129855076747053,2.54900604723235,-6.830721576903691,0.32384872192628433,-1.6399943553853185,2.943412658951692,-10.152675157257772,-2.6378725499122666,-6.769354480664756,-4.169990667138998,11.462994914223657,3.5967858325699815,-14.169679734998718,-14.486618410322567,-1.9373230743696943,-6.374234800340874,-7.942131819207321,-16.7401399710063,6.259178715997362,-21.39414174280641,-19.024992350483615,4.939918604327299,-8.668892312961242,-11.51125051195148,-10.119231710964616,4.2690616254306075,13.821524765938864,-4.90914979920694,-2.1750818531606675,-4.828041126365975,3.288941825295867,2.3645885184628144,-0.15533161489374242,-7.326752220511667,-4.149898188528451,0.7097232917269554,-6.269748847235929,2.734235946730767,-4.805652721456574,2.272439572444601,-5.540659215967937,0.5874067148389696,-5.57846045592107,-0.9685792327704625,-3.3896901122312553,-1.5787059563840422,5.747806386133734,-0.7184072364182411,-11.380353821116055,-23.259399302618146,15.155928921195533,6.279073581350369,2.10695765064674,-2.7269648383657805,-5.332095744123547,14.833257677150408,5.3127918278338315,4.28145275903438,0.753005327837958,-3.158581374872045,4.264933390418211,0.48276070642357344,3.7158914542659645,0.3649515603688754,-8.17111510908081,0.25052273019643345,0.6202430916001737,8.30910907680758,0.40411164188678733,-3.1046484045896166,-6.5660536776057,1.8862117656164066,-5.747524376546524,4.577069048585764,-2.5250387785328603,-0.656066877480388,-0.17827603877933174,-4.920894753902096,-5.628221713430948,-9.127403752055832,-10.668938414293333,0.1964621110284846,4.618915015437767,-4.376153704736956,1.443379606536353,5.991445509382784,-5.96196502796739,-5.705315320074961,3.783026398462891,-13.159624233357981,-6.548024677018712,8.01577358136968,-0.365324832250346,1.1116849939823212,-4.541362660682406,-3.596641526397345,6.795323779899567,0.22351147759485646,10.505104143749117,-3.6506440825339417,6.53299500571191,-5.168472465759865,-16.183920356729775,-18.589556992820185,17.62004537404832,16.0681911747585,-0.6420548585913048,6.5831411645451,12.736930972165643,24.04666393434043,-6.872597835194519,-1.7948371761387794,-9.129381651056116,-2.504950109554464,2.1307751798073924,3.891599160753253,2.3457638044065567,1.298231936510949,-1.9356125818496854,1.986095282913379,-8.798245938881207,-1.9111260158725272,5.002646597075623,0.8006862456089135,-6.433015147660692,-2.2466873845595705,-10.740631206440089,0.7142915392006697,-6.79558901990561,-0.3202375831739892,0.06675021870848566,-7.313452822966181,-9.810013310541715,0.6189923777873099,-7.611573991000424,-0.687116875151977,8.45920382468189,-2.301212238740305,-8.650247566595711,-4.847840857987031,-17.408340651205506,2.9796611952310084,14.547015944290607,1.1345121972020427,-1.9587147883071192,12.780830063319216,-13.9925737221243,-1.2423501555818057,-0.2291516144345784,-6.014143727545983,-10.29687340304641,4.1986174817030575,-12.551541376720415,1.7106987274216743,-3.0118193648587988,-0.32921812117395677,3.1869149292110683,1.6846259562291013,0.2321438244307876,-1.4050014399783257,-8.180909704138484,1.8723181786980114,-2.8729741517142204,-2.581424431873532,-3.9477585537137556,0.46071583185047604,-1.7891118749934087,-3.317445237393559,-19.26256283376107,-1.7523350168893765,0.11864029601331327,-2.693623042839569,-5.344358366656013,1.8293759972079313,-8.840454959411023,-3.186544489689084,3.75929053656796,3.5456622684218515,-0.8150389553480154,-0.5986202819335901,0.8956345527175605,1.0418556031505886,1.0957358500724321,0.7056825192082368,5.631766109195074,-4.459417229841208,4.147778818034931,1.295236455203565,-2.4946850296455096,-2.168655245715524,-9.26857425264233,-2.516366804789653,14.366168686676303,-7.242238882903206,6.3054719266180905,-10.18036781722387,-7.107287856454282,0.3958115181332809,10.007241492024102,15.176089278226865,-9.953114301903655,-0.9796246064630072,-8.254954511759772,9.968897028099589,14.068857360286637,-11.114524175653445,7.655652304721909,-1.3254192208224254,-8.21942267112617,0.4555598599393454,-0.93541120949257,4.030005408752416,2.350627985061233,-3.566882608229551,-4.2211807650402555,3.079530999555456,-3.944646486467438,3.296781318343324,-0.22572468878641258,2.0359295671918005,-2.8183301662847855,0.2667975230055164,1.1005891525967508,-7.812987933710107,-6.663323330342718,0.31555394708318857,-1.2119870525649765,-1.1242819973286602,-5.296703601130542,-6.8709471442922645,3.137149128049077,-5.950539514881329,-2.87477343358777,-7.815602884746062,-6.528186671517532,9.18659273577076,-6.853785325042053,0.9491840830066764,2.4677218050631833,-9.06064921179785,6.74062654318381,-0.042530939753480504,-0.9289890492526544,0.6142616496876087,-4.9436989041032735,-4.146592165139253,0.5898505750496792,7.5329652796854925,-0.8726810014529491,-1.7330841983598815,-0.7341002818568503,-6.120540532356616,-8.547321614986911,1.5928066435736186,-5.7550335839550355,3.5873543065942277,-8.888917312184413,-5.462703144950297,-7.166348988106597,-4.931986910307925,-2.022574094732353,-5.435616694878837],"RowCount":18,"ColumnCount":18},"ColumnCount":18,"RowCount":18},{"Values":[-2.5499477320568986,-4.995868823686632,-0.5631458985826037,-6.006135169071957,5.017636099049602,-0.8328642418299848,-2.0247230149133046,1.6202256900037382,-3.073762234390132,1.9583467598658864,-2.7113674890384227,-3.6016213702196946,1.91437796379784,0.7654004298920413,-3.4421279518982457,-2.1423960438916567,1.8013409804408598,-0.4573189030076677,-7.868080526370732,2.014328475127617,-5.641103333254998,-4.139920428946794,-2.811663389552234,-2.3332287874000217,2.7943999554053787,-3.976195497479501,2.624884135719871,-5.333926545662708,-5.359344766739987,-0.6416685218560364,-1.7540335465637935,-5.294071682477995,-0.918912286571201,2.6847296312941222,-5.446920436514072,3.613400052814704,2.851784854686221,2.756599788233979,2.633710767397395,2.416377804483427,-4.475761920952139,5.336782951709784,2.060486698199164,1.3658147144782806,-3.1389036533681733,-2.303290169019642,-4.559190704665566,-2.8563800605368352,0.4613426030123534,-0.8772829523656618,0.9286727534932874,2.2597244078324796,2.283792650733302,-5.746364913384103,-2.5415515603735113,-3.229531132427695,-3.167468537847054,-0.16605679877826832,6.982389041362339,-4.238099070700197,1.4722384439266556,-4.349616828576541,-3.2833157271518747,-4.32194454138536,-4.830528246236225,-3.003251484133791,-4.132914767925359,-1.5793043691602477,-3.1495409290370584,7.533333223993164,1.545407444300409,-3.172125271055768,-4.665361486180959,1.228170208096134,-4.643829274206782,-2.5741530269764508,-4.470349556092994,-1.561052903706475,-1.2415252637984058,6.293989959064941,-2.7204656071373083,0.3797035545991617,0.9304388317017113,1.995439046902556,-0.416545422725173,2.807339893508518,0.14490720953413233,3.017267676744783,-1.119751682431887,-6.2055508826145775,-4.834492992916297,-4.953242934479984,-5.7900091260577655,-2.575471401603099,-4.4368205628371005,-3.9657616471987533,5.276516990722979,4.802762222916885,-2.367295328307387,-0.3704762690964162,-4.33002416646936,-2.568174341003674,-1.7797748453645075,-0.27037122972543104,-3.843740477432897,-6.51406530077851,-4.640383443363448,3.4926042015850096,3.523423855630938,-5.136027514778394,-2.774569954179687,-4.0069158531953,-3.2716324080276933,-3.2984315637207557,4.048060306109649,-2.4708847653548074,0.11700381644917106,-3.8912309151171947,1.88916036922542,-3.3314972383987453,-1.4556943190597638,-3.612027147576822,-3.9620189630426097,4.586269347694726,-3.8370432898519344,2.620994337111346,-4.344845605935321,4.097281504676494,0.7311254770641912,-0.6075744135773365,-3.514164641922481,-3.372392066973755,3.732846361030485,-3.6407805813924403,-4.007143719000215,2.9161570672646144,-4.536113164870258,1.1303943823151337,-3.3787237542464656,4.8715618094009665,2.668758755607102,-3.1544391632336493,-0.5313860506589224,-2.0023790440598517,-5.377000570303257,2.073841002502679,5.662891306051956,-2.1107414696161824,-3.8010120513334504,-3.7819050146923145,-4.947211773325586,-5.08878018936088,-1.4923899278207997,0.8793678742966539,-1.6366892789140743,-1.771715207925784,2.1171568144129487,-3.3284439137529818,-1.6769004716585025,3.0478964159518367,0.9709008322573788,-2.1221236269880763],"Storage":{"Data":[-2.5499477320568986,-4.995868823686632,-0.5631458985826037,-6.006135169071957,5.017636099049602,-0.8328642418299848,-2.0247230149133046,1.6202256900037382,-3.073762234390132,1.9583467598658864,-2.7113674890384227,-3.6016213702196946,1.91437796379784,0.7654004298920413,-3.4421279518982457,-2.1423960438916567,1.8013409804408598,-0.4573189030076677,-7.868080526370732,2.014328475127617,-5.641103333254998,-4.139920428946794,-2.811663389552234,-2.3332287874000217,2.7943999554053787,-3.976195497479501,2.624884135719871,-5.333926545662708,-5.359344766739987,-0.6416685218560364,-1.7540335465637935,-5.294071682477995,-0.918912286571201,2.6847296312941222,-5.446920436514072,3.613400052814704,2.851784854686221,2.756599788233979,2.633710767397395,2.416377804483427,-4.475761920952139,5.336782951709784,2.060486698199164,1.3658147144782806,-3.1389036533681733,-2.303290169019642,-4.559190704665566,-2.8563800605368352,0.4613426030123534,-0.8772829523656618,0.9286727534932874,2.2597244078324796,2.283792650733302,-5.746364913384103,-2.5415515603735113,-3.229531132427695,-3.167468537847054,-0.16605679877826832,6.982389041362339,-4.238099070700197,1.4722384439266556,-4.349616828576541,-3.2833157271518747,-4.32194454138536,-4.830528246236225,-3.003251484133791,-4.132914767925359,-1.5793043691602477,-3.1495409290370584,7.533333223993164,1.545407444300409,-3.172125271055768,-4.665361486180959,1.228170208096134,-4.643829274206782,-2.5741530269764508,-4.470349556092994,-1.561052903706475,-1.2415252637984058,6.293989959064941,-2.7204656071373083,0.3797035545991617,0.9304388317017113,1.995439046902556,-0.416545422725173,2.807339893508518,0.14490720953413233,3.017267676744783,-1.119751682431887,-6.2055508826145775,-4.834492992916297,-4.953242934479984,-5.7900091260577655,-2.575471401603099,-4.4368205628371005,-3.9657616471987533,5.276516990722979,4.802762222916885,-2.367295328307387,-0.3704762690964162,-4.33002416646936,-2.568174341003674,-1.7797748453645075,-0.27037122972543104,-3.843740477432897,-6.51406530077851,-4.640383443363448,3.4926042015850096,3.523423855630938,-5.136027514778394,-2.774569954179687,-4.0069158531953,-3.2716324080276933,-3.2984315637207557,4.048060306109649,-2.4708847653548074,0.11700381644917106,-3.8912309151171947,1.88916036922542,-3.3314972383987453,-1.4556943190597638,-3.612027147576822,-3.9620189630426097,4.586269347694726,-3.8370432898519344,2.620994337111346,-4.344845605935321,4.097281504676494,0.7311254770641912,-0.6075744135773365,-3.514164641922481,-3.372392066973755,3.732846361030485,-3.6407805813924403,-4.007143719000215,2.9161570672646144,-4.536113164870258,1.1303943823151337,-3.3787237542464656,4.8715618094009665,2.668758755607102,-3.1544391632336493,-0.5313860506589224,-2.0023790440598517,-5.377000570303257,2.073841002502679,5.662891306051956,-2.1107414696161824,-3.8010120513334504,-3.7819050146923145,-4.947211773325586,-5.08878018936088,-1.4923899278207997,0.8793678742966539,-1.6366892789140743,-1.771715207925784,2.1171568144129487,-3.3284439137529818,-1.6769004716585025,3.0478964159518367,0.9709008322573788,-2.1221236269880763],"RowCount":9,"ColumnCount":18},"ColumnCount":18,"RowCount":9}],"BiasHidden":[{"Values":[-15.493758725593276,-20.88493412933973,14.105742723796007,5.950680972682031,-3.087644691702368,16.13482510852443,12.844270074875118,5.419218005187657,-19.497600578926853,-5.718887462148062,34.80567074436943,24.378298724461025,14.194664476457067,-13.455223044319933,5.3161661991080065,16.03058339313192,-3.113128132856091,18.866484630287403],"Storage":{"Data":[-15.493758725593276,-20.88493412933973,14.105742723796007,5.950680972682031,-3.087644691702368,16.13482510852443,12.844270074875118,5.419218005187657,-19.497600578926853,-5.718887462148062,34.80567074436943,24.378298724461025,14.194664476457067,-13.455223044319933,5.3161661991080065,16.03058339313192,-3.113128132856091,18.866484630287403],"RowCount":18,"ColumnCount":1},"ColumnCount":1,"RowCount":18},{"Values":[14.757560971882404,-25.484144266686812,4.313700096509803,-3.1405425196885357,8.025145133297153,-2.9687039932553607,12.263004738830658,0.09872111405903079,13.82554836361997,-11.574963532842222,46.59022720067636,0.6231047696785947,-1.3996087298610278,11.392508602938472,48.97815535858201,3.6291797099243865,2.49504920643746,-0.5449358954364953],"Storage":{"Data":[14.757560971882404,-25.484144266686812,4.313700096509803,-3.1405425196885357,8.025145133297153,-2.9687039932553607,12.263004738830658,0.09872111405903079,13.82554836361997,-11.574963532842222,46.59022720067636,0.6231047696785947,-1.3996087298610278,11.392508602938472,48.97815535858201,3.6291797099243865,2.49504920643746,-0.5449358954364953],"RowCount":18,"ColumnCount":1},"ColumnCount":1,"RowCount":18},{"Values":[-4.985410660477849,-4.740726509309794,-4.805700902630519,-2.713258056525043,-1.446376783069168,-4.26464295095773,-4.74277837047372,-2.7405282988870323,4.080080688110819],"Storage":{"Data":[-4.985410660477849,-4.740726509309794,-4.805700902630519,-2.713258056525043,-1.446376783069168,-4.26464295095773,-4.74277837047372,-2.7405282988870323,4.080080688110819],"RowCount":9,"ColumnCount":1},"ColumnCount":1,"RowCount":9}],"ActivationsHiddenSigmoid":[{"Values":[1.2064127949738383E-30,4.530998519859018E-66,0.9999999963587385,0.999996598240659,0.9999985928136157,1.0,1.0,0.9999999988687613,8.509384194121567E-59,7.770685619542352E-14,1.0,1.0,1.0,6.3922249748934545E-12,1.0,1.0,0.00032752173997925593,1.0],"Storage":{"Data":[1.2064127949738383E-30,4.530998519859018E-66,0.9999999963587385,0.999996598240659,0.9999985928136157,1.0,1.0,0.9999999988687613,8.509384194121567E-59,7.770685619542352E-14,1.0,1.0,1.0,6.3922249748934545E-12,1.0,1.0,0.00032752173997925593,1.0],"RowCount":18,"ColumnCount":1},"ColumnCount":1,"RowCount":18},{"Values":[0.014470104901547173,6.727536222190176E-17,1.0410575667962056E-08,1.6134682542029502E-13,0.9999999906611327,9.243572073314244E-14,5.795805793841312E-10,2.072016996391133E-06,1.0726017919271796E-08,0.9999999999993083,1.4025716975952299E-11,0.9999998562008123,5.663543866758887E-17,2.2877078953304757E-08,1.3475209345955577E-07,1.1215845479518063E-11,6.538311369571354E-12,1.3633320251609389E-09],"Storage":{"Data":[0.014470104901547173,6.727536222190176E-17,1.0410575667962056E-08,1.6134682542029502E-13,0.9999999906611327,9.243572073314244E-14,5.795805793841312E-10,2.072016996391133E-06,1.0726017919271796E-08,0.9999999999993083,1.4025716975952299E-11,0.9999998562008123,5.663543866758887E-17,2.2877078953304757E-08,1.3475209345955577E-07,1.1215845479518063E-11,6.538311369571354E-12,1.3633320251609389E-09],"RowCount":18,"ColumnCount":1},"ColumnCount":1,"RowCount":18},{"Values":[0.10363662514029935,0.004252424968539635,0.06000049786627683,0.0705502272360707,0.035158716389362105,0.06678941511847993,0.0020084761460221192,0.0008150869811300201,0.13509052549931422],"Storage":{"Data":[0.10363662514029935,0.004252424968539635,0.06000049786627683,0.0705502272360707,0.035158716389362105,0.06678941511847993,0.0020084761460221192,0.0008150869811300201,0.13509052549931422],"RowCount":9,"ColumnCount":1},"ColumnCount":1,"RowCount":9}]}