{"NumberInput":9,"NumberNeurons":18,"NumberOutput":9,"NumberOfLayers":2,"WeightsHidden":[{"Values":[34.08168038396848,205.12635364775537,265.4951583717417,303.947800370516,-123.33923491700628,7.843441747136031,12.337847676763122,9.299759437414524,-307.32215724199466,68.10307413788354,9.35498194522982,-24.526004539617233,407.61887075174803,32.03808873539634,8.969589407287703,20.170563196584585,3.222374981442567,-9.01360227097,82.16321468126556,-2.2954070025588145,-21.518640041380305,13.559391791157777,-74.73947781102018,16.16616172227451,7.059187953465139,4.420353438072098,21.42575225624029,14.877991397313458,35.830683318767434,-62.2080412205017,-64.11847793643186,44.40346688059091,1.1454942567961226,-41.23638593755011,2.21073752442453,-34.53883968234152,-1.4538940493689947,-77.75160734747303,6.1019763109083645,25.00517326296767,190.3605861783034,13.518309447765464,-5.738240267182016,0.9974760459748702,382.27394560512795,78.9503047788452,20.648001733681614,288.3520283842006,51.42363322295554,8.542367911124323,108.9363735152983,4.672514326124139,4.403925224044595,-78.20325179308104,-3.0540291382941875,22.063978618492904,23.48963372712398,-18.511317053773226,-6.470123209636377,6.227583920377563,1.5945550219190723,9.708436545741126,15.789309801061588,18.728621819671798,61.706691773257994,-35.32399693913098,-3.7537783153255244,13.814625126001449,14.607615771326332,15.678275951335948,-4.997706254922867,-12.8148432741032,13.056791328212903,55.962923693678704,-19.837221318292855,-243.62830491540774,6.172829142611519,-2.081352397104107,82.25889267032704,2.725484796394598,175.7140019008286,-1.0821819070553946,131.54112541842503,-39.9829198486673,-28.335177699328142,-64.10075489196922,5.922776038677877,95.16975099548328,-14.49812640043599,133.9042868946478,26.401185312015702,122.10108890451595,72.52669222903232,10.713277555043144,-185.99503937787654,3.4233553317331125,9.402763436096784,28.12490504743379,21.91506880104183,-15.51347868900989,56.84971606587727,-53.46954492766673,-2.991546329745673,32.212294851797175,42.46455250578629,15.374696736914279,-37.181940655249626,-60.63317188499947,-18.30611741703851,121.14572126155974,13.341643661869657,-2.102714185580239,-158.81896838041095,-3.6295937028585348,7.760792217133155,-3.912058026641735,18.56553527462004,-10.928557825600016,38.06352923339858,-35.262324678674865,-25.677149751493168,44.09726887843651,9.386202128755869,15.870484719414206,-6.233490642110017,-64.41145186030087,2.589057856422455,37.39548050259486,-26.46688152678208,-25.817274169251615,-8.474906545274708,13.35146003476783,34.91478966489388,6.173768688149382,20.829281900172038,54.31583450291078,40.43003739990104,-69.30258880888127,-37.090566758527935,31.41577460062861,0.0917530823514392,34.37979596442972,-5.786547550202366,-91.19744268747907,14.405637805150127,-66.13879020287432,23.361251798478406,-4.771404057695282,-115.13902521393806,2.638084728865975,-15.127745132994093,-152.50414078477993,38.36352529481764,45.48402368223044,-177.02544869890588,-23.63114784950945,-28.40144989238767,41.910267778703435,-0.44169607340612405,32.43551783285053,-19.394392849777606,-90.26530852417162],"Storage":{"Data":[34.08168038396848,205.12635364775537,265.4951583717417,303.947800370516,-123.33923491700628,7.843441747136031,12.337847676763122,9.299759437414524,-307.32215724199466,68.10307413788354,9.35498194522982,-24.526004539617233,407.61887075174803,32.03808873539634,8.969589407287703,20.170563196584585,3.222374981442567,-9.01360227097,82.16321468126556,-2.2954070025588145,-21.518640041380305,13.559391791157777,-74.73947781102018,16.16616172227451,7.059187953465139,4.420353438072098,21.42575225624029,14.877991397313458,35.830683318767434,-62.2080412205017,-64.11847793643186,44.40346688059091,1.1454942567961226,-41.23638593755011,2.21073752442453,-34.53883968234152,-1.4538940493689947,-77.75160734747303,6.1019763109083645,25.00517326296767,190.3605861783034,13.518309447765464,-5.738240267182016,0.9974760459748702,382.27394560512795,78.9503047788452,20.648001733681614,288.3520283842006,51.42363322295554,8.542367911124323,108.9363735152983,4.672514326124139,4.403925224044595,-78.20325179308104,-3.0540291382941875,22.063978618492904,23.48963372712398,-18.511317053773226,-6.470123209636377,6.227583920377563,1.5945550219190723,9.708436545741126,15.789309801061588,18.728621819671798,61.706691773257994,-35.32399693913098,-3.7537783153255244,13.814625126001449,14.607615771326332,15.678275951335948,-4.997706254922867,-12.8148432741032,13.056791328212903,55.962923693678704,-19.837221318292855,-243.62830491540774,6.172829142611519,-2.081352397104107,82.25889267032704,2.725484796394598,175.7140019008286,-1.0821819070553946,131.54112541842503,-39.9829198486673,-28.335177699328142,-64.10075489196922,5.922776038677877,95.16975099548328,-14.49812640043599,133.9042868946478,26.401185312015702,122.10108890451595,72.52669222903232,10.713277555043144,-185.99503937787654,3.4233553317331125,9.402763436096784,28.12490504743379,21.91506880104183,-15.51347868900989,56.84971606587727,-53.46954492766673,-2.991546329745673,32.212294851797175,42.46455250578629,15.374696736914279,-37.181940655249626,-60.63317188499947,-18.30611741703851,121.14572126155974,13.341643661869657,-2.102714185580239,-158.81896838041095,-3.6295937028585348,7.760792217133155,-3.912058026641735,18.56553527462004,-10.928557825600016,38.06352923339858,-35.262324678674865,-25.677149751493168,44.09726887843651,9.386202128755869,15.870484719414206,-6.233490642110017,-64.41145186030087,2.589057856422455,37.39548050259486,-26.46688152678208,-25.817274169251615,-8.474906545274708,13.35146003476783,34.91478966489388,6.173768688149382,20.829281900172038,54.31583450291078,40.43003739990104,-69.30258880888127,-37.090566758527935,31.41577460062861,0.0917530823514392,34.37979596442972,-5.786547550202366,-91.19744268747907,14.405637805150127,-66.13879020287432,23.361251798478406,-4.771404057695282,-115.13902521393806,2.638084728865975,-15.127745132994093,-152.50414078477993,38.36352529481764,45.48402368223044,-177.02544869890588,-23.63114784950945,-28.40144989238767,41.910267778703435,-0.44169607340612405,32.43551783285053,-19.394392849777606,-90.26530852417162],"RowCount":18,"ColumnCount":9},"ColumnCount":9,"RowCount":18},{"Values":[12.450238673029185,-10.121399683256568,-7.703982107772159,-50.74606461919841,-0.7608876080571173,10.177210203011914,-2.903821046970267,-0.8381953287078252,6.289881856198639,0.2516136756334449,-31.337944078544137,0.1635067783812659,-2.294225139894451,-0.15338760248145705,0.06233414759893286,0.17327729549030593,12.018045139312902,0.27261417563771845,26.58354743514459,-15.572549380160401,8.078590135303084,-6.204254834659527,1.360218803095676,-2.997113394053897,-3.8909466340328076,-1.1359935602023978,-0.15955396467895896,-1.231766759025309,-3.227098912669589,-1.097842458061285,-6.92359022766058,0.6384946411390652,-5.540511113859378,-0.6855610543235802,5.670334253971367,-0.802482127835371,0.26580599872506405,22.890809588041893,-5.6983298489513245,-16.437508293067815,1.7383286653708125,-2.061639660595219,-5.152412835930414,-0.23933646725319258,-5.08200893952457,-0.024556759237122285,-13.398355417065615,0.1784010509055557,-2.605181306367732,-0.1737151166265855,0.01845177497226722,0.11711682329813546,-8.54913842138719,0.3126262049185625,-32.347059731496714,-19.78413990964991,-0.5209579996385877,16.077302156260313,4.9169542544482745,-32.109171360433606,5.742249879202361,-2.6278251255372833,-3.06086113981041,-1.9077031002225813,5.902356822582089,-0.9256390896166674,1.9008920515841947,0.37690504718284623,8.486574125803756,-0.5004112087492704,-2.1346248504988785,-0.07469029970963142,-21.648864341739458,-25.789341469643116,-1.5334601948550488,-3.7531142934908557,-8.146375795261845,-17.429511471051285,1.0715817210598546,0.5281099090616993,-3.956387367901433,0.2503883423849812,0.3521103046321806,0.19027235724046737,8.272003550528618,-0.3394678555817987,8.401608209309165,0.13663938081791976,8.282570111436915,0.32686696918528857,-1.7082390990669376,-15.428105307006904,-30.601082456276288,-46.70637038658111,-3.2178551193930076,7.562805241111335,-7.714623616750755,7.524805019981768,-1.2355309132262444,-2.2259554433634197,-41.62817620649424,0.21157156300986074,-10.263150557340587,-0.2055648042478156,-24.528160875210002,0.20416126368112722,4.341096626600691,0.33262559553812304,1.3083714619195264,-0.9394919458846243,-0.5241892546544566,0.5312325164452639,5.730764605883654,-7.733621406659505,-4.4970665956561575,-6.348224295415201,-3.3985935541453545,-0.5372151557662699,-0.35352913880028125,0.044541533257183075,0.7040166813121077,-0.06117468985831009,4.1651760521657,0.0825714231503055,-6.37201150043281,0.21273707711418247,-7.924007489005807,-6.069347088649306,1.8700543433656436,4.530420995162075,7.248809149685579,10.042005440903232,4.3026749500913315,-2.944473504318368,4.349213382882132,-2.513756980315168,9.668503370386773,0.3862610510182644,0.5077315209634037,-0.09602920045561346,-1.1006379835508764,0.3025326737903766,35.239865310490025,0.5955143562110343,-33.49900299734912,-4.8653482057970345,-7.8499739088921086,-35.89992023226143,-2.40923447560684,-39.179798611698054,-13.928746029960614,-8.765120783264901,-7.857403774657941,-17.015834588110103,-21.970891722292723,-4.902308249567676,-10.097159036004845,1.6872498579860025,-7.533377564259571,-6.378540491246706,14.132733811937891,-1.8707712497590931,-4.130272815164293,-13.179212434282784,-12.35178080989439,-37.28184523932903,-0.30381082523740727,6.435614031463246,-3.162386547210916,-2.5423966332101218,-5.106754317302043,-12.560195765498428,-32.27114265168838,-4.056413905007478,-0.6409652385865965,1.1703121698774912,1.7218874608071206,-5.715895971324098,2.9048076057212238,-1.346324151393034,5.701853375912998,4.485523731369613,-10.434061930597931,-21.676417221606567,1.2434524334930974,-2.901990482169744,-5.481085898394757,1.2830526494438648,-18.114846569796466,-0.1762947576850222,-25.143341615696297,0.11601748858765466,-0.36579143781396517,-0.1749607080611207,0.004198486620001912,0.04923775853516656,-31.850565740442477,0.29693837511307714,48.301180227683005,-17.86751633763098,4.266323849504848,2.1562594944913873,0.8712318538265458,7.048931440110473,-14.632007149624647,4.0554399447977705,5.222055151606227,-9.262758101378843,4.924202484130693,-8.043212552644517,1.8143017531292986,0.5498877156986027,-5.773404187406491,9.512547126657884,-27.153585328936764,-0.8213967976750687,16.868357243888905,1.6805948000219952,-14.206669136171284,-8.305891985909179,-1.8453420635432385,-14.224077049684999,-6.239399016365908,2.8260138536074604,-5.999012657887038,-0.533946714170634,-27.465793706650004,0.21577231877407976,2.8062403386982795,-0.1685950800855403,1.6668469136055897,0.08828960242100097,15.630723323726967,0.3402482461354841,-10.044554210939706,-18.012777945333927,-22.913923514784294,-47.398090318829354,-2.047029088229257,10.434082010040962,-10.102747158509468,-7.592004292143368,-13.992318017943244,-15.540485341358837,-32.294927910294234,-9.714515460340518,-11.274081361160183,1.260909816034133,-7.58748814071106,-6.281540927882874,9.683023454179038,-1.6598624121008465,-3.8097431703842526,-14.032419336635177,-19.604762838347042,-46.67113557207543,-13.892857419411003,4.9055758869450194,9.277777872289079,-3.1972995430354696,-4.969746509281393,4.81069036498461,-35.60249375980663,7.557114785314425,-8.86676146042697,-0.6022822906466847,3.561529684664597,0.1476273796286587,9.356036110402277,0.512149748005056,-0.21950770549283766,-15.231749587836264,-33.83725258678613,-49.01434101454638,-1.0067807757885663,-2.2869870211013654,-9.737190079940168,-0.9964632935017627,-13.927472201601523,-19.122524483925936,-45.41510809834596,-2.991138868020889,-9.55014119751464,0.4755165141528972,-22.530444257609695,-5.720063760145725,6.988093009280971,-0.6162391175384225,-0.015076225999084824,-3.4754624319750906,-1.1560378644854477,-1.0267357059294469,8.347040090926647,0.5878170304370675,-3.461743107067153,-1.654968950170136,4.3662421301908125,-0.9781595507248697,0.6380125845399623,0.19030325221406277,-2.9273539034597147,-0.3605752076073379,-1.0332395783927077,0.18735983760329847,1.0342854851275853,0.38964154720410443,6.981801274919141,4.295215413946788,1.5161864516113508,9.418592860659324,0.16685163549379917,-1.7011708264641183,0.20877637030869078,0.14908576855977201,22.90065094718713,1.61863032062693,25.367518050892766,-0.17666834589870625,0.31203435477562735,-0.010684530688382017,0.34967079217603797,0.8709639165268628,14.457085693097623,0.11830776498308555],"Storage":{"Data":[12.450238673029185,-10.121399683256568,-7.703982107772159,-50.74606461919841,-0.7608876080571173,10.177210203011914,-2.903821046970267,-0.8381953287078252,6.289881856198639,0.2516136756334449,-31.337944078544137,0.1635067783812659,-2.294225139894451,-0.15338760248145705,0.06233414759893286,0.17327729549030593,12.018045139312902,0.27261417563771845,26.58354743514459,-15.572549380160401,8.078590135303084,-6.204254834659527,1.360218803095676,-2.997113394053897,-3.8909466340328076,-1.1359935602023978,-0.15955396467895896,-1.231766759025309,-3.227098912669589,-1.097842458061285,-6.92359022766058,0.6384946411390652,-5.540511113859378,-0.6855610543235802,5.670334253971367,-0.802482127835371,0.26580599872506405,22.890809588041893,-5.6983298489513245,-16.437508293067815,1.7383286653708125,-2.061639660595219,-5.152412835930414,-0.23933646725319258,-5.08200893952457,-0.024556759237122285,-13.398355417065615,0.1784010509055557,-2.605181306367732,-0.1737151166265855,0.01845177497226722,0.11711682329813546,-8.54913842138719,0.3126262049185625,-32.347059731496714,-19.78413990964991,-0.5209579996385877,16.077302156260313,4.9169542544482745,-32.109171360433606,5.742249879202361,-2.6278251255372833,-3.06086113981041,-1.9077031002225813,5.902356822582089,-0.9256390896166674,1.9008920515841947,0.37690504718284623,8.486574125803756,-0.5004112087492704,-2.1346248504988785,-0.07469029970963142,-21.648864341739458,-25.789341469643116,-1.5334601948550488,-3.7531142934908557,-8.146375795261845,-17.429511471051285,1.0715817210598546,0.5281099090616993,-3.956387367901433,0.2503883423849812,0.3521103046321806,0.19027235724046737,8.272003550528618,-0.3394678555817987,8.401608209309165,0.13663938081791976,8.282570111436915,0.32686696918528857,-1.7082390990669376,-15.428105307006904,-30.601082456276288,-46.70637038658111,-3.2178551193930076,7.562805241111335,-7.714623616750755,7.524805019981768,-1.2355309132262444,-2.2259554433634197,-41.62817620649424,0.21157156300986074,-10.263150557340587,-0.2055648042478156,-24.528160875210002,0.20416126368112722,4.341096626600691,0.33262559553812304,1.3083714619195264,-0.9394919458846243,-0.5241892546544566,0.5312325164452639,5.730764605883654,-7.733621406659505,-4.4970665956561575,-6.348224295415201,-3.3985935541453545,-0.5372151557662699,-0.35352913880028125,0.044541533257183075,0.7040166813121077,-0.06117468985831009,4.1651760521657,0.0825714231503055,-6.37201150043281,0.21273707711418247,-7.924007489005807,-6.069347088649306,1.8700543433656436,4.530420995162075,7.248809149685579,10.042005440903232,4.3026749500913315,-2.944473504318368,4.349213382882132,-2.513756980315168,9.668503370386773,0.3862610510182644,0.5077315209634037,-0.09602920045561346,-1.1006379835508764,0.3025326737903766,35.239865310490025,0.5955143562110343,-33.49900299734912,-4.8653482057970345,-7.8499739088921086,-35.89992023226143,-2.40923447560684,-39.179798611698054,-13.928746029960614,-8.765120783264901,-7.857403774657941,-17.015834588110103,-21.970891722292723,-4.902308249567676,-10.097159036004845,1.6872498579860025,-7.533377564259571,-6.378540491246706,14.132733811937891,-1.8707712497590931,-4.130272815164293,-13.179212434282784,-12.35178080989439,-37.28184523932903,-0.30381082523740727,6.435614031463246,-3.162386547210916,-2.5423966332101218,-5.106754317302043,-12.560195765498428,-32.27114265168838,-4.056413905007478,-0.6409652385865965,1.1703121698774912,1.7218874608071206,-5.715895971324098,2.9048076057212238,-1.346324151393034,5.701853375912998,4.485523731369613,-10.434061930597931,-21.676417221606567,1.2434524334930974,-2.901990482169744,-5.481085898394757,1.2830526494438648,-18.114846569796466,-0.1762947576850222,-25.143341615696297,0.11601748858765466,-0.36579143781396517,-0.1749607080611207,0.004198486620001912,0.04923775853516656,-31.850565740442477,0.29693837511307714,48.301180227683005,-17.86751633763098,4.266323849504848,2.1562594944913873,0.8712318538265458,7.048931440110473,-14.632007149624647,4.0554399447977705,5.222055151606227,-9.262758101378843,4.924202484130693,-8.043212552644517,1.8143017531292986,0.5498877156986027,-5.773404187406491,9.512547126657884,-27.153585328936764,-0.8213967976750687,16.868357243888905,1.6805948000219952,-14.206669136171284,-8.305891985909179,-1.8453420635432385,-14.224077049684999,-6.239399016365908,2.8260138536074604,-5.999012657887038,-0.533946714170634,-27.465793706650004,0.21577231877407976,2.8062403386982795,-0.1685950800855403,1.6668469136055897,0.08828960242100097,15.630723323726967,0.3402482461354841,-10.044554210939706,-18.012777945333927,-22.913923514784294,-47.398090318829354,-2.047029088229257,10.434082010040962,-10.102747158509468,-7.592004292143368,-13.992318017943244,-15.540485341358837,-32.294927910294234,-9.714515460340518,-11.274081361160183,1.260909816034133,-7.58748814071106,-6.281540927882874,9.683023454179038,-1.6598624121008465,-3.8097431703842526,-14.032419336635177,-19.604762838347042,-46.67113557207543,-13.892857419411003,4.9055758869450194,9.277777872289079,-3.1972995430354696,-4.969746509281393,4.81069036498461,-35.60249375980663,7.557114785314425,-8.86676146042697,-0.6022822906466847,3.561529684664597,0.1476273796286587,9.356036110402277,0.512149748005056,-0.21950770549283766,-15.231749587836264,-33.83725258678613,-49.01434101454638,-1.0067807757885663,-2.2869870211013654,-9.737190079940168,-0.9964632935017627,-13.927472201601523,-19.122524483925936,-45.41510809834596,-2.991138868020889,-9.55014119751464,0.4755165141528972,-22.530444257609695,-5.720063760145725,6.988093009280971,-0.6162391175384225,-0.015076225999084824,-3.4754624319750906,-1.1560378644854477,-1.0267357059294469,8.347040090926647,0.5878170304370675,-3.461743107067153,-1.654968950170136,4.3662421301908125,-0.9781595507248697,0.6380125845399623,0.19030325221406277,-2.9273539034597147,-0.3605752076073379,-1.0332395783927077,0.18735983760329847,1.0342854851275853,0.38964154720410443,6.981801274919141,4.295215413946788,1.5161864516113508,9.418592860659324,0.16685163549379917,-1.7011708264641183,0.20877637030869078,0.14908576855977201,22.90065094718713,1.61863032062693,25.367518050892766,-0.17666834589870625,0.31203435477562735,-0.010684530688382017,0.34967079217603797,0.8709639165268628,14.457085693097623,0.11830776498308555],"RowCount":18,"ColumnCount":18},"ColumnCount":18,"RowCount":18},{"Values":[24.34180519219694,3.52807250158165,-4.258879058804827,3.5841735245694397,5.737946356870739,4.711456063257496,11.970173364825671,8.355966624875784,16.378228781008943,1.839456001598382,-1.199890143906435,9.08039451560481,0.7195214288022712,15.30217035272797,1.0655090183110054,2.9193912665762873,0.6970050826222856,3.0592912740310103,-7.36893532008015,-3.9239818252758463,-4.237464884384057,-0.8317158052799777,-0.804970392146671,-0.11404981310065233,0.002923155840654496,0.7201567022495501,-5.449019997758482,-5.259544297282631,-5.80764981896708,-15.610300716767169,0.9009013607814443,-16.291862231798238,-1.6466190092083128,0.20945840610436028,-2.462720237499152,-7.623996922313766,-4.021631901601837,-4.484503816383289,-1.4611879871247229,-1.7653842841429186,-2.0781474954111387,5.447115373456959,-1.3759580124213686,-1.9049029116338703,-0.5604432725441748,-19.475424062569225,-16.855935405775824,-22.97375575323219,-4.135878063075986,4.443531343305716,-14.079241953970818,-1.1210485215263253,-5.334911095953615,-30.152841119069638,-3.698141134093586,-4.892772719198156,3.834036456256624,-0.0488493311130733,5.061419577575397,-2.7287171758538307,-0.0005658388673761813,-0.5872648597268482,-4.608139837022013,-7.317615706572867,-3.231217143083082,-6.279902622808873,-0.7984219551391029,-4.141520189134281,-0.78159816280564,-4.106018160428396,-9.564253068104378,-4.9424838226879455,-1.7105343834752231,-6.357197700516034,-5.845386855746978,-1.2513731587650785,5.3896828821005505,-1.1977667708008821,-1.0910476642942715,-6.57468792732831,-4.234806256260978,-0.9595457454460629,-4.747813919963209,3.623935964901878,-0.09546788487463066,3.6783219217692613,-3.6600725782103862,0.5401411592251821,-4.086009524884131,0.7607513814582344,-11.909952407143441,-1.5989511507343486,-1.649913537876421,-1.0687721997607678,5.1113426399942705,-1.2396325181601076,-1.0875237384315588,-0.9727945121796776,-5.201491399301565,-0.4616293952369696,-1.9899617559085538,3.810794596331305,0.4203107367907004,1.8168432185011585,0.06907367899382877,0.16502558517851465,-1.5376263066619629,-0.15006321971399625,0.2810942178529256,3.9804241939585823,-3.274582021072521,-0.7216078106293894,1.5675604510708157,-2.616339304983577,-0.7229547168091696,-2.709523856758275,-0.9777909160300864,-11.30714625189122,-7.512767411902537,-7.880551645066325,-3.52892606943459,-9.820090613819763,-3.32651664434165,-6.762373100739909,-3.2993270056581814,-7.852136898909961,-3.303347266056749,2.1683554971841605,4.056636359266839,-0.48134916153628093,-0.3427267436630747,-1.430260000624618,-3.7405285071528174,-0.26223186053247777,-5.268337044528654,-1.066566728170903,-0.7772501353661789,-1.1565413668734665,-0.6007848059126027,4.134343458965457,-0.5437425023958783,-1.6102747531525128,-1.0079742780382743,-1.3578236100904737,3.4345226700793297,12.485162987327028,15.96873888976474,0.2026437485829603,0.804736310771003,-0.210000117562924,1.0732167461355195,4.2263372192308735,-0.1586194051325527,-0.013394228433144991,-0.5577457306779876,0.17392598798429615,-0.3347417323665349,1.008649755613824,-0.24462832820028196,0.032365418267374435,-0.7987529739552148,-0.011460079161964605],"Storage":{"Data":[24.34180519219694,3.52807250158165,-4.258879058804827,3.5841735245694397,5.737946356870739,4.711456063257496,11.970173364825671,8.355966624875784,16.378228781008943,1.839456001598382,-1.199890143906435,9.08039451560481,0.7195214288022712,15.30217035272797,1.0655090183110054,2.9193912665762873,0.6970050826222856,3.0592912740310103,-7.36893532008015,-3.9239818252758463,-4.237464884384057,-0.8317158052799777,-0.804970392146671,-0.11404981310065233,0.002923155840654496,0.7201567022495501,-5.449019997758482,-5.259544297282631,-5.80764981896708,-15.610300716767169,0.9009013607814443,-16.291862231798238,-1.6466190092083128,0.20945840610436028,-2.462720237499152,-7.623996922313766,-4.021631901601837,-4.484503816383289,-1.4611879871247229,-1.7653842841429186,-2.0781474954111387,5.447115373456959,-1.3759580124213686,-1.9049029116338703,-0.5604432725441748,-19.475424062569225,-16.855935405775824,-22.97375575323219,-4.135878063075986,4.443531343305716,-14.079241953970818,-1.1210485215263253,-5.334911095953615,-30.152841119069638,-3.698141134093586,-4.892772719198156,3.834036456256624,-0.0488493311130733,5.061419577575397,-2.7287171758538307,-0.0005658388673761813,-0.5872648597268482,-4.608139837022013,-7.317615706572867,-3.231217143083082,-6.279902622808873,-0.7984219551391029,-4.141520189134281,-0.78159816280564,-4.106018160428396,-9.564253068104378,-4.9424838226879455,-1.7105343834752231,-6.357197700516034,-5.845386855746978,-1.2513731587650785,5.3896828821005505,-1.1977667708008821,-1.0910476642942715,-6.57468792732831,-4.234806256260978,-0.9595457454460629,-4.747813919963209,3.623935964901878,-0.09546788487463066,3.6783219217692613,-3.6600725782103862,0.5401411592251821,-4.086009524884131,0.7607513814582344,-11.909952407143441,-1.5989511507343486,-1.649913537876421,-1.0687721997607678,5.1113426399942705,-1.2396325181601076,-1.0875237384315588,-0.9727945121796776,-5.201491399301565,-0.4616293952369696,-1.9899617559085538,3.810794596331305,0.4203107367907004,1.8168432185011585,0.06907367899382877,0.16502558517851465,-1.5376263066619629,-0.15006321971399625,0.2810942178529256,3.9804241939585823,-3.274582021072521,-0.7216078106293894,1.5675604510708157,-2.616339304983577,-0.7229547168091696,-2.709523856758275,-0.9777909160300864,-11.30714625189122,-7.512767411902537,-7.880551645066325,-3.52892606943459,-9.820090613819763,-3.32651664434165,-6.762373100739909,-3.2993270056581814,-7.852136898909961,-3.303347266056749,2.1683554971841605,4.056636359266839,-0.48134916153628093,-0.3427267436630747,-1.430260000624618,-3.7405285071528174,-0.26223186053247777,-5.268337044528654,-1.066566728170903,-0.7772501353661789,-1.1565413668734665,-0.6007848059126027,4.134343458965457,-0.5437425023958783,-1.6102747531525128,-1.0079742780382743,-1.3578236100904737,3.4345226700793297,12.485162987327028,15.96873888976474,0.2026437485829603,0.804736310771003,-0.210000117562924,1.0732167461355195,4.2263372192308735,-0.1586194051325527,-0.013394228433144991,-0.5577457306779876,0.17392598798429615,-0.3347417323665349,1.008649755613824,-0.24462832820028196,0.032365418267374435,-0.7987529739552148,-0.011460079161964605],"RowCount":9,"ColumnCount":18},"ColumnCount":18,"RowCount":9}],"BiasHidden":[{"Values":[29.54567167201215,140.06276892503476,58.37439426676354,-237.4644364758052,-132.23429850794548,12.014019888195033,24.891279315183393,7.307697469492123,113.88278878591831,51.38141339247071,120.64091620166246,-53.615552728977676,-34.13886115898589,44.96463644574691,13.015923887202819,18.080012702772255,-14.821571949470897,-75.41289415360771],"Storage":{"Data":[29.54567167201215,140.06276892503476,58.37439426676354,-237.4644364758052,-132.23429850794548,12.014019888195033,24.891279315183393,7.307697469492123,113.88278878591831,51.38141339247071,120.64091620166246,-53.615552728977676,-34.13886115898589,44.96463644574691,13.015923887202819,18.080012702772255,-14.821571949470897,-75.41289415360771],"RowCount":18,"ColumnCount":1},"ColumnCount":1,"RowCount":18},{"Values":[16.321557559081008,115.18349914537204,106.92901999160856,299.6424576739209,-167.17047428576853,-2.6612829424918827,10.07948571219579,70.27132437072945,20.490925780383762,-5.95709951055161,229.9332370858642,-36.17884485875112,-3.3470916721355435,18.226955898962327,12.575265893064891,-17.363765389522047,9.651238236626394,-18.47618829266928],"Storage":{"Data":[16.321557559081008,115.18349914537204,106.92901999160856,299.6424576739209,-167.17047428576853,-2.6612829424918827,10.07948571219579,70.27132437072945,20.490925780383762,-5.95709951055161,229.9332370858642,-36.17884485875112,-3.3470916721355435,18.226955898962327,12.575265893064891,-17.363765389522047,9.651238236626394,-18.47618829266928],"RowCount":18,"ColumnCount":1},"ColumnCount":1,"RowCount":18},{"Values":[-13.026552382164347,-7.104436608865674,-9.011386818882983,-3.260328836458603,-10.851690159924425,-3.8315598725309084,-7.5561946475792885,-2.5085265894910846,-8.605965476759248],"Storage":{"Data":[-13.026552382164347,-7.104436608865674,-9.011386818882983,-3.260328836458603,-10.851690159924425,-3.8315598725309084,-7.5561946475792885,-2.5085265894910846,-8.605965476759248],"RowCount":9,"ColumnCount":1},"ColumnCount":1,"RowCount":9}],"ActivationsHiddenSigmoid":[{"Values":[1.0,1.0,1.0,7.85156914316208E-201,4.7139935709504557E-73,1.0,1.0,1.0,1.0,1.0,1.0,1.0,1.2860869375223584E-29,1.0,1.0,1.0,1.477713226120824E-29,1.048580437977323E-65],"Storage":{"Data":[1.0,1.0,1.0,7.85156914316208E-201,4.7139935709504557E-73,1.0,1.0,1.0,1.0,1.0,1.0,1.0,1.2860869375223584E-29,1.0,1.0,1.0,1.477713226120824E-29,1.048580437977323E-65],"RowCount":18,"ColumnCount":1},"ColumnCount":1,"RowCount":18},{"Values":[1.0,0.9999868612737386,6.429137322224892E-14,5.952909470776287E-23,1.0808609380359016E-75,0.04010886092634833,1.021765758555545E-25,1.0,5.2163294800234126E-17,5.9710556775821605E-36,2.7923401552319957E-17,4.666224637503506E-26,3.5618993373950496E-28,0.9999999998378035,1.606851245921582E-23,1.973671377463395E-14,0.9999999999999998,9.683054572284942E-11],"Storage":{"Data":[1.0,0.9999868612737386,6.429137322224892E-14,5.952909470776287E-23,1.0808609380359016E-75,0.04010886092634833,1.021765758555545E-25,1.0,5.2163294800234126E-17,5.9710556775821605E-36,2.7923401552319957E-17,4.666224637503506E-26,3.5618993373950496E-28,0.9999999998378035,1.606851245921582E-23,1.973671377463395E-14,0.9999999999999998,9.683054572284942E-11],"RowCount":18,"ColumnCount":1},"ColumnCount":1,"RowCount":18},{"Values":[0.056525229673259465,0.023874073652310316,0.03548798147712323,0.037455651699416184,0.05794739398852476,0.05040341972718771,0.07560369202839323,0.08704001621072302,0.03454187029507393],"Storage":{"Data":[0.056525229673259465,0.023874073652310316,0.03548798147712323,0.037455651699416184,0.05794739398852476,0.05040341972718771,0.07560369202839323,0.08704001621072302,0.03454187029507393],"RowCount":9,"ColumnCount":1},"ColumnCount":1,"RowCount":9}]}