{"NumberInput":9,"NumberNeurons":18,"NumberOutput":9,"NumberOfLayers":2,"WeightsHidden":[{"Values":[-14.376038283437412,31.863454728254066,828.1761030742249,588.3110316884867,22.123188549768805,-49.54504172795909,54.90792451259983,-358.5522368172167,-139.01746515554444,-71.98946712740457,-49.10278406291881,-124.07621021317337,12.989049165550462,9.270937684329445,3.3101725350232503,-227.47663565320784,-136.76496137594003,-2079.1264835640322,-49.70471804812706,-67.23323871296176,35.771286750623254,-133.48190970985675,35.08141406936602,-27.372497458341506,15.763032994812235,261.3559136219803,484.51807550064035,-77.51344595038431,91.06912313609337,48.872643664647825,18.838600688380268,-26.32455494716575,70.59600722036046,89.2686417464371,-148.5465298807809,-609.6568445356675,-36.586055555697165,-230.81561471252567,-159.15592122619606,-179.72013328984977,-2.089510061725027,97.96206159084298,56.26102913071062,-254.12399577125282,-59.26920901861101,-87.8086348191169,12.297170170140657,3.035983915391354,14.828528091999535,52.96200270928668,46.51171930991154,-188.54493523974065,-14.910932000361397,-58.16452649913173,-26.676532719068575,-41.48239655108864,-98.31021422923186,-169.36455971609175,18.1308708875922,-15.223088250386644,50.2984363388284,-340.2279079709542,-64.39087383827943,-75.00797750086359,-29.974586402436852,0.43779652746551795,-2.5806263803241802,-27.06332711416554,29.52391148045107,-199.2152975077871,-85.11208668484934,224.379926669057,-24.69950678661681,134.15203731749958,-87.83920998264814,-212.17859614045912,-23.549590912345945,-31.89294337668593,-7.372389773218121,-145.02397131992637,1.8613058985954205,233.83924622586764,-177.23888775168103,-277.4488890559565,21.6850146056717,-85.46224634373769,-408.0457972915566,-216.60256501466307,174.16558796657415,-605.9756472964415,-40.30366146173864,-35.24087588286488,-7.822095818984183,-127.72361295249608,27.044756685964362,-25.701971255593865,6.964243126385741,-49.42111251009497,-82.12402980836859,-44.11850127266554,-20.286702927519343,7.9874605173828614,10.516912031428046,-24.696177070428885,26.71226892079192,57.67124585560784,-139.6508192933918,-336.1653061002475,-208.12890444229663,-116.68307047108306,-94.17452235933348,623.628559642964,11.670760831925397,-41.0491230076919,9.666931785910144,-732.632102755156,-72.84841593749613,-217.18032372103184,-36.18462208732407,3.433409410788905,-10.875870984415997,-54.186922547598016,9.312511106005639,1729.2449913368414,-19.48875888160507,2517.343707776533,-19.517155767995217,-28.316391276648538,-39.332975342233176,-162.04968824993412,102.49608471568428,-34.76069770337405,50.287253915510185,-68.82186452797166,-67.61471831779988,-66.30485103801874,-169.22947073249287,-24.929593805782627,-3.2906754892495482,-29.833059500592142,1.2875414368079103,82.71360030420857,-78.02035620983607,-55.20930207342119,16.22623717386513,-14.468108934993493,-37.32678752116383,-137.5337540006756,-1.9723037218394972,-19.679543379711323,63.030291169590576,225.04632728913438,-61.591760734976134,-36.01863210900825,-30.954533033082335,-58.15852279842959,58.37405546201754,-290.6313419992031,13.130656046237304,-256.8393145834596,-9.32658075600978,-373.5239550467821],"Storage":{"Data":[-14.376038283437412,31.863454728254066,828.1761030742249,588.3110316884867,22.123188549768805,-49.54504172795909,54.90792451259983,-358.5522368172167,-139.01746515554444,-71.98946712740457,-49.10278406291881,-124.07621021317337,12.989049165550462,9.270937684329445,3.3101725350232503,-227.47663565320784,-136.76496137594003,-2079.1264835640322,-49.70471804812706,-67.23323871296176,35.771286750623254,-133.48190970985675,35.08141406936602,-27.372497458341506,15.763032994812235,261.3559136219803,484.51807550064035,-77.51344595038431,91.06912313609337,48.872643664647825,18.838600688380268,-26.32455494716575,70.59600722036046,89.2686417464371,-148.5465298807809,-609.6568445356675,-36.586055555697165,-230.81561471252567,-159.15592122619606,-179.72013328984977,-2.089510061725027,97.96206159084298,56.26102913071062,-254.12399577125282,-59.26920901861101,-87.8086348191169,12.297170170140657,3.035983915391354,14.828528091999535,52.96200270928668,46.51171930991154,-188.54493523974065,-14.910932000361397,-58.16452649913173,-26.676532719068575,-41.48239655108864,-98.31021422923186,-169.36455971609175,18.1308708875922,-15.223088250386644,50.2984363388284,-340.2279079709542,-64.39087383827943,-75.00797750086359,-29.974586402436852,0.43779652746551795,-2.5806263803241802,-27.06332711416554,29.52391148045107,-199.2152975077871,-85.11208668484934,224.379926669057,-24.69950678661681,134.15203731749958,-87.83920998264814,-212.17859614045912,-23.549590912345945,-31.89294337668593,-7.372389773218121,-145.02397131992637,1.8613058985954205,233.83924622586764,-177.23888775168103,-277.4488890559565,21.6850146056717,-85.46224634373769,-408.0457972915566,-216.60256501466307,174.16558796657415,-605.9756472964415,-40.30366146173864,-35.24087588286488,-7.822095818984183,-127.72361295249608,27.044756685964362,-25.701971255593865,6.964243126385741,-49.42111251009497,-82.12402980836859,-44.11850127266554,-20.286702927519343,7.9874605173828614,10.516912031428046,-24.696177070428885,26.71226892079192,57.67124585560784,-139.6508192933918,-336.1653061002475,-208.12890444229663,-116.68307047108306,-94.17452235933348,623.628559642964,11.670760831925397,-41.0491230076919,9.666931785910144,-732.632102755156,-72.84841593749613,-217.18032372103184,-36.18462208732407,3.433409410788905,-10.875870984415997,-54.186922547598016,9.312511106005639,1729.2449913368414,-19.48875888160507,2517.343707776533,-19.517155767995217,-28.316391276648538,-39.332975342233176,-162.04968824993412,102.49608471568428,-34.76069770337405,50.287253915510185,-68.82186452797166,-67.61471831779988,-66.30485103801874,-169.22947073249287,-24.929593805782627,-3.2906754892495482,-29.833059500592142,1.2875414368079103,82.71360030420857,-78.02035620983607,-55.20930207342119,16.22623717386513,-14.468108934993493,-37.32678752116383,-137.5337540006756,-1.9723037218394972,-19.679543379711323,63.030291169590576,225.04632728913438,-61.591760734976134,-36.01863210900825,-30.954533033082335,-58.15852279842959,58.37405546201754,-290.6313419992031,13.130656046237304,-256.8393145834596,-9.32658075600978,-373.5239550467821],"RowCount":18,"ColumnCount":9},"ColumnCount":9,"RowCount":18},{"Values":[0.9688101212036454,-6.162999845208449,-7.063238411102741,-4.7721820679335964,-3.655556668805971,-12.471906881924609,8.464879210082275,-3.5568845438281262,1.7188848136299972,0.12503023086720605,1.9070540073200988,27.073241234924147,-1.848835370135073,-5.068410175969816,-0.8023603849330833,55.78996927911604,54.644375036132764,27.000456760776355,-3.7891265666365785,-2.7314055256542757,5.199601432503028,1.33784480947132,-2.5873416126340523,-10.592176413556196,3.5588719369926958,-0.7903993700723745,-12.632137966708441,0.883964956467124,-11.218272780209032,-6.3989264613075685,0.8354502182176904,-12.590530060168259,1.6831238534597168,8.139326179522167,1.2273365888461798,-4.240761495861246,-30.672880925310487,-2.55205298873134,4.3951687433712925,0.3337139867718111,-10.932523953526907,-10.845435945784791,-15.30816507270152,-7.073750849681075,-40.30869453759461,5.737944387143682,-9.668407753763084,0.34233033256125756,-0.03568698492576619,-6.95745040428092,-22.29392843665866,86.82736128629189,-2.861102137659417,-2.0855327782169173,-3.63975980866636,-2.1933147619391202,-37.33670656799276,6.932828649711505,-6.583463442815566,2.0281878521453787,-0.48773399445221693,-0.9694595812317972,-0.7564019544098489,-0.6121183152037096,-1.5799562767158009,-2.010082135305058,0.9487549231931712,6.1211163015781445,-5.8157445780650265,24.77739781841282,15.609003107031851,6.753519917989638,-20.11284717975513,-0.6038442019252359,6.6905115338241705,63.88716526083619,4.203920806427967,-1.0902914793146496,-9.357952010264087,-1.8780242941577663,-83.0220161150314,-13.382941393450674,-4.2477197787316525,-23.511491581684695,-1.311136007773963,-19.693926415170495,-67.21532010853834,7.9552573252046965,-7.8628261786517415,73.14128256584618,-15.430465870656594,-6.679897561372854,1.563376596011305,-13.988512577557454,1.1784967913684736,-13.672414981943643,-2.9463665858078047,-7.153862296689999,-21.615945439214794,1.468693931592362,9.961519572364114,1.0824289065640507,-0.14820181304720442,-26.05508019050217,3.540375336519801,2.2742388808460308,-10.302173268209772,23.695932341329424,-9.969220184364485,-9.006570776631408,-17.587066219113755,58.877985683443924,-0.9281978242482285,-8.365778492075574,-13.449002062841716,-6.275278657847282,-82.51493452875515,-14.568213607152723,-7.677397987925656,2.184523957372978,-3.8914015075803623,-26.504772222748937,-70.3904451966384,6.644586349887574,-9.68620959921089,69.44434906440401,-25.75337645492657,1.3374313513497105,-20.546063751101507,0.4200120947114694,15.532175636179135,-3.6992220723700617,-11.094047999994979,6.129869103342063,-29.785574605803717,-2.2242705581281825,-9.68910502854904,-3.1535687942624557,-0.8323121060014339,-8.100549244184556,-28.899245341622493,-8.924329138958225,10.908363822812264,12.019195968316382,13.022353460095216,-1.1211010778006218,2.0771814719316017,-8.586166746613562,-0.23971725757724888,-1.0919280174948245,-25.439589649473426,7.413751228370549,-20.02527231859537,-20.973863337695256,1.3618481046836899,27.63449164866634,-1.9496957479502142,0.18032826099469115,-15.38898174076661,46.06466012859148,20.284484342289566,26.630061598978298,-5.791842403547398,-3.4267376530252425,-8.646056313020312,-8.582293539657005,-3.011429318292692,-2.8123834625004793,-0.022230346109897194,-5.853730939926434,-8.656867804678937,-1.5900751269873117,-2.5333101872287975,1.9248258050403575,-1.1348625178210845,-16.124151969425746,1.0751371513333223,13.137724455879422,21.728291452024965,-13.420333170686543,-16.862056450252055,-3.149074380328277,-6.644600474505815,5.663074888675376,-0.7180567523767599,-9.328417322673685,-1.485897143609286,-6.127934358902126,7.900542614910523,-4.084557084799086,-8.677941022939814,-12.280423039238569,-0.37851514239561335,1.641061539138087,-3.577330899330347,3.0656110243257597,12.607408315110378,-22.649637623094893,13.879033803301054,-4.831361149775876,-4.251683417634765,11.673971998352803,-0.5764667013653101,-13.907083802108984,-0.007307840757068334,5.660790632979554,-11.97664078940388,-13.103407639728333,-24.38381531837024,-5.738564112861609,0.911878201366359,9.825640210461348,-5.825861717022497,7.309576755033068,0.4528639364142017,-23.816601219150662,-18.682482944807774,-2.623297304567939,-7.121159330566313,59.20705729684441,0.6340864014080655,-7.8151718228325455,-7.1859236486699825,3.5234894133658736,-85.67032495182256,-10.066668134162532,-16.032221122300193,-11.113460042664208,0.7380772380266711,-19.786228023552944,-62.977003983920376,7.31107418296478,-13.420996223249796,78.03622749631563,-21.961550129798756,-0.2663782336920786,2.412423200646637,-16.539752964716975,3.299059706507227,7.5067604367528515,-11.983224729167576,7.05084390987788,-0.8551481805145328,8.748476203977082,1.5780446054982393,37.50969985269014,-3.5698907382874228,-2.85352643950538,-19.524022430231952,-24.951123520122284,49.927639397052964,21.224367753342804,15.290660105541782,-2.3678236123503473,1.064137385308194,11.13377666997403,-1.775621831697069,-19.37121572558116,5.685933885249048,0.7147801988157133,-9.912846737765308,8.371743664624914,-18.772414503709218,-36.18644567030426,-2.8622362834173503,-4.551379152397584,-0.827909438606994,12.81705561374207,51.58745834461254,-10.190983876297869,-14.547482304951478,-4.220080054949963,-7.439987317855136,2.209082335556318,-11.91808930425176,-9.544382952811116,-11.616344347303952,3.3250381100596473,-40.56079363178806,-14.362546906638975,-2.9443190470608953,-24.151445272052772,-2.019991643139005,-11.86108454862246,-24.660869353553526,-144.1721721988509,-59.12822931178487,12.291297336304758,9.886648081189577,0.07887748581828906,-9.401263050404395,-12.724936200904992,0.9368933894861099,-19.60765416959449,20.33836472708034,2.1027361751493228,-0.40137442183876315,-11.755053964794142,-21.40753532010593,-23.18396731247057,-0.4488738665412899,0.6688147969882806,-16.819836501994196,-44.26145638092738,39.15449239869054,-15.076681334478945,14.376759484650128,1.13479117696295,-16.10943772547877,0.7089985473334064,-1.2330484124731065,2.329872558382147,-13.400350723774482,2.516946637909619,-26.276097044845233,-13.099552276871588,-2.5572029872789943,13.855028232278878,-1.9987192472464053,1.3323784054171268,-12.991325845324713,80.91084457577789,30.49532723809897,7.424627187500553],"Storage":{"Data":[0.9688101212036454,-6.162999845208449,-7.063238411102741,-4.7721820679335964,-3.655556668805971,-12.471906881924609,8.464879210082275,-3.5568845438281262,1.7188848136299972,0.12503023086720605,1.9070540073200988,27.073241234924147,-1.848835370135073,-5.068410175969816,-0.8023603849330833,55.78996927911604,54.644375036132764,27.000456760776355,-3.7891265666365785,-2.7314055256542757,5.199601432503028,1.33784480947132,-2.5873416126340523,-10.592176413556196,3.5588719369926958,-0.7903993700723745,-12.632137966708441,0.883964956467124,-11.218272780209032,-6.3989264613075685,0.8354502182176904,-12.590530060168259,1.6831238534597168,8.139326179522167,1.2273365888461798,-4.240761495861246,-30.672880925310487,-2.55205298873134,4.3951687433712925,0.3337139867718111,-10.932523953526907,-10.845435945784791,-15.30816507270152,-7.073750849681075,-40.30869453759461,5.737944387143682,-9.668407753763084,0.34233033256125756,-0.03568698492576619,-6.95745040428092,-22.29392843665866,86.82736128629189,-2.861102137659417,-2.0855327782169173,-3.63975980866636,-2.1933147619391202,-37.33670656799276,6.932828649711505,-6.583463442815566,2.0281878521453787,-0.48773399445221693,-0.9694595812317972,-0.7564019544098489,-0.6121183152037096,-1.5799562767158009,-2.010082135305058,0.9487549231931712,6.1211163015781445,-5.8157445780650265,24.77739781841282,15.609003107031851,6.753519917989638,-20.11284717975513,-0.6038442019252359,6.6905115338241705,63.88716526083619,4.203920806427967,-1.0902914793146496,-9.357952010264087,-1.8780242941577663,-83.0220161150314,-13.382941393450674,-4.2477197787316525,-23.511491581684695,-1.311136007773963,-19.693926415170495,-67.21532010853834,7.9552573252046965,-7.8628261786517415,73.14128256584618,-15.430465870656594,-6.679897561372854,1.563376596011305,-13.988512577557454,1.1784967913684736,-13.672414981943643,-2.9463665858078047,-7.153862296689999,-21.615945439214794,1.468693931592362,9.961519572364114,1.0824289065640507,-0.14820181304720442,-26.05508019050217,3.540375336519801,2.2742388808460308,-10.302173268209772,23.695932341329424,-9.969220184364485,-9.006570776631408,-17.587066219113755,58.877985683443924,-0.9281978242482285,-8.365778492075574,-13.449002062841716,-6.275278657847282,-82.51493452875515,-14.568213607152723,-7.677397987925656,2.184523957372978,-3.8914015075803623,-26.504772222748937,-70.3904451966384,6.644586349887574,-9.68620959921089,69.44434906440401,-25.75337645492657,1.3374313513497105,-20.546063751101507,0.4200120947114694,15.532175636179135,-3.6992220723700617,-11.094047999994979,6.129869103342063,-29.785574605803717,-2.2242705581281825,-9.68910502854904,-3.1535687942624557,-0.8323121060014339,-8.100549244184556,-28.899245341622493,-8.924329138958225,10.908363822812264,12.019195968316382,13.022353460095216,-1.1211010778006218,2.0771814719316017,-8.586166746613562,-0.23971725757724888,-1.0919280174948245,-25.439589649473426,7.413751228370549,-20.02527231859537,-20.973863337695256,1.3618481046836899,27.63449164866634,-1.9496957479502142,0.18032826099469115,-15.38898174076661,46.06466012859148,20.284484342289566,26.630061598978298,-5.791842403547398,-3.4267376530252425,-8.646056313020312,-8.582293539657005,-3.011429318292692,-2.8123834625004793,-0.022230346109897194,-5.853730939926434,-8.656867804678937,-1.5900751269873117,-2.5333101872287975,1.9248258050403575,-1.1348625178210845,-16.124151969425746,1.0751371513333223,13.137724455879422,21.728291452024965,-13.420333170686543,-16.862056450252055,-3.149074380328277,-6.644600474505815,5.663074888675376,-0.7180567523767599,-9.328417322673685,-1.485897143609286,-6.127934358902126,7.900542614910523,-4.084557084799086,-8.677941022939814,-12.280423039238569,-0.37851514239561335,1.641061539138087,-3.577330899330347,3.0656110243257597,12.607408315110378,-22.649637623094893,13.879033803301054,-4.831361149775876,-4.251683417634765,11.673971998352803,-0.5764667013653101,-13.907083802108984,-0.007307840757068334,5.660790632979554,-11.97664078940388,-13.103407639728333,-24.38381531837024,-5.738564112861609,0.911878201366359,9.825640210461348,-5.825861717022497,7.309576755033068,0.4528639364142017,-23.816601219150662,-18.682482944807774,-2.623297304567939,-7.121159330566313,59.20705729684441,0.6340864014080655,-7.8151718228325455,-7.1859236486699825,3.5234894133658736,-85.67032495182256,-10.066668134162532,-16.032221122300193,-11.113460042664208,0.7380772380266711,-19.786228023552944,-62.977003983920376,7.31107418296478,-13.420996223249796,78.03622749631563,-21.961550129798756,-0.2663782336920786,2.412423200646637,-16.539752964716975,3.299059706507227,7.5067604367528515,-11.983224729167576,7.05084390987788,-0.8551481805145328,8.748476203977082,1.5780446054982393,37.50969985269014,-3.5698907382874228,-2.85352643950538,-19.524022430231952,-24.951123520122284,49.927639397052964,21.224367753342804,15.290660105541782,-2.3678236123503473,1.064137385308194,11.13377666997403,-1.775621831697069,-19.37121572558116,5.685933885249048,0.7147801988157133,-9.912846737765308,8.371743664624914,-18.772414503709218,-36.18644567030426,-2.8622362834173503,-4.551379152397584,-0.827909438606994,12.81705561374207,51.58745834461254,-10.190983876297869,-14.547482304951478,-4.220080054949963,-7.439987317855136,2.209082335556318,-11.91808930425176,-9.544382952811116,-11.616344347303952,3.3250381100596473,-40.56079363178806,-14.362546906638975,-2.9443190470608953,-24.151445272052772,-2.019991643139005,-11.86108454862246,-24.660869353553526,-144.1721721988509,-59.12822931178487,12.291297336304758,9.886648081189577,0.07887748581828906,-9.401263050404395,-12.724936200904992,0.9368933894861099,-19.60765416959449,20.33836472708034,2.1027361751493228,-0.40137442183876315,-11.755053964794142,-21.40753532010593,-23.18396731247057,-0.4488738665412899,0.6688147969882806,-16.819836501994196,-44.26145638092738,39.15449239869054,-15.076681334478945,14.376759484650128,1.13479117696295,-16.10943772547877,0.7089985473334064,-1.2330484124731065,2.329872558382147,-13.400350723774482,2.516946637909619,-26.276097044845233,-13.099552276871588,-2.5572029872789943,13.855028232278878,-1.9987192472464053,1.3323784054171268,-12.991325845324713,80.91084457577789,30.49532723809897,7.424627187500553],"RowCount":18,"ColumnCount":18},"ColumnCount":18,"RowCount":18},{"Values":[-34.97221879278136,-51.476681144862596,-4.918931446299714,-3.624747296121839,-42.356051767333824,-3.0280555838371823,-9.531463524983087,-3.4532057750263565,26.496292158607094,-0.4661769075882426,-0.6829864212396113,1.773831579771234,-1.5077295076586754,1.5272587646262012,-1.9157967336336534,-2.138420640949775,-1.2149827257781025,0.626085056206269,-6.414956274837766,-4.931914052082304,-1.5922714029548664,-1.186428666952726,-5.9442302165977035,-0.9333335735923478,-9.224830968793288,3.0455295080857967,5.120855195282618,48.55256914316788,48.337265235154874,32.21194931526561,-2.156401793729403,-2.2310001509955315,12.878313854345627,-6.9396233120389175,-95.83338930200662,18.762949168913913,-47.95729483953772,-36.644514433551514,-36.46691724290628,124.92316739457938,-22.549485054421993,-9.784640031223358,-5.777171977078661,-14.610436532604664,-15.704960452937012,-63.50371783521816,-38.72104224691156,-38.96360123694667,74.57110149691515,-8.611550629696454,-3.552759655094506,-8.317471440214232,-7.75884674532827,-11.896598008790107,-6.4106976104828375,2.6258271406983216,-0.9500464355648071,-0.46804855107758975,-23.343655573220936,1.0914395956893137,-4.081888906683466,-9.723471242128019,-3.0526454203828446,-43.96140024664739,2.915937568193056,-17.52296345976319,-2.5545845186392,-15.508692178780334,-9.12267851757464,-12.611392072797926,29.80657422757647,-17.308757614273,-39.36963372916499,131.13599551650304,-19.21977746081456,-1.445582747433352,-42.09758427131145,-14.302652523949916,-10.391393303122411,-46.88787499968412,-32.5452965432602,-43.9077117061079,71.48143377762213,-12.53985616170197,-6.439745430352251,-24.13017969761678,-6.031843783224009,-9.411901634667462,-7.185500798000912,-21.33717502899637,-12.204862704511067,-8.554170233346623,-11.29165865032332,-7.844028232109188,41.52822239654344,-6.418722614792544,-8.217894889224407,-7.951567493533171,-5.572622547620421,-25.60710954652204,-35.589238138868254,-32.70103143942398,-2.799755679203124,-10.884634310830997,-6.958006327849797,-8.4705623679761,75.55562311367841,-20.94032449097044,-3.034793540704976,0.817731793691317,-2.264774995301718,-2.606475846401416,-5.1137483011653115,-0.7233353675824135,-2.6298888889327268,-2.3822432171840218,0.6972487676239727,-9.854622654385466,-4.510632752502829,15.643606088802423,-1.8838681928696206,-5.761123470463764,-4.434922702456251,-5.114231415535882,-4.368345295148552,-4.028580717744659,-31.546405530815786,23.537438131691584,-6.06257221738676,2.072171669704579,-12.820513714294014,0.012861630198777526,-40.284832997727435,-33.506459895016334,-23.97592523117731,17.488621653403445,-0.13724280580139644,-0.07979607909019121,1.296395726440418,-0.13659002347028476,0.616681028360582,-67.29717579615,0.002593006907033982,-0.4052611174371147,-2.742709383809713,-9.198000378085899,33.498548043973486,-2.533408902979602,-42.92786708676492,-3.030834648908015,-18.77454505727784,-9.705669264809897,-6.770303323483071,26.261278716166036,-58.263906676098436,6.327450202954595,7.599712564094234,36.233884854672944,3.8582304765353386,31.01878442873873,38.698441767690454,11.769727173406626],"Storage":{"Data":[-34.97221879278136,-51.476681144862596,-4.918931446299714,-3.624747296121839,-42.356051767333824,-3.0280555838371823,-9.531463524983087,-3.4532057750263565,26.496292158607094,-0.4661769075882426,-0.6829864212396113,1.773831579771234,-1.5077295076586754,1.5272587646262012,-1.9157967336336534,-2.138420640949775,-1.2149827257781025,0.626085056206269,-6.414956274837766,-4.931914052082304,-1.5922714029548664,-1.186428666952726,-5.9442302165977035,-0.9333335735923478,-9.224830968793288,3.0455295080857967,5.120855195282618,48.55256914316788,48.337265235154874,32.21194931526561,-2.156401793729403,-2.2310001509955315,12.878313854345627,-6.9396233120389175,-95.83338930200662,18.762949168913913,-47.95729483953772,-36.644514433551514,-36.46691724290628,124.92316739457938,-22.549485054421993,-9.784640031223358,-5.777171977078661,-14.610436532604664,-15.704960452937012,-63.50371783521816,-38.72104224691156,-38.96360123694667,74.57110149691515,-8.611550629696454,-3.552759655094506,-8.317471440214232,-7.75884674532827,-11.896598008790107,-6.4106976104828375,2.6258271406983216,-0.9500464355648071,-0.46804855107758975,-23.343655573220936,1.0914395956893137,-4.081888906683466,-9.723471242128019,-3.0526454203828446,-43.96140024664739,2.915937568193056,-17.52296345976319,-2.5545845186392,-15.508692178780334,-9.12267851757464,-12.611392072797926,29.80657422757647,-17.308757614273,-39.36963372916499,131.13599551650304,-19.21977746081456,-1.445582747433352,-42.09758427131145,-14.302652523949916,-10.391393303122411,-46.88787499968412,-32.5452965432602,-43.9077117061079,71.48143377762213,-12.53985616170197,-6.439745430352251,-24.13017969761678,-6.031843783224009,-9.411901634667462,-7.185500798000912,-21.33717502899637,-12.204862704511067,-8.554170233346623,-11.29165865032332,-7.844028232109188,41.52822239654344,-6.418722614792544,-8.217894889224407,-7.951567493533171,-5.572622547620421,-25.60710954652204,-35.589238138868254,-32.70103143942398,-2.799755679203124,-10.884634310830997,-6.958006327849797,-8.4705623679761,75.55562311367841,-20.94032449097044,-3.034793540704976,0.817731793691317,-2.264774995301718,-2.606475846401416,-5.1137483011653115,-0.7233353675824135,-2.6298888889327268,-2.3822432171840218,0.6972487676239727,-9.854622654385466,-4.510632752502829,15.643606088802423,-1.8838681928696206,-5.761123470463764,-4.434922702456251,-5.114231415535882,-4.368345295148552,-4.028580717744659,-31.546405530815786,23.537438131691584,-6.06257221738676,2.072171669704579,-12.820513714294014,0.012861630198777526,-40.284832997727435,-33.506459895016334,-23.97592523117731,17.488621653403445,-0.13724280580139644,-0.07979607909019121,1.296395726440418,-0.13659002347028476,0.616681028360582,-67.29717579615,0.002593006907033982,-0.4052611174371147,-2.742709383809713,-9.198000378085899,33.498548043973486,-2.533408902979602,-42.92786708676492,-3.030834648908015,-18.77454505727784,-9.705669264809897,-6.770303323483071,26.261278716166036,-58.263906676098436,6.327450202954595,7.599712564094234,36.233884854672944,3.8582304765353386,31.01878442873873,38.698441767690454,11.769727173406626],"RowCount":9,"ColumnCount":18},"ColumnCount":18,"RowCount":9}],"BiasHidden":[{"Values":[-62.351714081659054,-135.11564969251828,58.29961448094144,-235.33005726587388,29.575347040869826,-51.74079857532057,65.7600421471718,-261.54754788115514,-105.93584968403214,-110.60175901882073,-95.2783407501943,-60.774848547881405,20.471264865882326,-90.34386552824573,-8.665946561593096,51.052236565369874,-196.96524361949142,-390.6858433746887],"Storage":{"Data":[-62.351714081659054,-135.11564969251828,58.29961448094144,-235.33005726587388,29.575347040869826,-51.74079857532057,65.7600421471718,-261.54754788115514,-105.93584968403214,-110.60175901882073,-95.2783407501943,-60.774848547881405,20.471264865882326,-90.34386552824573,-8.665946561593096,51.052236565369874,-196.96524361949142,-390.6858433746887],"RowCount":18,"ColumnCount":1},"ColumnCount":1,"RowCount":18},{"Values":[2.387340404681469,-31.27698098851426,-27.43872694966715,-164.0010525958013,-15.210249653960163,-0.8414934666951193,7.261792170381995,83.71237788699477,244.48485640500866,13.437564035070153,15.544933866778159,-17.478214095400748,-12.902934044720604,-65.49721085567268,199.24815490514212,-43.683883637067204,-75.45948253155137,-198.98676359696],"Storage":{"Data":[2.387340404681469,-31.27698098851426,-27.43872694966715,-164.0010525958013,-15.210249653960163,-0.8414934666951193,7.261792170381995,83.71237788699477,244.48485640500866,13.437564035070153,15.544933866778159,-17.478214095400748,-12.902934044720604,-65.49721085567268,199.24815490514212,-43.683883637067204,-75.45948253155137,-198.98676359696],"RowCount":18,"ColumnCount":1},"ColumnCount":1,"RowCount":18},{"Values":[-50.41125612982339,4.862780662941393,-23.34223563701272,-7.305582568552165,-20.434438060625332,-10.851881007230316,-13.466419205387368,25.232195860581413,-15.160410454708991],"Storage":{"Data":[-50.41125612982339,4.862780662941393,-23.34223563701272,-7.305582568552165,-20.434438060625332,-10.851881007230316,-13.466419205387368,25.232195860581413,-15.160410454708991],"RowCount":9,"ColumnCount":1},"ColumnCount":1,"RowCount":9}],"ActivationsHiddenSigmoid":[{"Values":[1.2300538031992774E-145,2.6584104629842008E-192,4.222940084693426E-99,7.176756179469138E-36,1.0,5.2184192476003725E-48,1.0,0.0,8.518197841917719E-166,1.240177112362547E-224,2.7889464573620675E-146,1.3488338654084445E-46,1.0,2.6672783620645973E-139,1.0,1.0,1.1006697373634264E-182,1.0],"Storage":{"Data":[1.2300538031992774E-145,2.6584104629842008E-192,4.222940084693426E-99,7.176756179469138E-36,1.0,5.2184192476003725E-48,1.0,0.0,8.518197841917719E-166,1.240177112362547E-224,2.7889464573620675E-146,1.3488338654084445E-46,1.0,2.6672783620645973E-139,1.0,1.0,1.1006697373634264E-182,1.0],"RowCount":18,"ColumnCount":1},"ColumnCount":1,"RowCount":18},{"Values":[2.6615766770028773E-14,5.436123874826223E-22,3.113738724130167E-30,0.9999999999999876,4.070725736263148E-12,3.8699457116771524E-20,5.404705860188329E-19,1.0,5.604062806093814E-37,1.0816656789080465E-19,1.167681230046829E-16,1.3594353548713152E-42,2.944957916000293E-11,2.2327257285521707E-64,5.113134659554969E-18,4.3296434194988996E-32,5.588384119177578E-37,0.9999999999999707],"Storage":{"Data":[2.6615766770028773E-14,5.436123874826223E-22,3.113738724130167E-30,0.9999999999999876,4.070725736263148E-12,3.8699457116771524E-20,5.404705860188329E-19,1.0,5.604062806093814E-37,1.0816656789080465E-19,1.167681230046829E-16,1.3594353548713152E-42,2.944957916000293E-11,2.2327257285521707E-64,5.113134659554969E-18,4.3296434194988996E-32,5.588384119177578E-37,0.9999999999999707],"RowCount":18,"ColumnCount":1},"ColumnCount":1,"RowCount":18},{"Values":[3.204183553165505E-09,0.1048947629680136,0.08924422358151379,0.011928788669298893,0.12623390364059703,0.03777990612248559,0.11987746950240659,0.10988874476964251,0.12194923483747518],"Storage":{"Data":[3.204183553165505E-09,0.1048947629680136,0.08924422358151379,0.011928788669298893,0.12623390364059703,0.03777990612248559,0.11987746950240659,0.10988874476964251,0.12194923483747518],"RowCount":9,"ColumnCount":1},"ColumnCount":1,"RowCount":9}]}