{"NumberInput":9,"NumberNeurons":18,"NumberOutput":9,"NumberOfLayers":4,"WeightsHidden":[{"Values":[4.051232656582465,25.846316969870518,-9.240173227331711,-1.6735750418895103,15.06925694595615,-29.288415877157735,15.349622223849575,-24.385300586799172,-593.5000005914525,-185.66223256973535,-101.98759304647032,5.285283234157143,-733.4207906921018,-13.832121046786495,-17.874140419630667,-3.7704157365771627,-14.452386558443159,-4.000548081076199,4.290148547318879,-0.793360319396347,9.555318316777152,-13.582349715595006,1.774676037494818,24.127248914816903,49.18082956660675,-34.573408184857016,-261.0983587077506,348.1789361032275,-34.55696958005349,60.564583538696354,-11.234097516537037,-2.1450423302899773,25.112817070303308,1.7689754273270837,-13.967756258740893,13.234117454565878,2.7167492367849486,-9.767581770399635,-0.4832351617371246,1.4936838190202053,15.807862079020797,-13.863776355530694,-29.835921781346045,-10.927220893459802,-617.9795809975419,-156.64565220174546,-39.09562434627391,9.654791941486945,-797.2343465453491,-18.797090344916175,-30.784786674567233,-3.777778918854826,1.0816529354568962,-1.633218893385419,6.543983359384981,38.88930376257443,10.835082245046546,-2.0328275157282705,13.986361968704632,21.5108979972121,43.60891992221657,-17.78678030172989,23.16705897578778,9.629388574158943,0.9245030799838503,18.435268150487094,-104.88937326837747,-3.3132233565097153,75.06634772040368,12.084257629502746,2.263189979923506,16.190496758541634,6.725499193770041,38.19174169513006,20.060815205656567,-1.846433032256287,-1.3139155794221988,39.686470900151974,49.56419838916035,-24.5940469112815,54.47826429790257,722.7011788164059,-70.5318498460296,41.427220893558406,-13.631633129807959,-3.1322445417029945,99.44987056532155,18.288818206736362,-23.88668776286826,15.593753021384545,4.329542792989848,-5.390909652541773,-1.8813835418963496,-0.445885540002734,11.30802013399356,12.604909413560765,43.084926012675275,-15.035509425751258,30.841500053666294,17.85017972164026,-43.38900292762605,38.88614387894069,-96.40155250731246,-2.0996803102411143,-3.7684434209277975,2.2849106271226662,-28.364509672293167,6.193690591303825,3.909952019623972,-6.712611365438805,15.2312250322812,-7.595131773293495,1.2290293644202455,27.505220152982655,83.30167961756302,9.215699490414746,44.06282050261781,-160.0457895332264,18.03249357099886,-6.861908110426329,165.57053381679697,-11.943624217542343,125.58849382998318,13.985920907488095,4.895045896186438,-1.9939216737935552,6.280212673860592,17.70104786467807,18.72105033874388,-7.6157051156038875,11.301849118368901,54.79749588391529,76.2044607389929,-15.43076400532646,112.48763094871087,361.689336201141,-49.92905032766643,29.202014973943804,165.77645376122643,-3.5361526819787574,-14.47753353473684,19.64454548309077,-26.638162472083266,22.80134457420631,1.482072047193121,30.318234102033696,30.265057765563565,-5.3516165483334035,2.9845096755691958,15.783839293840575,55.61604746721023,24.044163287110262,61.687285174003314,-164.4977476448831,17.116606342883784,13.48740240063816,167.54138938652443,-8.624972054867765,127.83863047005963,14.95251538740202,1.3874029717785177,19.059781874810714],"Storage":{"Data":[4.051232656582465,25.846316969870518,-9.240173227331711,-1.6735750418895103,15.06925694595615,-29.288415877157735,15.349622223849575,-24.385300586799172,-593.5000005914525,-185.66223256973535,-101.98759304647032,5.285283234157143,-733.4207906921018,-13.832121046786495,-17.874140419630667,-3.7704157365771627,-14.452386558443159,-4.000548081076199,4.290148547318879,-0.793360319396347,9.555318316777152,-13.582349715595006,1.774676037494818,24.127248914816903,49.18082956660675,-34.573408184857016,-261.0983587077506,348.1789361032275,-34.55696958005349,60.564583538696354,-11.234097516537037,-2.1450423302899773,25.112817070303308,1.7689754273270837,-13.967756258740893,13.234117454565878,2.7167492367849486,-9.767581770399635,-0.4832351617371246,1.4936838190202053,15.807862079020797,-13.863776355530694,-29.835921781346045,-10.927220893459802,-617.9795809975419,-156.64565220174546,-39.09562434627391,9.654791941486945,-797.2343465453491,-18.797090344916175,-30.784786674567233,-3.777778918854826,1.0816529354568962,-1.633218893385419,6.543983359384981,38.88930376257443,10.835082245046546,-2.0328275157282705,13.986361968704632,21.5108979972121,43.60891992221657,-17.78678030172989,23.16705897578778,9.629388574158943,0.9245030799838503,18.435268150487094,-104.88937326837747,-3.3132233565097153,75.06634772040368,12.084257629502746,2.263189979923506,16.190496758541634,6.725499193770041,38.19174169513006,20.060815205656567,-1.846433032256287,-1.3139155794221988,39.686470900151974,49.56419838916035,-24.5940469112815,54.47826429790257,722.7011788164059,-70.5318498460296,41.427220893558406,-13.631633129807959,-3.1322445417029945,99.44987056532155,18.288818206736362,-23.88668776286826,15.593753021384545,4.329542792989848,-5.390909652541773,-1.8813835418963496,-0.445885540002734,11.30802013399356,12.604909413560765,43.084926012675275,-15.035509425751258,30.841500053666294,17.85017972164026,-43.38900292762605,38.88614387894069,-96.40155250731246,-2.0996803102411143,-3.7684434209277975,2.2849106271226662,-28.364509672293167,6.193690591303825,3.909952019623972,-6.712611365438805,15.2312250322812,-7.595131773293495,1.2290293644202455,27.505220152982655,83.30167961756302,9.215699490414746,44.06282050261781,-160.0457895332264,18.03249357099886,-6.861908110426329,165.57053381679697,-11.943624217542343,125.58849382998318,13.985920907488095,4.895045896186438,-1.9939216737935552,6.280212673860592,17.70104786467807,18.72105033874388,-7.6157051156038875,11.301849118368901,54.79749588391529,76.2044607389929,-15.43076400532646,112.48763094871087,361.689336201141,-49.92905032766643,29.202014973943804,165.77645376122643,-3.5361526819787574,-14.47753353473684,19.64454548309077,-26.638162472083266,22.80134457420631,1.482072047193121,30.318234102033696,30.265057765563565,-5.3516165483334035,2.9845096755691958,15.783839293840575,55.61604746721023,24.044163287110262,61.687285174003314,-164.4977476448831,17.116606342883784,13.48740240063816,167.54138938652443,-8.624972054867765,127.83863047005963,14.95251538740202,1.3874029717785177,19.059781874810714],"RowCount":18,"ColumnCount":9},"ColumnCount":9,"RowCount":18},{"Values":[7.074953363034089,5.170817899751288,-4.1262446746757515,5.756782227686393,-3.2032314180195214,7.205930852432381,-4.5042136204440055,5.729978655024883,-8.572407288965154,5.2498078421711,-3.737199886970972,5.91775707903105,-2.581042737943866,-6.317099226699585,5.966617968061306,-1.9079428779509129,-9.40982528282364,5.01334287026013,-3.0762092991635352,-1.6414298153039695,-1.8796378180601974,-1.3704483504704017,-2.6053632997462386,0.6509660462735267,-2.514074103847196,-2.643966412804876,-4.492097370871526,-1.4312019103277462,-2.4009329180751107,-0.6102636327738779,-2.6980415494200094,-3.3005761191468865,2.518487322315323,-2.2582128175069314,-4.252490260477586,-0.9384438448529672,8.3720386018937,9.158009908756105,-2.487397275145561,6.891508364261659,-1.3047946654483908,9.105701678270343,-3.5167507483324147,6.532883864678908,2.447857446486298,7.6338038160732475,-2.6776278139772662,7.00411571436837,-1.8455722545866549,-1.115128848474732,6.737059680429972,-0.392850369522789,1.552186224243432,9.198481156361838,-0.573560601863727,0.4915791315735175,-0.24616202678234567,0.04110959690584398,-0.3344231969355721,-0.19500208875621866,-0.5830113760283894,-0.16265864044275904,-0.0019294747429944854,0.15002274831107457,-0.579843946288108,0.03987317421513282,-0.5906745267001622,-0.24105443691422143,-0.005777176968571389,-0.49596371092632224,0.19787183027948307,0.2932328808578391,-1.6447415534047207,-1.9126009884074402,-1.3799862521920583,-1.8272289665336665,-1.4294855613360185,-0.3659694100074713,-1.6114858698683974,-1.6087663266015604,-2.7286901274221527,-2.266976642649449,-1.6620187268957167,-2.2357261985881958,-1.8211406903365064,-2.406234025413766,-2.0062430369017674,-1.5875247184381729,-2.335549958961661,-2.324203656372063,7.160134046661968,7.470680640948195,-4.882968508133571,6.071710513814195,-5.592306025600951,8.676399251989737,-4.653930127121,5.201257367984847,-2.43829654422145,6.938246377976802,-7.6460141537477115,6.4378545399441816,-3.2822099033649366,-2.104644538500598,6.2583226994703915,-3.2937374581445646,-2.021094406775245,7.566544805196435,3.199741681205794,-2.2807150394733755,-1.7368177582061273,0.5043075595540566,-1.6443308057227608,2.478367891613063,-6.706806392787631,2.2371268849446944,-4.917582806550376,-0.8260193298848137,-1.5053583515673583,0.35662781081184514,-0.5570285018340385,-6.02422253948877,1.6493783819069152,-0.561316317701307,-9.120438647011637,0.5517721872652511,-2.233129100633009,-4.1232232917351705,-1.8336393751280617,-2.504421017961659,-1.9226780790912577,-3.5334242407098255,-1.9268453269889012,-2.0745986617053958,-6.097917603507851,-4.02627687618702,-2.1232486187411044,-2.66943205178631,-2.225232563985673,-4.878005148485736,-2.446947891125827,-2.2245309577595553,-6.245798405241036,-4.622452325958767,-0.37348449317045856,3.484066271379025,-0.23725387075521218,0.013189249512878856,-1.0118318650638456,-0.10785293582972315,-0.2836014225205211,-0.21826560670790984,-0.3186523677302508,3.0492954690521135,0.14328109873648748,2.55611281864936,-0.3136919807866651,2.465199728828975,-0.09869924225943653,-0.2305458951898558,3.2718924463600025,-0.16468887506456953,-0.8117810231579246,-1.198507039621997,-1.6505086329123686,-0.9751548918293356,-0.587401257783056,-3.8627280053543576,-1.8479110751767984,-0.8009240016500069,-2.835698177338478,-1.0770579233504463,-1.576163667822254,-3.7867001911769824,-0.8805668548067632,-1.9258576091393427,-3.9630696085483885,-0.8253116095051428,-2.6262661703570056,-3.4698965643356514,-2.4619700385933956,-6.2451987206109365,-5.0718364279180115,-1.9535933080286485,-0.5278154538263229,-4.346264824820676,-5.179496349172601,-2.465577532031101,-4.939418115897712,-5.595326130422236,-5.980671483938704,-3.935808733418051,-1.305047092188795,-6.663721232514978,-2.6584643258744327,-0.8369145693963361,-9.416295690731397,-5.250988265543612,4.494197712067859,3.095113209964537,-4.389907897165696,2.895642348923406,-1.9994025448305115,4.798927759749202,-4.571065040800373,3.069192190875116,-4.0661931943564555,2.7108029777762495,-4.462281867709293,3.1789903467691856,-1.47994269875856,-2.67309559366491,3.2414407683557185,-1.2857960489112574,-4.4832421265474185,3.8092913882931265,-1.898319571119616,-1.5012359551547194,-3.3064405609257013,-2.26165913231199,-14.257403957732869,4.353771470640461,-2.941614771311346,-0.9020232166218377,-5.479296640770645,-0.46377900901490593,-3.0253337034381365,0.539528446694621,-2.3285623920476035,-4.275972968490449,1.126676617782033,-3.077624696669189,-5.004997477304678,0.6075329847208351,-1.8409623073742678,-3.252440513293045,-1.4103493735633017,-2.0901584775730253,-1.441500394008948,-2.6051451031681343,-1.4850421229300423,-1.512659945357648,-4.481833946055339,-2.9764542935530214,-1.6063953554268298,-2.2911012722331887,-1.6018617275884972,-3.611607236763282,-1.9383518625358944,-1.9330021349213236,-4.42241417228195,-3.1659929050963496,-2.48578836609286,-3.4507893513069408,-1.856431792748269,-6.142886276405878,-3.1721492049475355,-2.8448026301460754,-1.3317500931282609,-3.6069859321531013,-4.205139011266126,-6.124165067751524,-1.5310784542992837,-3.6647620965121455,-5.365807726760834,-5.447914282532197,-4.419654070700803,-4.9544625549366925,-6.446410300649803,-5.272885452787759,9.321844529066997,9.743698686589987,2.755503610893375,7.9363220613102055,-0.9780989741676277,9.706449177804979,2.205296474888932,7.791849032742252,0.40474450747950075,8.302499583421657,2.953846652152211,8.134200838706272,-0.4274131846170697,0.015924855511831357,7.916116698371729,0.2512561256013702,-0.15561822459982502,9.255346494155818,-1.0509313343240079,-3.176068491447447,-0.9372659957292742,-0.8633505942820067,-0.7044786616472833,-1.86803494141052,-1.0629329082097987,-1.1085874099173314,-4.455894320786188,-2.154968703541006,-1.0444379382543245,-1.2220952933369622,-1.0416861498616834,-2.9039911113364076,-0.9861915508597223,-0.9901099838264921,-3.6830558959849196,-2.6917036048454945,2.0488140879553374,-1.1117997793969467,-1.2581394904255279,-0.058690300323843335,-2.19045340561268,2.0823027969045746,-1.2692394606953519,-0.39720591074840667,-3.5021988479360147,-0.18295757471650864,-1.3893667114170831,0.6969659965876991,-1.4454384412869645,-3.131822620548972,4.293090843733737,-1.5792577388261821,-3.843315783526054,0.4697857267069727],"Storage":{"Data":[7.074953363034089,5.170817899751288,-4.1262446746757515,5.756782227686393,-3.2032314180195214,7.205930852432381,-4.5042136204440055,5.729978655024883,-8.572407288965154,5.2498078421711,-3.737199886970972,5.91775707903105,-2.581042737943866,-6.317099226699585,5.966617968061306,-1.9079428779509129,-9.40982528282364,5.01334287026013,-3.0762092991635352,-1.6414298153039695,-1.8796378180601974,-1.3704483504704017,-2.6053632997462386,0.6509660462735267,-2.514074103847196,-2.643966412804876,-4.492097370871526,-1.4312019103277462,-2.4009329180751107,-0.6102636327738779,-2.6980415494200094,-3.3005761191468865,2.518487322315323,-2.2582128175069314,-4.252490260477586,-0.9384438448529672,8.3720386018937,9.158009908756105,-2.487397275145561,6.891508364261659,-1.3047946654483908,9.105701678270343,-3.5167507483324147,6.532883864678908,2.447857446486298,7.6338038160732475,-2.6776278139772662,7.00411571436837,-1.8455722545866549,-1.115128848474732,6.737059680429972,-0.392850369522789,1.552186224243432,9.198481156361838,-0.573560601863727,0.4915791315735175,-0.24616202678234567,0.04110959690584398,-0.3344231969355721,-0.19500208875621866,-0.5830113760283894,-0.16265864044275904,-0.0019294747429944854,0.15002274831107457,-0.579843946288108,0.03987317421513282,-0.5906745267001622,-0.24105443691422143,-0.005777176968571389,-0.49596371092632224,0.19787183027948307,0.2932328808578391,-1.6447415534047207,-1.9126009884074402,-1.3799862521920583,-1.8272289665336665,-1.4294855613360185,-0.3659694100074713,-1.6114858698683974,-1.6087663266015604,-2.7286901274221527,-2.266976642649449,-1.6620187268957167,-2.2357261985881958,-1.8211406903365064,-2.406234025413766,-2.0062430369017674,-1.5875247184381729,-2.335549958961661,-2.324203656372063,7.160134046661968,7.470680640948195,-4.882968508133571,6.071710513814195,-5.592306025600951,8.676399251989737,-4.653930127121,5.201257367984847,-2.43829654422145,6.938246377976802,-7.6460141537477115,6.4378545399441816,-3.2822099033649366,-2.104644538500598,6.2583226994703915,-3.2937374581445646,-2.021094406775245,7.566544805196435,3.199741681205794,-2.2807150394733755,-1.7368177582061273,0.5043075595540566,-1.6443308057227608,2.478367891613063,-6.706806392787631,2.2371268849446944,-4.917582806550376,-0.8260193298848137,-1.5053583515673583,0.35662781081184514,-0.5570285018340385,-6.02422253948877,1.6493783819069152,-0.561316317701307,-9.120438647011637,0.5517721872652511,-2.233129100633009,-4.1232232917351705,-1.8336393751280617,-2.504421017961659,-1.9226780790912577,-3.5334242407098255,-1.9268453269889012,-2.0745986617053958,-6.097917603507851,-4.02627687618702,-2.1232486187411044,-2.66943205178631,-2.225232563985673,-4.878005148485736,-2.446947891125827,-2.2245309577595553,-6.245798405241036,-4.622452325958767,-0.37348449317045856,3.484066271379025,-0.23725387075521218,0.013189249512878856,-1.0118318650638456,-0.10785293582972315,-0.2836014225205211,-0.21826560670790984,-0.3186523677302508,3.0492954690521135,0.14328109873648748,2.55611281864936,-0.3136919807866651,2.465199728828975,-0.09869924225943653,-0.2305458951898558,3.2718924463600025,-0.16468887506456953,-0.8117810231579246,-1.198507039621997,-1.6505086329123686,-0.9751548918293356,-0.587401257783056,-3.8627280053543576,-1.8479110751767984,-0.8009240016500069,-2.835698177338478,-1.0770579233504463,-1.576163667822254,-3.7867001911769824,-0.8805668548067632,-1.9258576091393427,-3.9630696085483885,-0.8253116095051428,-2.6262661703570056,-3.4698965643356514,-2.4619700385933956,-6.2451987206109365,-5.0718364279180115,-1.9535933080286485,-0.5278154538263229,-4.346264824820676,-5.179496349172601,-2.465577532031101,-4.939418115897712,-5.595326130422236,-5.980671483938704,-3.935808733418051,-1.305047092188795,-6.663721232514978,-2.6584643258744327,-0.8369145693963361,-9.416295690731397,-5.250988265543612,4.494197712067859,3.095113209964537,-4.389907897165696,2.895642348923406,-1.9994025448305115,4.798927759749202,-4.571065040800373,3.069192190875116,-4.0661931943564555,2.7108029777762495,-4.462281867709293,3.1789903467691856,-1.47994269875856,-2.67309559366491,3.2414407683557185,-1.2857960489112574,-4.4832421265474185,3.8092913882931265,-1.898319571119616,-1.5012359551547194,-3.3064405609257013,-2.26165913231199,-14.257403957732869,4.353771470640461,-2.941614771311346,-0.9020232166218377,-5.479296640770645,-0.46377900901490593,-3.0253337034381365,0.539528446694621,-2.3285623920476035,-4.275972968490449,1.126676617782033,-3.077624696669189,-5.004997477304678,0.6075329847208351,-1.8409623073742678,-3.252440513293045,-1.4103493735633017,-2.0901584775730253,-1.441500394008948,-2.6051451031681343,-1.4850421229300423,-1.512659945357648,-4.481833946055339,-2.9764542935530214,-1.6063953554268298,-2.2911012722331887,-1.6018617275884972,-3.611607236763282,-1.9383518625358944,-1.9330021349213236,-4.42241417228195,-3.1659929050963496,-2.48578836609286,-3.4507893513069408,-1.856431792748269,-6.142886276405878,-3.1721492049475355,-2.8448026301460754,-1.3317500931282609,-3.6069859321531013,-4.205139011266126,-6.124165067751524,-1.5310784542992837,-3.6647620965121455,-5.365807726760834,-5.447914282532197,-4.419654070700803,-4.9544625549366925,-6.446410300649803,-5.272885452787759,9.321844529066997,9.743698686589987,2.755503610893375,7.9363220613102055,-0.9780989741676277,9.706449177804979,2.205296474888932,7.791849032742252,0.40474450747950075,8.302499583421657,2.953846652152211,8.134200838706272,-0.4274131846170697,0.015924855511831357,7.916116698371729,0.2512561256013702,-0.15561822459982502,9.255346494155818,-1.0509313343240079,-3.176068491447447,-0.9372659957292742,-0.8633505942820067,-0.7044786616472833,-1.86803494141052,-1.0629329082097987,-1.1085874099173314,-4.455894320786188,-2.154968703541006,-1.0444379382543245,-1.2220952933369622,-1.0416861498616834,-2.9039911113364076,-0.9861915508597223,-0.9901099838264921,-3.6830558959849196,-2.6917036048454945,2.0488140879553374,-1.1117997793969467,-1.2581394904255279,-0.058690300323843335,-2.19045340561268,2.0823027969045746,-1.2692394606953519,-0.39720591074840667,-3.5021988479360147,-0.18295757471650864,-1.3893667114170831,0.6969659965876991,-1.4454384412869645,-3.131822620548972,4.293090843733737,-1.5792577388261821,-3.843315783526054,0.4697857267069727],"RowCount":18,"ColumnCount":18},"ColumnCount":18,"RowCount":18},{"Values":[-0.40632003323944205,-0.25763878262337897,1.6581592894939194,0.21003644012318934,1.524053104326724,1.0540083184609856,1.7652868750377098,1.0193034441014412,3.1034485422525626,2.9143150437225804,0.988629941301395,-0.036617455769327685,1.7353259805040593,2.876497473059049,2.685870024237444,1.689574012722785,3.076503338268611,-0.15286260993926787,-0.6300649900914296,-0.6137387252095559,-1.6116268669575957,-2.0453821932750063,-1.6896838071956557,-1.8437967849712402,-1.6363229025665036,-1.9709282159215755,1.9076856610995343,2.503674617104182,-1.743143401641569,-0.7347362803134398,-1.5748207199615292,1.1501929377417204,1.7490608913871757,-1.7369075482818166,1.794989390341512,-0.6868835528933555,-0.6598282407668921,-0.5946087482807864,-0.5282079824472378,-0.720118389464274,-0.5286074844054439,-0.5904988364708229,-0.5576713780782494,-0.5840243905657009,-0.532397889396543,-0.5459947336793659,-0.5314290310914194,-0.6059666403489121,-0.5124461778742461,-0.5539920121243993,-0.5910738053714023,-0.6052949407499574,-0.5500363537612748,-0.5712012031779449,-0.5226589167685863,-0.20259883223954636,0.9236447161867919,0.07563538049811747,0.7996017091085207,0.46718240185831633,0.8392701845582639,0.7295369698578902,2.112205460309026,1.985494427484122,0.6587737710010018,-0.04404021985773839,0.8270328396789218,1.8464773739206561,1.766462379315138,0.7521713064847394,2.0137181548836014,-0.1878452931583533,-0.673871899677493,-0.5774339561787918,-0.5948583495181659,-0.7041254881676762,-0.5890552297243044,-0.6478430201633957,-0.621170914469976,-0.6793280359374019,-0.6262019853284337,-0.6154529218513006,-0.5876600059591511,-0.7194354144291606,-0.5943327269328208,-0.5894990803069653,-0.6730658416306278,-0.6513656328020546,-0.5322063504198038,-0.6235465392292573,-0.4343046545807828,-0.6156846349861256,-2.4603405195817967,-0.6595635042601884,-2.1761585284255096,-2.2728659400063655,-2.352446748395367,-1.4817378303319098,1.7529002135057639,2.6320625294430364,-1.4538247154639232,-0.4174623619067478,-2.5316335665292584,1.9597057503693334,1.98315940628941,-2.432938512207153,1.726368052909757,-0.8834365025171733,-0.6663619298229341,-0.5666334607890205,-0.6002800049831308,-0.7731593358330149,-0.5673947432972216,-0.6061558738057925,-0.5717579330102892,-0.6522605874540215,-0.6364620540211043,-0.6446045236562922,-0.5208707952352166,-0.6571907931500223,-0.601662119699704,-0.6346937312423518,-0.7231345802510118,-0.6740829987128443,-0.5489597531698592,-0.5541538744410357,-0.3663202313423616,-0.3723451885684892,1.5178006641605548,0.10457256431244531,1.527816965895582,1.025399607793865,1.6548038545937074,0.9923689262857193,2.7799838931910608,2.7925524755289963,0.8406054464637928,-0.16739663215923054,1.5523726178862038,2.7508933702003455,2.669627311406596,1.4800227378397266,2.9017250516155717,-0.020752724674771045,-0.9748045383115753,-0.8253540753525543,-0.8808574052130175,-1.2082691059491253,-0.9412387373186202,-0.8452061602689291,-0.9904440669864796,-1.0430597230145202,-0.7803960372828644,-0.9028292927336322,-0.9123400924426014,-1.0008993404512725,-0.913473576533986,-0.7783798779910494,-0.9665804181953669,-0.9704118132195462,-0.7363362458606035,-0.7482803642476828,-0.5670534938323113,-0.5759353256083306,-1.4019699636935326,-0.8428382468559192,-1.6128064256891885,-1.5784069129741611,-1.6324244700724233,-1.397412991913233,1.9928328987330215,2.298054655899487,-1.0197183525891513,-0.4542096713036625,-1.4419401060464985,2.3066156990863274,1.6020404575620566,-1.6358221909936963,1.858384795135088,-0.5173027526493357,-1.065267951909046,-0.9242541563238755,-0.8616905944581412,-1.132804283735963,-0.8974755914929289,-1.0135355807447959,-0.9334434825195326,-0.9374160490018426,-0.8786107888634619,-0.8817888481422846,-0.6854315650944968,-1.0376913798034366,-0.9234610850464162,-1.0005520505573244,-1.051692854930254,-0.9602575631898242,-0.8531476801592368,-0.890630803529072,-0.5935743933037718,-0.5617802487885096,-2.1252564005461663,-0.9421686985333657,-2.2669432073413107,-2.389957282159084,-2.3947669799088516,-1.5578293723074117,2.004033587611705,2.6616143893083017,-1.0068229888452698,-0.5088923492154587,-2.336474048775059,2.1570056600239087,1.7557852284878948,-2.3343210246897437,2.0133949961443705,-0.36456835059269777,-0.6196897100079112,-0.38775945695820596,-0.5034303705719443,-0.5711356202575884,-0.5775447889096138,-0.46582190425459624,-0.5651012120050323,-0.573858076976655,0.3481538841118122,-0.44419939853400037,-0.43292296046147033,-0.4512322533329481,-0.5161705303823474,-0.42829540840263125,-0.5303100829023956,-0.5966266912730246,0.43357016160057044,-0.2283604345573537,-1.0504362257583646,-0.9778260440079224,-0.8600407931613896,-1.3843959783222484,-0.9581515025008461,-0.8725863117699838,-1.12016564547886,-1.1492239988598836,0.382767845468082,-1.0463796151644156,-0.7302154541326589,-1.0855407250096656,-0.9735076079429301,-0.43373965816299753,-1.0819631382707486,-1.0663608816352317,0.11346566435251032,-0.15931184143803653,-0.47651562092541494,-0.4941418532508167,-0.9584519582640264,-0.8571836369311037,-0.9567264768006127,-0.9915043778019759,-0.9498562256682642,-1.036104091783162,1.4911616753922656,0.9016600615995498,-1.1826739583609618,-0.39934328344639464,-0.9138857773570418,2.0165102439053006,0.10377164649306951,-0.9164395886968454,1.574203423105605,-0.5419936736665236,-0.4325423171643478,-0.28373938262566467,-0.3454572263770045,-0.3707239815041215,-0.301702368551231,-0.3470435090868322,-0.3896377792606263,-0.41267676289313326,0.3339249170390118,-0.28143086212463025,-0.2796833481975299,-0.33050669260967924,-0.31937259996420325,-0.262488853719021,-0.3371906727883055,-0.40821559921446665,0.3374957125209079,-0.14473992019131632,-1.0872887469378243,-0.9253098310074662,-0.9598130876763794,-1.473601376806845,-1.0543147552303638,-0.9213097698841257,-1.1576835661949123,-1.2072611108006943,0.23265058296252134,-1.0623281974548575,-0.8517674094162874,-1.1868264327379416,-1.0579796751531396,-1.0277561316052208,-1.1845766525305619,-1.122811473176907,-0.11089740424177766,-0.4004057873651828,-0.5734217086748887,-0.7708869558808158,-1.1165341154304222,-0.9040066583864841,-0.9356718278060119,-1.087813350034931,-1.053670851202103,-0.9650781731896992,1.724912616863758,0.060745618546631255,-1.2589726528141159,-0.5262349838506214,-1.2450478873043518,1.842520028181256,1.5085801158913614,-1.0713348644649334,1.7466256925523829,-1.095580726399488],"Storage":{"Data":[-0.40632003323944205,-0.25763878262337897,1.6581592894939194,0.21003644012318934,1.524053104326724,1.0540083184609856,1.7652868750377098,1.0193034441014412,3.1034485422525626,2.9143150437225804,0.988629941301395,-0.036617455769327685,1.7353259805040593,2.876497473059049,2.685870024237444,1.689574012722785,3.076503338268611,-0.15286260993926787,-0.6300649900914296,-0.6137387252095559,-1.6116268669575957,-2.0453821932750063,-1.6896838071956557,-1.8437967849712402,-1.6363229025665036,-1.9709282159215755,1.9076856610995343,2.503674617104182,-1.743143401641569,-0.7347362803134398,-1.5748207199615292,1.1501929377417204,1.7490608913871757,-1.7369075482818166,1.794989390341512,-0.6868835528933555,-0.6598282407668921,-0.5946087482807864,-0.5282079824472378,-0.720118389464274,-0.5286074844054439,-0.5904988364708229,-0.5576713780782494,-0.5840243905657009,-0.532397889396543,-0.5459947336793659,-0.5314290310914194,-0.6059666403489121,-0.5124461778742461,-0.5539920121243993,-0.5910738053714023,-0.6052949407499574,-0.5500363537612748,-0.5712012031779449,-0.5226589167685863,-0.20259883223954636,0.9236447161867919,0.07563538049811747,0.7996017091085207,0.46718240185831633,0.8392701845582639,0.7295369698578902,2.112205460309026,1.985494427484122,0.6587737710010018,-0.04404021985773839,0.8270328396789218,1.8464773739206561,1.766462379315138,0.7521713064847394,2.0137181548836014,-0.1878452931583533,-0.673871899677493,-0.5774339561787918,-0.5948583495181659,-0.7041254881676762,-0.5890552297243044,-0.6478430201633957,-0.621170914469976,-0.6793280359374019,-0.6262019853284337,-0.6154529218513006,-0.5876600059591511,-0.7194354144291606,-0.5943327269328208,-0.5894990803069653,-0.6730658416306278,-0.6513656328020546,-0.5322063504198038,-0.6235465392292573,-0.4343046545807828,-0.6156846349861256,-2.4603405195817967,-0.6595635042601884,-2.1761585284255096,-2.2728659400063655,-2.352446748395367,-1.4817378303319098,1.7529002135057639,2.6320625294430364,-1.4538247154639232,-0.4174623619067478,-2.5316335665292584,1.9597057503693334,1.98315940628941,-2.432938512207153,1.726368052909757,-0.8834365025171733,-0.6663619298229341,-0.5666334607890205,-0.6002800049831308,-0.7731593358330149,-0.5673947432972216,-0.6061558738057925,-0.5717579330102892,-0.6522605874540215,-0.6364620540211043,-0.6446045236562922,-0.5208707952352166,-0.6571907931500223,-0.601662119699704,-0.6346937312423518,-0.7231345802510118,-0.6740829987128443,-0.5489597531698592,-0.5541538744410357,-0.3663202313423616,-0.3723451885684892,1.5178006641605548,0.10457256431244531,1.527816965895582,1.025399607793865,1.6548038545937074,0.9923689262857193,2.7799838931910608,2.7925524755289963,0.8406054464637928,-0.16739663215923054,1.5523726178862038,2.7508933702003455,2.669627311406596,1.4800227378397266,2.9017250516155717,-0.020752724674771045,-0.9748045383115753,-0.8253540753525543,-0.8808574052130175,-1.2082691059491253,-0.9412387373186202,-0.8452061602689291,-0.9904440669864796,-1.0430597230145202,-0.7803960372828644,-0.9028292927336322,-0.9123400924426014,-1.0008993404512725,-0.913473576533986,-0.7783798779910494,-0.9665804181953669,-0.9704118132195462,-0.7363362458606035,-0.7482803642476828,-0.5670534938323113,-0.5759353256083306,-1.4019699636935326,-0.8428382468559192,-1.6128064256891885,-1.5784069129741611,-1.6324244700724233,-1.397412991913233,1.9928328987330215,2.298054655899487,-1.0197183525891513,-0.4542096713036625,-1.4419401060464985,2.3066156990863274,1.6020404575620566,-1.6358221909936963,1.858384795135088,-0.5173027526493357,-1.065267951909046,-0.9242541563238755,-0.8616905944581412,-1.132804283735963,-0.8974755914929289,-1.0135355807447959,-0.9334434825195326,-0.9374160490018426,-0.8786107888634619,-0.8817888481422846,-0.6854315650944968,-1.0376913798034366,-0.9234610850464162,-1.0005520505573244,-1.051692854930254,-0.9602575631898242,-0.8531476801592368,-0.890630803529072,-0.5935743933037718,-0.5617802487885096,-2.1252564005461663,-0.9421686985333657,-2.2669432073413107,-2.389957282159084,-2.3947669799088516,-1.5578293723074117,2.004033587611705,2.6616143893083017,-1.0068229888452698,-0.5088923492154587,-2.336474048775059,2.1570056600239087,1.7557852284878948,-2.3343210246897437,2.0133949961443705,-0.36456835059269777,-0.6196897100079112,-0.38775945695820596,-0.5034303705719443,-0.5711356202575884,-0.5775447889096138,-0.46582190425459624,-0.5651012120050323,-0.573858076976655,0.3481538841118122,-0.44419939853400037,-0.43292296046147033,-0.4512322533329481,-0.5161705303823474,-0.42829540840263125,-0.5303100829023956,-0.5966266912730246,0.43357016160057044,-0.2283604345573537,-1.0504362257583646,-0.9778260440079224,-0.8600407931613896,-1.3843959783222484,-0.9581515025008461,-0.8725863117699838,-1.12016564547886,-1.1492239988598836,0.382767845468082,-1.0463796151644156,-0.7302154541326589,-1.0855407250096656,-0.9735076079429301,-0.43373965816299753,-1.0819631382707486,-1.0663608816352317,0.11346566435251032,-0.15931184143803653,-0.47651562092541494,-0.4941418532508167,-0.9584519582640264,-0.8571836369311037,-0.9567264768006127,-0.9915043778019759,-0.9498562256682642,-1.036104091783162,1.4911616753922656,0.9016600615995498,-1.1826739583609618,-0.39934328344639464,-0.9138857773570418,2.0165102439053006,0.10377164649306951,-0.9164395886968454,1.574203423105605,-0.5419936736665236,-0.4325423171643478,-0.28373938262566467,-0.3454572263770045,-0.3707239815041215,-0.301702368551231,-0.3470435090868322,-0.3896377792606263,-0.41267676289313326,0.3339249170390118,-0.28143086212463025,-0.2796833481975299,-0.33050669260967924,-0.31937259996420325,-0.262488853719021,-0.3371906727883055,-0.40821559921446665,0.3374957125209079,-0.14473992019131632,-1.0872887469378243,-0.9253098310074662,-0.9598130876763794,-1.473601376806845,-1.0543147552303638,-0.9213097698841257,-1.1576835661949123,-1.2072611108006943,0.23265058296252134,-1.0623281974548575,-0.8517674094162874,-1.1868264327379416,-1.0579796751531396,-1.0277561316052208,-1.1845766525305619,-1.122811473176907,-0.11089740424177766,-0.4004057873651828,-0.5734217086748887,-0.7708869558808158,-1.1165341154304222,-0.9040066583864841,-0.9356718278060119,-1.087813350034931,-1.053670851202103,-0.9650781731896992,1.724912616863758,0.060745618546631255,-1.2589726528141159,-0.5262349838506214,-1.2450478873043518,1.842520028181256,1.5085801158913614,-1.0713348644649334,1.7466256925523829,-1.095580726399488],"RowCount":18,"ColumnCount":18},"ColumnCount":18,"RowCount":18},{"Values":[-0.4580880931172895,-0.41780145244140576,-0.32603757006162154,-0.40265777320938906,-0.3691704561139163,-0.3965711573041661,0.554865030548792,-0.4526305030996162,-0.3897070189217906,-0.16376233370889975,-0.3755918457361531,-0.3706190467811303,-0.3757803138963291,-0.35068578187427,-0.41936089590207837,-0.36364947897712735,-0.3643760318256299,-0.3574935813007328,-0.29535805929931025,-0.323239438458563,-0.24146848910601523,-0.319332486032674,-0.27464972631237927,-0.29301320796022695,0.37976178192533644,-0.31832376771376164,-0.25893086146335986,0.1253112135217417,-0.2231428270682334,-0.2983857917429899,-0.3120019504069943,-0.27491792916557856,-0.2927171850193322,-0.24600808020238332,-0.2898818634161461,-0.29309065854876437,-0.4758029079888265,-0.45636468490002313,-0.34465443910483845,-0.4118722158214656,-0.39416640148621485,-0.4513127486757798,0.26350729074106666,-0.5032660622480813,-0.4649842899025449,-0.34580419363462955,-0.4162002044536141,-0.42441399532020924,-0.44815567248382493,-0.42775431074591835,-0.45528495396093843,-0.4087095627666163,-0.44566436808889315,-0.38554576215435027,-0.43255768554925206,-0.46335889690231913,-0.38328106246656063,-0.425898213051901,-0.44892567138470235,-0.3995024672559809,0.6222308118669478,-0.3997528997822124,-0.42735255862594973,-0.21876094674107122,-0.3630971552010636,-0.43300070881132685,-0.4261281141850865,-0.3207802866648348,-0.47381355742893627,-0.4563966244407603,-0.4725353182744793,-0.42634564869269376,-0.45550886769142235,-0.4372024223228882,-0.39649150481618334,-0.4530342016581232,-0.39060745029792354,-0.4225731005152962,0.277503278131786,-0.4383150310504048,-0.43465589294248186,-0.39505137422912184,-0.3989477296073761,-0.4597564167357225,-0.4000596582918018,-0.41747096355474117,-0.41806679095513527,-0.4338379943649508,-0.4597396359556445,-0.4642490607072797,-0.4460331686555867,-0.4380376558126465,-0.36801093957914044,-0.4263360168647587,-0.3962859816867932,-0.34437301498195894,0.4674657660281278,-0.3654779693085592,-0.3941084779616646,-0.18756315614282304,-0.374218150631914,-0.34303416645990353,-0.39474616491872117,-0.3311162131562756,-0.4165416282464071,-0.40837773001412137,-0.36359754814445217,-0.3914683346795644,-0.5089012507802275,-0.5053729479672798,-0.4067703140423799,-0.48672553451389394,-0.45086964117818573,-0.44362376882398546,0.33150713045192115,-0.4861295186783045,-0.39806588238305013,-0.4415074633889977,-0.41043109140384765,-0.3881641648506502,-0.4564172717982073,-0.42391724690432586,-0.4627066082658073,-0.4795890596212783,-0.42639566353164193,-0.40081834745168454,-0.43548268958220354,-0.4360696465699192,-0.40193373604760363,-0.43145820582132277,-0.40308330827739636,-0.38127517617572526,0.37523070960021626,-0.4513941690609414,-0.45278227755698763,-0.264896442857267,-0.4487237228900267,-0.3804206791871065,-0.37859405968995485,-0.4024363261437054,-0.4132736556412886,-0.4215917867992945,-0.4672398131590794,-0.44536699923874945,-3.4898362255095563,-3.3219058248225934,-3.2688577199929316,-3.19414587538261,-3.271263961306459,-3.2228780028666915,-3.9405203677900005,-3.556192508503958,-3.5517097335270105,-4.022302893086265,-3.3183588915915476,-3.154911902433686,-3.782284799564894,-3.614454568194708,-3.540168301626323,-3.165826603184842,-3.493803506581372,-3.3085381176326933,-1.230513869169216,-0.9298630477878518,-1.2532931645028218,-1.0364718608927193,-1.285464294404143,-1.0394403895683215,-0.44997760587404045,-1.3470230219218091,-1.4359489370338008,-0.9967265687840896,-1.0506678587804605,-0.9340188564521793,-1.8318110341548446,-1.264665801018754,-1.306577045745473,-1.12324858550643,-1.458170232769144,-0.9903268069221914,-0.4089745516888229,-0.3616116807436038,-0.3790872286106169,-0.40293714144797504,-0.37238513902231696,-0.3659277913938633,0.11306671074161455,-0.39127693799809454,-0.3719964464194916,-0.35018554155784115,-0.403256057032918,-0.35062112001288664,-0.3936869042554818,-0.4289336233981053,-0.3524040058491279,-0.35499651763794976,-0.3820329144271504,-0.40370942880498206,-0.3016088366395899,-0.318986273081425,-0.29680975932281645,-0.31816202221881656,-0.27264077154911814,-0.24047048174472163,0.3718176181850486,-0.3426907653923096,-0.29322628296585557,0.06092444760438814,-0.26144801222922454,-0.32282074081237416,-0.32286158264229203,-0.31257511036553737,-0.3339164993067858,-0.3084519929551285,-0.249473161829222,-0.2831736142403013,-0.43207084181309385,-0.4335864683172988,-0.40386594254900265,-0.41059631174200556,-0.3596108814451855,-0.42424681440884904,0.3265015977748724,-0.49192253958017484,-0.45382583502100715,-0.3254877551134506,-0.399909836467409,-0.44135387891817257,-0.4165934794192112,-0.4284745059026859,-0.47975104541441477,-0.44155092160126874,-0.41644756623037404,-0.38927060775185934,-1.1377512883883685,-0.9406578282013798,-1.2532426035867887,-1.0542757357659702,-1.2087387771853941,-1.058572352477675,-0.49069390078325,-1.3184874480669917,-1.4213298186395258,-1.119304490300372,-1.0004988306409301,-0.9362699941475211,-1.7530172534721435,-1.3355621445863353,-1.3394896933002354,-1.086842004778309,-1.3708846177643237,-0.9150285881226182,-1.2534622075267796,-1.017117263888064,-1.3208428524747027,-1.1036731656165917,-1.3475662561354638,-1.1323438374273092,-0.17795481751457137,-1.4536909601254648,-1.492412051082971,-1.2259823870548894,-1.1166303028026305,-1.0346075149737752,-1.8183558159755955,-1.410589062394152,-1.4111001192118389,-1.2049638547983172,-1.499199768443956,-1.0566383527360819,-0.4919741811678436,-0.41446950102526625,-0.43293799894406043,-0.4009317926511226,-0.3744458719680889,-0.42695905575162424,0.3903951561649096,-0.438100242835995,-0.45151008066885545,-0.2742701338270137,-0.37203556181974173,-0.4050409022339996,-0.4499804886836416,-0.3657713214837064,-0.43424482245601387,-0.42393809902078355,-0.43022837627319876,-0.3974996605559874,-3.339559206035225,-3.0387232931930117,-3.0803565245824105,-3.0761501085201943,-3.128508108383918,-3.049617990565847,-3.466604897091129,-3.4274950809824607,-3.340838731339333,-3.831063118401697,-3.124048161302506,-2.98080782227245,-3.633809545158648,-3.4231056878205823,-3.36808648468677,-3.0018959004648527,-3.393557411578371,-3.0770364254019733,-0.34991808823609427,-0.3915592486273654,-0.3609003953013198,-0.3170019822737451,-0.3290577574104173,-0.3358946714115112,0.5699015931703982,-0.3056977050383103,-0.32306910017744456,-0.01033454473339323,-0.35705552321228173,-0.29727542151566544,-0.28909776213986105,-0.31020175822967017,-0.33939168029883576,-0.3058825088532967,-0.31443910604538083,-0.34922920191290097],"Storage":{"Data":[-0.4580880931172895,-0.41780145244140576,-0.32603757006162154,-0.40265777320938906,-0.3691704561139163,-0.3965711573041661,0.554865030548792,-0.4526305030996162,-0.3897070189217906,-0.16376233370889975,-0.3755918457361531,-0.3706190467811303,-0.3757803138963291,-0.35068578187427,-0.41936089590207837,-0.36364947897712735,-0.3643760318256299,-0.3574935813007328,-0.29535805929931025,-0.323239438458563,-0.24146848910601523,-0.319332486032674,-0.27464972631237927,-0.29301320796022695,0.37976178192533644,-0.31832376771376164,-0.25893086146335986,0.1253112135217417,-0.2231428270682334,-0.2983857917429899,-0.3120019504069943,-0.27491792916557856,-0.2927171850193322,-0.24600808020238332,-0.2898818634161461,-0.29309065854876437,-0.4758029079888265,-0.45636468490002313,-0.34465443910483845,-0.4118722158214656,-0.39416640148621485,-0.4513127486757798,0.26350729074106666,-0.5032660622480813,-0.4649842899025449,-0.34580419363462955,-0.4162002044536141,-0.42441399532020924,-0.44815567248382493,-0.42775431074591835,-0.45528495396093843,-0.4087095627666163,-0.44566436808889315,-0.38554576215435027,-0.43255768554925206,-0.46335889690231913,-0.38328106246656063,-0.425898213051901,-0.44892567138470235,-0.3995024672559809,0.6222308118669478,-0.3997528997822124,-0.42735255862594973,-0.21876094674107122,-0.3630971552010636,-0.43300070881132685,-0.4261281141850865,-0.3207802866648348,-0.47381355742893627,-0.4563966244407603,-0.4725353182744793,-0.42634564869269376,-0.45550886769142235,-0.4372024223228882,-0.39649150481618334,-0.4530342016581232,-0.39060745029792354,-0.4225731005152962,0.277503278131786,-0.4383150310504048,-0.43465589294248186,-0.39505137422912184,-0.3989477296073761,-0.4597564167357225,-0.4000596582918018,-0.41747096355474117,-0.41806679095513527,-0.4338379943649508,-0.4597396359556445,-0.4642490607072797,-0.4460331686555867,-0.4380376558126465,-0.36801093957914044,-0.4263360168647587,-0.3962859816867932,-0.34437301498195894,0.4674657660281278,-0.3654779693085592,-0.3941084779616646,-0.18756315614282304,-0.374218150631914,-0.34303416645990353,-0.39474616491872117,-0.3311162131562756,-0.4165416282464071,-0.40837773001412137,-0.36359754814445217,-0.3914683346795644,-0.5089012507802275,-0.5053729479672798,-0.4067703140423799,-0.48672553451389394,-0.45086964117818573,-0.44362376882398546,0.33150713045192115,-0.4861295186783045,-0.39806588238305013,-0.4415074633889977,-0.41043109140384765,-0.3881641648506502,-0.4564172717982073,-0.42391724690432586,-0.4627066082658073,-0.4795890596212783,-0.42639566353164193,-0.40081834745168454,-0.43548268958220354,-0.4360696465699192,-0.40193373604760363,-0.43145820582132277,-0.40308330827739636,-0.38127517617572526,0.37523070960021626,-0.4513941690609414,-0.45278227755698763,-0.264896442857267,-0.4487237228900267,-0.3804206791871065,-0.37859405968995485,-0.4024363261437054,-0.4132736556412886,-0.4215917867992945,-0.4672398131590794,-0.44536699923874945,-3.4898362255095563,-3.3219058248225934,-3.2688577199929316,-3.19414587538261,-3.271263961306459,-3.2228780028666915,-3.9405203677900005,-3.556192508503958,-3.5517097335270105,-4.022302893086265,-3.3183588915915476,-3.154911902433686,-3.782284799564894,-3.614454568194708,-3.540168301626323,-3.165826603184842,-3.493803506581372,-3.3085381176326933,-1.230513869169216,-0.9298630477878518,-1.2532931645028218,-1.0364718608927193,-1.285464294404143,-1.0394403895683215,-0.44997760587404045,-1.3470230219218091,-1.4359489370338008,-0.9967265687840896,-1.0506678587804605,-0.9340188564521793,-1.8318110341548446,-1.264665801018754,-1.306577045745473,-1.12324858550643,-1.458170232769144,-0.9903268069221914,-0.4089745516888229,-0.3616116807436038,-0.3790872286106169,-0.40293714144797504,-0.37238513902231696,-0.3659277913938633,0.11306671074161455,-0.39127693799809454,-0.3719964464194916,-0.35018554155784115,-0.403256057032918,-0.35062112001288664,-0.3936869042554818,-0.4289336233981053,-0.3524040058491279,-0.35499651763794976,-0.3820329144271504,-0.40370942880498206,-0.3016088366395899,-0.318986273081425,-0.29680975932281645,-0.31816202221881656,-0.27264077154911814,-0.24047048174472163,0.3718176181850486,-0.3426907653923096,-0.29322628296585557,0.06092444760438814,-0.26144801222922454,-0.32282074081237416,-0.32286158264229203,-0.31257511036553737,-0.3339164993067858,-0.3084519929551285,-0.249473161829222,-0.2831736142403013,-0.43207084181309385,-0.4335864683172988,-0.40386594254900265,-0.41059631174200556,-0.3596108814451855,-0.42424681440884904,0.3265015977748724,-0.49192253958017484,-0.45382583502100715,-0.3254877551134506,-0.399909836467409,-0.44135387891817257,-0.4165934794192112,-0.4284745059026859,-0.47975104541441477,-0.44155092160126874,-0.41644756623037404,-0.38927060775185934,-1.1377512883883685,-0.9406578282013798,-1.2532426035867887,-1.0542757357659702,-1.2087387771853941,-1.058572352477675,-0.49069390078325,-1.3184874480669917,-1.4213298186395258,-1.119304490300372,-1.0004988306409301,-0.9362699941475211,-1.7530172534721435,-1.3355621445863353,-1.3394896933002354,-1.086842004778309,-1.3708846177643237,-0.9150285881226182,-1.2534622075267796,-1.017117263888064,-1.3208428524747027,-1.1036731656165917,-1.3475662561354638,-1.1323438374273092,-0.17795481751457137,-1.4536909601254648,-1.492412051082971,-1.2259823870548894,-1.1166303028026305,-1.0346075149737752,-1.8183558159755955,-1.410589062394152,-1.4111001192118389,-1.2049638547983172,-1.499199768443956,-1.0566383527360819,-0.4919741811678436,-0.41446950102526625,-0.43293799894406043,-0.4009317926511226,-0.3744458719680889,-0.42695905575162424,0.3903951561649096,-0.438100242835995,-0.45151008066885545,-0.2742701338270137,-0.37203556181974173,-0.4050409022339996,-0.4499804886836416,-0.3657713214837064,-0.43424482245601387,-0.42393809902078355,-0.43022837627319876,-0.3974996605559874,-3.339559206035225,-3.0387232931930117,-3.0803565245824105,-3.0761501085201943,-3.128508108383918,-3.049617990565847,-3.466604897091129,-3.4274950809824607,-3.340838731339333,-3.831063118401697,-3.124048161302506,-2.98080782227245,-3.633809545158648,-3.4231056878205823,-3.36808648468677,-3.0018959004648527,-3.393557411578371,-3.0770364254019733,-0.34991808823609427,-0.3915592486273654,-0.3609003953013198,-0.3170019822737451,-0.3290577574104173,-0.3358946714115112,0.5699015931703982,-0.3056977050383103,-0.32306910017744456,-0.01033454473339323,-0.35705552321228173,-0.29727542151566544,-0.28909776213986105,-0.31020175822967017,-0.33939168029883576,-0.3058825088532967,-0.31443910604538083,-0.34922920191290097],"RowCount":18,"ColumnCount":18},"ColumnCount":18,"RowCount":18},{"Values":[0.07436483983078539,-0.788953735236782,0.0650547916472934,0.014135776001003277,-0.0401564411758865,0.05444460780990797,-0.02373529090150257,-0.5618083135359757,0.04785176318417944,0.025323115861462547,-0.7713271751376505,0.07734779723241374,0.020611898897308856,-0.025283398845649355,0.058251929009699256,-0.03945375872020717,-0.5217355930699125,0.017454556596110275,0.03365994140054511,-0.6683513832404265,0.07367376165875023,0.013809182416696299,-0.03523421726622177,0.0395361745975813,-0.02219597837958379,-0.44972052738263896,0.022015753345379516,0.029700913269200546,-0.7368214361032245,0.05202300053932046,-0.0009390977658439828,-0.033325910889985544,0.05548069114991631,-0.022622155215802187,-0.5040607295631331,0.025355779808323375,0.032339010051715,-0.6895866326442264,0.0776977967033094,-0.010288793827832045,-0.04434027187297297,0.06283535814128276,-0.011562101354574637,-0.477227555245252,0.02934596223122656,0.038691662941592875,-0.7220970781069147,0.059449805587685416,0.0008715092361194637,-0.03915093016684059,0.054305243230398655,-0.02634206713033901,-0.5028446754312392,0.02914972825199991,0.01037815483824688,-1.7473236549115088,-0.009744494851134326,-0.5193484246648221,-0.447784263474506,-0.5159211447920463,-0.21317010350872334,-1.2366794582184508,-0.13590997130127228,0.08164392691074727,-0.7630299476861269,0.0646738986867576,0.0009165972212260957,-0.03465145634324076,0.06317647495531609,-0.029070627359653704,-0.5466867818643392,0.04102145781684864,0.07203986302581811,-0.7254550980787458,0.09392225124783166,0.011480877725228315,-0.025908739156750987,0.05115550658132522,-0.01849269338047506,-0.5225592633625983,0.04584464669828799,0.1511826766063808,-1.1993342896373684,0.059408388458929914,-0.18975111654067398,-0.23712427732403826,-0.1376183730865402,-0.13776341001829498,-0.8399291341951097,0.014739019541242597,0.017653807943088365,-0.803074140291329,0.04953210526556039,-0.023182783120480003,-0.05757905179992382,0.021241774750554877,-0.03242262317267482,-0.5598500679699681,0.015584334405978386,0.025667834663358743,-0.763153120173849,0.054764081201664414,0.008239307838444315,-0.04744676385701464,0.05670667207495048,-0.040571079914214235,-0.49461891825306165,0.013597673776007105,0.09064727292412653,-0.6760781798874989,0.09018804693728937,0.002053802006008613,-0.02647559454032226,0.0664460829982083,-0.008564807171791946,-0.5068925038350574,0.04317038412924887,0.06133903307481958,-0.8909551878970435,0.06781345889109773,-0.01621734442640446,-0.04355558366723322,0.05071937702547545,-0.022584670543299625,-0.5962530228173443,0.027244657788320945,0.08678283079902618,-0.7577762491866339,0.07702990376130683,0.01039178452985731,-0.019952739752257847,0.0601002344045808,-0.04614163383339181,-0.5060655272585545,0.01889551094853146,0.029784434251157683,-0.7195649210386444,0.050205785544275607,0.007582566938165422,-0.03400177883901662,0.06994411330259873,-0.006226903032432256,-0.49004772674623326,0.01042586362663119,0.1024723810756034,-0.7418548301916078,0.07174265997164682,0.007710838502130921,-0.025368266576370972,0.07419704134904884,-0.026928149317125928,-0.4839915664349285,0.0031873496762721805,0.04747835591285838,-0.7530170222390504,0.08447176129796365,0.0036968119040397336,-0.032475820865739045,0.04662916594745594,-0.03429892449409084,-0.5240513669758576,0.01785799527188352],"Storage":{"Data":[0.07436483983078539,-0.788953735236782,0.0650547916472934,0.014135776001003277,-0.0401564411758865,0.05444460780990797,-0.02373529090150257,-0.5618083135359757,0.04785176318417944,0.025323115861462547,-0.7713271751376505,0.07734779723241374,0.020611898897308856,-0.025283398845649355,0.058251929009699256,-0.03945375872020717,-0.5217355930699125,0.017454556596110275,0.03365994140054511,-0.6683513832404265,0.07367376165875023,0.013809182416696299,-0.03523421726622177,0.0395361745975813,-0.02219597837958379,-0.44972052738263896,0.022015753345379516,0.029700913269200546,-0.7368214361032245,0.05202300053932046,-0.0009390977658439828,-0.033325910889985544,0.05548069114991631,-0.022622155215802187,-0.5040607295631331,0.025355779808323375,0.032339010051715,-0.6895866326442264,0.0776977967033094,-0.010288793827832045,-0.04434027187297297,0.06283535814128276,-0.011562101354574637,-0.477227555245252,0.02934596223122656,0.038691662941592875,-0.7220970781069147,0.059449805587685416,0.0008715092361194637,-0.03915093016684059,0.054305243230398655,-0.02634206713033901,-0.5028446754312392,0.02914972825199991,0.01037815483824688,-1.7473236549115088,-0.009744494851134326,-0.5193484246648221,-0.447784263474506,-0.5159211447920463,-0.21317010350872334,-1.2366794582184508,-0.13590997130127228,0.08164392691074727,-0.7630299476861269,0.0646738986867576,0.0009165972212260957,-0.03465145634324076,0.06317647495531609,-0.029070627359653704,-0.5466867818643392,0.04102145781684864,0.07203986302581811,-0.7254550980787458,0.09392225124783166,0.011480877725228315,-0.025908739156750987,0.05115550658132522,-0.01849269338047506,-0.5225592633625983,0.04584464669828799,0.1511826766063808,-1.1993342896373684,0.059408388458929914,-0.18975111654067398,-0.23712427732403826,-0.1376183730865402,-0.13776341001829498,-0.8399291341951097,0.014739019541242597,0.017653807943088365,-0.803074140291329,0.04953210526556039,-0.023182783120480003,-0.05757905179992382,0.021241774750554877,-0.03242262317267482,-0.5598500679699681,0.015584334405978386,0.025667834663358743,-0.763153120173849,0.054764081201664414,0.008239307838444315,-0.04744676385701464,0.05670667207495048,-0.040571079914214235,-0.49461891825306165,0.013597673776007105,0.09064727292412653,-0.6760781798874989,0.09018804693728937,0.002053802006008613,-0.02647559454032226,0.0664460829982083,-0.008564807171791946,-0.5068925038350574,0.04317038412924887,0.06133903307481958,-0.8909551878970435,0.06781345889109773,-0.01621734442640446,-0.04355558366723322,0.05071937702547545,-0.022584670543299625,-0.5962530228173443,0.027244657788320945,0.08678283079902618,-0.7577762491866339,0.07702990376130683,0.01039178452985731,-0.019952739752257847,0.0601002344045808,-0.04614163383339181,-0.5060655272585545,0.01889551094853146,0.029784434251157683,-0.7195649210386444,0.050205785544275607,0.007582566938165422,-0.03400177883901662,0.06994411330259873,-0.006226903032432256,-0.49004772674623326,0.01042586362663119,0.1024723810756034,-0.7418548301916078,0.07174265997164682,0.007710838502130921,-0.025368266576370972,0.07419704134904884,-0.026928149317125928,-0.4839915664349285,0.0031873496762721805,0.04747835591285838,-0.7530170222390504,0.08447176129796365,0.0036968119040397336,-0.032475820865739045,0.04662916594745594,-0.03429892449409084,-0.5240513669758576,0.01785799527188352],"RowCount":9,"ColumnCount":18},"ColumnCount":18,"RowCount":9}],"BiasHidden":[{"Values":[7.904623787457692,24.338571644291576,19.814772481552478,-10.437178968563217,16.366181438911106,31.515416207644645,90.18988030304888,-24.871253270280484,-165.83864458775463,261.65435800551245,-63.22677453866755,48.86356438679982,-103.14891338032194,-18.693822272929008,81.56303777368025,16.889893924568074,-21.775172029332797,17.04400258170907],"Storage":{"Data":[7.904623787457692,24.338571644291576,19.814772481552478,-10.437178968563217,16.366181438911106,31.515416207644645,90.18988030304888,-24.871253270280484,-165.83864458775463,261.65435800551245,-63.22677453866755,48.86356438679982,-103.14891338032194,-18.693822272929008,81.56303777368025,16.889893924568074,-21.775172029332797,17.04400258170907],"RowCount":18,"ColumnCount":1},"ColumnCount":1,"RowCount":18},{"Values":[-0.9547317672640383,-1.8008208306689089,-1.2216545299944652,-95.8563675229546,-0.8364912037555127,-0.2546614860176251,4.311125460482293,0.00032156298378251477,-629.9115047307924,961.0107873650263,1.2062056492517832,0.27343268345932625,-114.24796245509151,0.5194040938141012,-1.8082912656204453,-1.4622142092409827,0.6199202018476981,-1.2106905238489323],"Storage":{"Data":[-0.9547317672640383,-1.8008208306689089,-1.2216545299944652,-95.8563675229546,-0.8364912037555127,-0.2546614860176251,4.311125460482293,0.00032156298378251477,-629.9115047307924,961.0107873650263,1.2062056492517832,0.27343268345932625,-114.24796245509151,0.5194040938141012,-1.8082912656204453,-1.4622142092409827,0.6199202018476981,-1.2106905238489323],"RowCount":18,"ColumnCount":1},"ColumnCount":1,"RowCount":18},{"Values":[-3.037426317263312,-2.5434622563626808,-0.5930578842402597,-1.242505311245253,-0.5012970195642675,1.0411277378448127,-0.536570272607563,-0.6912243442661932,-0.4263581433315389,-1.7690644479337183,-1.1020788180556949,-3.5590587722067584,-0.33453041282152374,-2.062595883419038,1.0330766705951824,-0.13342119572083624,-0.4363205955529476,-2.800951720659192],"Storage":{"Data":[-3.037426317263312,-2.5434622563626808,-0.5930578842402597,-1.242505311245253,-0.5012970195642675,1.0411277378448127,-0.536570272607563,-0.6912243442661932,-0.4263581433315389,-1.7690644479337183,-1.1020788180556949,-3.5590587722067584,-0.33453041282152374,-2.062595883419038,1.0330766705951824,-0.13342119572083624,-0.4363205955529476,-2.800951720659192],"RowCount":18,"ColumnCount":1},"ColumnCount":1,"RowCount":18},{"Values":[-3.225369962099019,-10.948591657491512,-2.052213884870249,-6.488765124661839,-2.1364662780691877,-5.459138343920754,-48.4786792867112,-0.5752537741617604,-0.06777014496378868,-1.1771164218637362,-6.455953005637939,-11.589000881622031,2.865021316266067,-0.6272635379562997,-0.43860099944681774,-4.661412445623713,-0.11324862713297708,-8.755157099485622],"Storage":{"Data":[-3.225369962099019,-10.948591657491512,-2.052213884870249,-6.488765124661839,-2.1364662780691877,-5.459138343920754,-48.4786792867112,-0.5752537741617604,-0.06777014496378868,-1.1771164218637362,-6.455953005637939,-11.589000881622031,2.865021316266067,-0.6272635379562997,-0.43860099944681774,-4.661412445623713,-0.11324862713297708,-8.755157099485622],"RowCount":18,"ColumnCount":1},"ColumnCount":1,"RowCount":18},{"Values":[-2.1338270555843644,-2.860314344547705,-2.1722671283431847,-2.172451953585139,-2.181579333059332,-2.233302942431122,-2.1967399435502126,-2.5638472456110573,-2.2051279214204906],"Storage":{"Data":[-2.1338270555843644,-2.860314344547705,-2.1722671283431847,-2.172451953585139,-2.181579333059332,-2.233302942431122,-2.1967399435502126,-2.5638472456110573,-2.2051279214204906],"RowCount":9,"ColumnCount":1},"ColumnCount":1,"RowCount":9}],"ActivationsHiddenSigmoid":[{"Values":[0.9999999999898814,1.0,0.9999999999999967,8.083278711421954E-11,1.0,0.9999999999999998,1.0,4.280176813352422E-40,0.0,0.9999999999016447,1.2093725839867693E-92,1.0,0.0,1.631022658242294E-27,1.0,0.9999999999998122,5.611823589472967E-17,0.9999999999999962],"Storage":{"Data":[0.9999999999898814,1.0,0.9999999999999967,8.083278711421954E-11,1.0,0.9999999999999998,1.0,4.280176813352422E-40,0.0,0.9999999999016447,1.2093725839867693E-92,1.0,0.0,1.631022658242294E-27,1.0,0.9999999999998122,5.611823589472967E-17,0.9999999999999962],"RowCount":18,"ColumnCount":1},"ColumnCount":1,"RowCount":18},{"Values":[0.9999999999999938,0.9999999994045226,3.367750466484175E-11,8.276249683410332E-34,8.064830938257788E-12,1.0,5.054184526286286E-12,0.9999999995422788,1.8773960367555706E-289,1.0,2.460699777103795E-11,0.9999999996243987,4.5856808092942454E-60,1.8729410340160962E-15,0.9999999999965175,2.3771332390067993E-09,3.4108858295367126E-19,0.9999999998541502],"Storage":{"Data":[0.9999999999999938,0.9999999994045226,3.367750466484175E-11,8.276249683410332E-34,8.064830938257788E-12,1.0,5.054184526286286E-12,0.9999999995422788,1.8773960367555706E-289,1.0,2.460699777103795E-11,0.9999999996243987,4.5856808092942454E-60,1.8729410340160962E-15,0.9999999999965175,2.3771332390067993E-09,3.4108858295367126E-19,0.9999999998541502],"RowCount":18,"ColumnCount":1},"ColumnCount":1,"RowCount":18},{"Values":[0.0008369549629821384,0.0011064154788177647,0.0008317651471209592,0.0007618921100828086,0.0008349795286325152,0.0008721334694252706,0.0007954371384678424,0.0008339446852673332,0.999999919144417,0.99999969275349,0.000969435088778254,0.0011082669949956585,0.0008322926293176087,0.9999996932846696,0.9999997206980028,0.0008314906487682771,0.9999999128708561,0.0008543970623186512],"Storage":{"Data":[0.0008369549629821384,0.0011064154788177647,0.0008317651471209592,0.0007618921100828086,0.0008349795286325152,0.0008721334694252706,0.0007954371384678424,0.0008339446852673332,0.999999919144417,0.99999969275349,0.000969435088778254,0.0011082669949956585,0.0008322926293176087,0.9999996932846696,0.9999997206980028,0.0008314906487682771,0.9999999128708561,0.0008543970623186512],"RowCount":18,"ColumnCount":1},"ColumnCount":1,"RowCount":18},{"Values":[1.1436715774019505E-06,1.6849040839143572E-09,4.867436129806923E-06,1.1735909597562222E-07,4.192478820686091E-06,3.1639664640637555E-07,1.7587160743258747E-25,8.437299309067374E-06,1.219529172361501E-05,4.223710601079464E-06,1.0489217916981438E-07,1.0934730687019544E-09,4.731288595895133E-05,8.462687316214495E-06,1.1099242887284732E-05,6.485179667508611E-07,1.196792425886039E-05,1.36835295297151E-08],"Storage":{"Data":[1.1436715774019505E-06,1.6849040839143572E-09,4.867436129806923E-06,1.1735909597562222E-07,4.192478820686091E-06,3.1639664640637555E-07,1.7587160743258747E-25,8.437299309067374E-06,1.219529172361501E-05,4.223710601079464E-06,1.0489217916981438E-07,1.0934730687019544E-09,4.731288595895133E-05,8.462687316214495E-06,1.1099242887284732E-05,6.485179667508611E-07,1.196792425886039E-05,1.36835295297151E-08],"RowCount":18,"ColumnCount":1},"ColumnCount":1,"RowCount":18},{"Values":[0.10594815871366524,0.054160451046884835,0.10235593103704112,0.10233802535791299,0.10150091591974053,0.09687415859196565,0.09932029905068093,0.07152923769287332,0.09937084717915577],"Storage":{"Data":[0.10594815871366524,0.054160451046884835,0.10235593103704112,0.10233802535791299,0.10150091591974053,0.09687415859196565,0.09932029905068093,0.07152923769287332,0.09937084717915577],"RowCount":9,"ColumnCount":1},"ColumnCount":1,"RowCount":9}]}