{"NumberInput":9,"NumberNeurons":36,"NumberOutput":9,"NumberOfLayers":2,"WeightsHidden":[{"Values":[14.77839433235769,42.190460906286994,20.81704480969042,47.98104646221271,-45.959173770709754,0.2966044585087906,-3.924817763748813,161.53566936840062,-35.73686725866201,2.266766776346426,300.85867309392654,32.3177086809241,-61.027713363748035,50.419287998100664,38.570994933375275,220.98708549608648,14.161730648131003,6.343711769934028,-74.01394164824018,-409.72803035619813,43.85823800024625,-25.565434529854077,-26.325357689117176,62.05475423867089,17.351068025197826,-74.25714041877156,-19.682130094118595,47.86716236242689,14.719004990021027,-31.69488772812317,-33.02080101453852,93.81637055498354,4.013673606578981,23.486326239163194,-2.4317784692207063,-18.288119991870616,4.334065790987759,51.67919697107519,-73.36349151269924,-13.587821479888444,-4.564119700404589,7.003459624744197,-4.844623093048441,-19.797890025129682,32.67601176261733,0.8175203323534215,-690.6298007694195,4.291219389422301,6.817080483205464,35.9081158430929,45.29854561655832,-12.180324560913549,-1.0474702108029397,48.22416800712458,-107.9902774969704,-414.44328281388124,20.3075523750744,-15.393244073704984,-21.821826437651843,-79.62989147322206,16.483327800459737,-63.09500555208459,12.345242899072955,-26.057852352920168,19.67030560388771,-61.55097499301389,21.182177469246543,122.4422470578562,0.3808480240267677,8.061534305186626,1.4266054381948736,-4.5700248583867085,3.3872694188855923,132.65064737015769,-5.3792031056780765,-26.874373634033677,-6.569308915375011,7.483402066844979,-6.632257376357413,-15.198763918443701,70.92160025918734,21.25632757309343,-94.97793601057452,-124.46714197411005,-68.54927216225119,39.39585418077234,41.80110963332515,-6.8321616237318645,-27.444677146668447,-15.052896436191244,-190.64822520982617,-626.0970584805943,-44.795211407925706,-132.6736316200527,-13.89107902187595,29.118872234511016,0.1037444582139096,-43.195287981944176,-115.21060194012985,-0.6436315392484456,-53.090728642640904,487.58372691037164,65.44145444490015,-132.91636603027678,5.874862183487003,-263.7895868844024,-7.429173509248131,-0.7270971980739946,9.254526780070634,76.31170986003994,-1.6769699635815662,-21.05004950701763,4.8108685246092975,11.025533158424373,-2.935136579003412,-17.086642235730928,-92.81776781230076,1.3915782696577184,-423.10796617453263,51.26265467913524,-22.487955252195146,22.8950111143724,52.17848657525489,-25.54608811038525,-12.660264007078528,-34.87792783450453,-220.9721601384321,2.973041522919393,-147.17335446008303,-55.4192753527865,-20.13123514453499,20.553747415956785,19.53412722321752,105.92283192244291,29.782626715947572,12.054923793072716,20.869288281590713,-67.16717496741217,3.208371983092089,136.48808792571734,11.24107382451103,36.84304517722686,-12.076656991162972,-0.8256916760784129,56.56223175331507,70.929004550736,-12.804771913649635,-5.63633528638899,-13.740862107479465,-2.3059403159154637,-2.5261731000286347,-28.774598399316954,-4.373254957860849,13.023547365081996,457.2820262029112,183.3381866816087,-17.907190881068118,-46.714707414533876,-153.85500298530258,-23.591699951488803,-115.68551508281777,26.10659525286827,24.747653872710533,105.11991927691876,-31.886721824382697,10.25514258346772,-22.454586549571637,611.6846087698926,-15.314149911071704,-12.874656913324044,-20.866959666375912,17.14555755270835,31.733020549186026,-40.466759691895156,16.43204415266427,395.25157255781767,-12.342420102319739,3.4777862827936934,-4.8101971216821005,-14.13874524370311,12.156014350521275,68.33431791664628,-9.863073516887232,-8.878403708800054,1.1493975272991905,5.515593178809326,-2.5845671802986967,-17.0477664479008,-21.80317480055419,1.4844449676672418,-295.7966639080931,39.16276274916577,2.258758681023709,-31.207213114654873,50.48677464798431,-3.7601256657159583,-21.21192177205228,60.75917029209301,11.822658398023936,106.83114343348356,4.236364101236417,23.013143742544518,-24.90645294917432,14.84467871059661,4.279567757272611,-118.06295935493134,14.193046567310825,106.87190983463886,17.907580287744143,-68.98795953823446,13.187169738871116,125.93814577208232,14.385941706821521,14.71099783113022,-1.1331112672296966,11.064671089787337,8.733116543309169,-226.0386671090498,-2.4025906600509948,-44.87145481145834,-15.596992079448235,26.719273415583217,-1.823998131224874,-22.847480035179213,-19.68983044586804,6.5759681531352685,-243.19169949231937,195.3372355544147,-54.74019709714712,62.595755469485766,111.8307779772718,-20.57734747667285,8.147117286893318,471.77865662690294,114.06355468742895,6.646385673722991,-25.00393072914094,-24.864220839278463,-9.11460868186167,52.61327079878334,26.111798236209726,-54.50904664500302,-220.68209216874848,4.60115732227775,9.36478961078142,-65.38516569369914,126.82579661131194,33.390375536497835,7.215534586745477,40.51487814602154,-0.16366085360835683,-101.81033967284236,8.412934597519829,101.31275831594175,-10.641837419530638,-20.895413994318073,-38.57366036168337,27.59625645579523,-1.5434633970127825,-20.45405685437892,-198.31564324261433,5.899976757283633,-222.5819101160504,208.54481633439937,34.965097880205896,28.295843764547424,45.7594403709165,-25.688579056453296,3.9598793980741616,13.867561646584592,-36.072629396219625,217.95141977232834,14.51919161591737,-31.11051715072594,48.495860745265595,49.13311851250771,-13.426285972992538,-158.38607407685808,-14.448047353529342,18.689928749581263,13.391520591346021,-110.36445718160775,33.76886027592773,89.93241302034792,9.907141149203987,35.806595364734456,-6.8264587820421605,-8.076362281610063,-187.9440022568139,96.8931608541339,-19.69734895182522,-15.623600826388598,4.051401554090307,-12.355067488296571,-2.1365457798713896,-18.604428089430826,-172.95187947120866,1.9967353466014375,710.0331529294967,9.553585387000947,-20.349551190536005,36.40834063663371,59.245155046675215,-29.164501402201477,-11.176598408729802,125.63380528333668,-96.7612702370806,120.8676219502485,-329.8179359636803,8.61207320718913,-11.29679670786129,-505.0123037569729,141.09718576779355,1132.4487414842633,-23.25117559340023,-3.399959621134037,40.426430875442904,-67.51163903311677,-11.936514232657727,-149.09247843514083,10.03686422001654,1.249513873472986,-5.785672036136211,-6.253535077437052],"Storage":{"Data":[14.77839433235769,42.190460906286994,20.81704480969042,47.98104646221271,-45.959173770709754,0.2966044585087906,-3.924817763748813,161.53566936840062,-35.73686725866201,2.266766776346426,300.85867309392654,32.3177086809241,-61.027713363748035,50.419287998100664,38.570994933375275,220.98708549608648,14.161730648131003,6.343711769934028,-74.01394164824018,-409.72803035619813,43.85823800024625,-25.565434529854077,-26.325357689117176,62.05475423867089,17.351068025197826,-74.25714041877156,-19.682130094118595,47.86716236242689,14.719004990021027,-31.69488772812317,-33.02080101453852,93.81637055498354,4.013673606578981,23.486326239163194,-2.4317784692207063,-18.288119991870616,4.334065790987759,51.67919697107519,-73.36349151269924,-13.587821479888444,-4.564119700404589,7.003459624744197,-4.844623093048441,-19.797890025129682,32.67601176261733,0.8175203323534215,-690.6298007694195,4.291219389422301,6.817080483205464,35.9081158430929,45.29854561655832,-12.180324560913549,-1.0474702108029397,48.22416800712458,-107.9902774969704,-414.44328281388124,20.3075523750744,-15.393244073704984,-21.821826437651843,-79.62989147322206,16.483327800459737,-63.09500555208459,12.345242899072955,-26.057852352920168,19.67030560388771,-61.55097499301389,21.182177469246543,122.4422470578562,0.3808480240267677,8.061534305186626,1.4266054381948736,-4.5700248583867085,3.3872694188855923,132.65064737015769,-5.3792031056780765,-26.874373634033677,-6.569308915375011,7.483402066844979,-6.632257376357413,-15.198763918443701,70.92160025918734,21.25632757309343,-94.97793601057452,-124.46714197411005,-68.54927216225119,39.39585418077234,41.80110963332515,-6.8321616237318645,-27.444677146668447,-15.052896436191244,-190.64822520982617,-626.0970584805943,-44.795211407925706,-132.6736316200527,-13.89107902187595,29.118872234511016,0.1037444582139096,-43.195287981944176,-115.21060194012985,-0.6436315392484456,-53.090728642640904,487.58372691037164,65.44145444490015,-132.91636603027678,5.874862183487003,-263.7895868844024,-7.429173509248131,-0.7270971980739946,9.254526780070634,76.31170986003994,-1.6769699635815662,-21.05004950701763,4.8108685246092975,11.025533158424373,-2.935136579003412,-17.086642235730928,-92.81776781230076,1.3915782696577184,-423.10796617453263,51.26265467913524,-22.487955252195146,22.8950111143724,52.17848657525489,-25.54608811038525,-12.660264007078528,-34.87792783450453,-220.9721601384321,2.973041522919393,-147.17335446008303,-55.4192753527865,-20.13123514453499,20.553747415956785,19.53412722321752,105.92283192244291,29.782626715947572,12.054923793072716,20.869288281590713,-67.16717496741217,3.208371983092089,136.48808792571734,11.24107382451103,36.84304517722686,-12.076656991162972,-0.8256916760784129,56.56223175331507,70.929004550736,-12.804771913649635,-5.63633528638899,-13.740862107479465,-2.3059403159154637,-2.5261731000286347,-28.774598399316954,-4.373254957860849,13.023547365081996,457.2820262029112,183.3381866816087,-17.907190881068118,-46.714707414533876,-153.85500298530258,-23.591699951488803,-115.68551508281777,26.10659525286827,24.747653872710533,105.11991927691876,-31.886721824382697,10.25514258346772,-22.454586549571637,611.6846087698926,-15.314149911071704,-12.874656913324044,-20.866959666375912,17.14555755270835,31.733020549186026,-40.466759691895156,16.43204415266427,395.25157255781767,-12.342420102319739,3.4777862827936934,-4.8101971216821005,-14.13874524370311,12.156014350521275,68.33431791664628,-9.863073516887232,-8.878403708800054,1.1493975272991905,5.515593178809326,-2.5845671802986967,-17.0477664479008,-21.80317480055419,1.4844449676672418,-295.7966639080931,39.16276274916577,2.258758681023709,-31.207213114654873,50.48677464798431,-3.7601256657159583,-21.21192177205228,60.75917029209301,11.822658398023936,106.83114343348356,4.236364101236417,23.013143742544518,-24.90645294917432,14.84467871059661,4.279567757272611,-118.06295935493134,14.193046567310825,106.87190983463886,17.907580287744143,-68.98795953823446,13.187169738871116,125.93814577208232,14.385941706821521,14.71099783113022,-1.1331112672296966,11.064671089787337,8.733116543309169,-226.0386671090498,-2.4025906600509948,-44.87145481145834,-15.596992079448235,26.719273415583217,-1.823998131224874,-22.847480035179213,-19.68983044586804,6.5759681531352685,-243.19169949231937,195.3372355544147,-54.74019709714712,62.595755469485766,111.8307779772718,-20.57734747667285,8.147117286893318,471.77865662690294,114.06355468742895,6.646385673722991,-25.00393072914094,-24.864220839278463,-9.11460868186167,52.61327079878334,26.111798236209726,-54.50904664500302,-220.68209216874848,4.60115732227775,9.36478961078142,-65.38516569369914,126.82579661131194,33.390375536497835,7.215534586745477,40.51487814602154,-0.16366085360835683,-101.81033967284236,8.412934597519829,101.31275831594175,-10.641837419530638,-20.895413994318073,-38.57366036168337,27.59625645579523,-1.5434633970127825,-20.45405685437892,-198.31564324261433,5.899976757283633,-222.5819101160504,208.54481633439937,34.965097880205896,28.295843764547424,45.7594403709165,-25.688579056453296,3.9598793980741616,13.867561646584592,-36.072629396219625,217.95141977232834,14.51919161591737,-31.11051715072594,48.495860745265595,49.13311851250771,-13.426285972992538,-158.38607407685808,-14.448047353529342,18.689928749581263,13.391520591346021,-110.36445718160775,33.76886027592773,89.93241302034792,9.907141149203987,35.806595364734456,-6.8264587820421605,-8.076362281610063,-187.9440022568139,96.8931608541339,-19.69734895182522,-15.623600826388598,4.051401554090307,-12.355067488296571,-2.1365457798713896,-18.604428089430826,-172.95187947120866,1.9967353466014375,710.0331529294967,9.553585387000947,-20.349551190536005,36.40834063663371,59.245155046675215,-29.164501402201477,-11.176598408729802,125.63380528333668,-96.7612702370806,120.8676219502485,-329.8179359636803,8.61207320718913,-11.29679670786129,-505.0123037569729,141.09718576779355,1132.4487414842633,-23.25117559340023,-3.399959621134037,40.426430875442904,-67.51163903311677,-11.936514232657727,-149.09247843514083,10.03686422001654,1.249513873472986,-5.785672036136211,-6.253535077437052],"RowCount":36,"ColumnCount":9},"ColumnCount":9,"RowCount":36},{"Values":[2.7552164819164586,5.166604678996909,12.906129497903837,1.0787717866118,-5.629818217748709,14.88910282601508,83.71324655597404,-34.563959753621155,-24.44309310928949,1.5270345720339424,-21.101487960629438,-0.04153999509242882,1.3910760076424635,-5.730775089552796,12.8727609031569,-12.145136704886653,-21.492731349340126,1.273258396265789,-0.2509867132627434,-28.7259264447067,-3.5572684174248743,-23.082673899939195,-4.095458826311964,-22.061675393733616,-118.99701615645765,18.45909328039849,-6.449035530408455,-3.740381404020883,3.3235183930859145,-5.525728882982381,1.4648095628442244,11.76703271557074,1.4605445530505283,5.9471555903281,2.759572927717847,-3.1588522467555586,4.8390342255857295,-3.13239645134588,-12.652416429383933,-3.056013044265126,-1.710418330583298,-12.171315097891632,-6.70184703179212,8.951186240771682,-0.3397791935721715,2.7971970361420615,-29.572419685823554,-0.1188782370050615,-0.8712204650281424,-0.9116819916043566,-15.081346807382992,-12.0430018244309,-9.23530680744152,-11.604253924786171,-1.2388602138399594,3.169239362497678,-0.33638357814886105,3.1026855090254695,7.025082125546517,7.205150526072698,-74.19505261463583,-2.38164861563438,26.84398564649859,-6.1648826569865935,-3.592978104429967,-7.167107613857572,-0.03439402922775603,-30.040523804785405,-2.772961635755161,-0.22713662736172058,-11.002204966932728,6.131563428105764,-0.7518634807802649,-4.342283764457199,5.76938283960811,1.8852900049512527,3.564311640147571,-3.0671951140012843,0.13427233142878497,4.9566507144252965,0.48569358233152005,3.2919895795343512,0.8166296537760054,5.771372735771373,1.2982906083042853,-13.744368981637994,6.443204861862088,2.1390772538031246,8.175824437565145,-7.701617856999653,-3.9563473688150133,-1.0364446484072198,-0.3924556254515443,1.4357844277218441,-4.933239219661097,4.326511674074485,11.594132807250311,3.9466553886930744,2.948797712681767,-2.6448605273537686,1.5317241940073412,0.9197869746810691,-0.9419051917227131,4.658773458423662,8.419365837070256,2.9790033398149105,0.6167096432615611,-0.5254260238800308,-1.2191799459369468,-9.699950891731262,-5.6243106706021955,-7.755123259863421,3.4277230264978398,-8.323428876231633,2.707117467596272,-0.7285408392214966,-11.764890361843843,-2.613754458241881,-3.485240427593824,-5.009133332449584,6.113868487883475,1.065292913714528,-5.428828540004237,-11.969773696303479,4.841064850117862,7.539272267798111,-4.000477863743569,8.342074153929143,-7.243761157423135,-5.0932570825935235,3.32715319999623,-2.444180564048347,12.688436221397364,-9.467347496872176,-0.8714393874613374,-6.385378169270462,5.993338196155808,-1.2328361701889254,-14.296844712850879,-1.2214916315508049,-5.958240456125102,-6.848958298020529,-6.191890275580787,2.687811164151239,0.12323979828446936,0.7708471105327839,-5.683764853640158,-0.20673437829007157,-5.33837531717572,-4.518294173549194,0.8026861948956128,-1.0965516379770766,3.1956589323527322,1.5087450202667911,0.6161648148994783,-1.0093104274316402,-1.2406986980549217,-4.768696349075015,3.708409518800179,-0.18515445755550355,0.14536185404147045,0.6187382698192927,-1.1656426652171143,-5.789117694515451,-0.07325723715211284,-1.3165279269684553,1.2887564640902642,-0.9455451151924033,-0.28909045714852855,0.17585200464263048,1.5422579399698697,1.2714466829029156,-5.26019304124702,-0.7512340463379125,1.043536725817392,1.5523186601384766,1.650317175822869,-3.300869286860278,-0.16868366648380662,-0.36674820541592074,-6.914367450651998,-1.4602571396346704,-5.490197587751564,-10.221758408703245,-2.409874695739417,-7.481898196924397,11.885489207169552,-3.935633178381505,1.5699399064730908,-3.3390029797249663,-19.837061642372635,-6.7734567866210975,2.8944059118095544,1.6899117439289018,-8.96817945530744,-15.206997135222268,-1.2617256933344851,-3.1545395321319543,-0.2050507976049921,6.163653065857285,0.001692091889218567,-4.811911959916821,1.173707826887885,-11.039933646503087,-1.9727770129666133,-7.077791235892592,-13.548329861005232,-3.2820342317655427,-0.04168712297766459,-11.257512923758142,-13.507381443141675,-25.58450643685629,0.16389346837306223,-15.146613583888453,-8.489201894968044,3.004199635012627,0.9355414025739345,0.902003567475872,1.368405268355858,0.16323691727665413,1.0511191850440982,0.8039238790706328,0.8329248585020051,0.9203754085826164,0.8307500401084271,0.48569670549906035,1.0721080914624206,0.8875965752514433,0.6711916977955891,0.7553118019008881,0.4939164718906452,0.1918117268578926,0.6479051941864169,0.8696733946439161,-2.134983471529607,0.6986820638925346,1.1913354497663078,1.06510148641284,0.5238913286783443,-0.31326834539792897,0.5702390887147472,0.5455851178549219,0.7676478774894059,0.8774991791443183,0.9674267545519054,0.548919203438128,0.8191505947840887,1.0229609845355547,0.37770720654667017,0.5589943569009477,0.6936737910515377,0.7800229243510981,-4.303283108619446,7.474303914033992,-122.14846753499255,-5.643993497724888,-7.083590057893753,9.123318547543079,75.79725905064447,27.875764186226274,6.95739505894462,3.105024852068585,3.31090661458995,-3.0961462243367657,0.08022907787742238,18.28843711425404,10.61577861190461,12.127497124328237,57.594014125556704,26.259600918736453,-1.157487004591448,-23.64159986332592,2.419651903155373,8.870110302704665,2.870081498998053,14.891751189699459,31.713700948785384,-12.160542491440909,29.070314102484723,-6.94205577034498,-16.59516767580619,10.757240859459683,13.43400484506931,7.672420391612222,3.4421962566237783,2.3333013708948016,10.909399216210169,35.98921299484683,0.0035119143755886107,16.428399405052204,-5.81066098505296,-4.171873961633863,0.8298509249130389,-3.7889155071207763,-1.149851836325526,0.4505056645523862,-3.8237858938953657,0.07038578116962847,0.26671202028714996,-3.0680598420942107,1.8063409951274272,-2.638592613857155,0.273454261632989,-6.25180358008909,-1.8675585232462586,3.488908638883895,1.9434867797172581,-8.900828827694198,-1.8744498815112267,6.147799085799168,0.73518794773855,-14.783829912178518,11.23696694906806,-6.03274877478341,0.8654412520045985,-1.5555387992548497,-0.47112069989116706,-2.9533493255198198,11.055061979769464,-5.768368598924007,7.068072717815267,-8.241786508298091,-8.703421388182301,0.988619910707188,-7.709117706550799,-4.836193900763748,-12.927681179155524,-7.641191021498637,-4.750863287055059,-8.181973979515409,12.688836677138829,-4.140865149353147,4.908997372389674,-2.905107476353121,-24.525332662342294,-10.575657267880196,1.7202903004474472,-1.5346813215104818,-10.096265200680019,-14.132911986827333,0.06996369046221221,-3.474508060360125,-0.6705447536791301,5.310104745002131,-3.591930786263793,-3.76714037400736,2.371950452971527,-12.068725929709982,1.4526238285889146,-6.737598843748561,-12.945141360655409,-2.3693870692822268,-4.868121391727114,-9.873618065721203,-16.02408180869736,-28.316352265509387,-0.21706873271046367,-13.936024859110299,-7.72321116151125,2.3362193274748386,-1.4497909904750275,1.6306887754493873,11.135859224853295,-3.741043203051708,5.83297862571135,-0.11268368680187199,53.4516911802576,1.2103241021818054,0.7007786411627115,-0.12759509418707213,12.404137372166032,1.269896214386075,0.15445662217749342,1.9872276277157541,-0.08977607112409881,-2.8290773116499426,-0.8081545853906404,-11.46389735747228,0.7701112786722224,0.7641835215778515,3.1011802667157005,6.066443764653578,-0.5160806708929031,1.5402371868655478,-27.144280671518683,-2.247831712904654,-0.8828191769441617,-0.4435707689083193,2.0550173864647974,12.465622972869966,-5.747415244243401,-12.937970837389582,-0.5041046956039374,-1.240244804289529,-0.44369909715545547,-0.15509264224518995,-1.1707108900213292,14.27457590466722,-14.233725694139125,2.42300156764357,-1.2695836104288793,1.6443004989990717,6.490078534430342,17.648516752024992,-17.661815078176758,-1.8803034380814778,-14.967195627312044,-3.289967245384073,3.741744726852129,-36.04979631558172,-4.076471204846695,-9.687242351036012,17.308527478309838,-9.463423199406376,-0.14820938580062412,33.829564074826116,-4.84741048643639,-5.858255092202417,-18.32879250487498,-9.2506115561778,-3.9039116498069775,2.22111329356294,0.9091077131800882,-0.371380108839566,-2.670398100406618,-3.841206792393109,2.650605644898612,-23.46510070521001,1.570496933928366,-5.112690474935023,6.613852938579029,-5.095202970578867,-0.7966701001560658,2.154090785357758,-0.9819033335690026,-6.306264049624452,-2.5571144732866755,2.3326858184199843,-3.8377522147953993,0.3574808168162158,4.6625558893255405,-1.1187255226210855,-0.49159137321746316,6.2730558181749485,0.7818977392835941,8.671752521927688,-7.102697631678673,-3.730954569851241,0.8965276532061259,-5.467380012067938,-0.08896582460850165,5.3479998808114315,0.82082265907462,-1.256811222832135,5.151371415844089,-1.6786862739161692,-0.1880835797798496,-3.2209771441351345,-1.3179307515800212,-2.963941235341163,-2.7441990995805168,-2.5422279913499004,-0.3418734075889507,-1.85441484002402,2.452003353036831,-0.9924389758912556,0.10114801450018246,-2.1449252267643715,-4.266340392504364,-6.5070195147129954,-5.700978329271783,-3.1696772070655532,1.7489435032880674,-8.57599756292301,11.46750314428593,-5.786995559646919,-1.9672080829790743,-3.0228196597114914,-13.645831317952599,-9.074038942679621,0.35345199717191617,-1.3292224095913412,8.422235858327033,-7.939308733143801,-4.6875073924675155,-5.928441570885529,-1.0683471111111214,0.5989324822051424,-0.6684164973153162,-5.376194200631353,-3.5583152013469537,-0.3558438748262955,-5.529202199917567,-12.230774387135316,-10.545675704591734,7.260799085927797,1.2028519721384916,-6.133263989389106,-7.598945156828671,-26.52740421806978,0.7318234589332544,-16.014496978530843,-6.61578625938793,6.232113562172299,-0.2997367343517043,1.4229925849881937,-36.44458965992728,3.811381629245854,-7.8043384625733765,-7.03819895434731,21.69604104087061,-1.447952696040734,1.8506868461831152,-2.5838938699280516,-23.094069987287952,4.761289927491323,-1.5681968855308308,2.179833875078971,6.899444166040221,2.4598834068470103,-0.45285196824853896,-10.260158047036525,1.8094304580699965,-0.2846461319221725,1.6928976631442627,-5.649300024909556,3.9890139438724557,1.9856464341660256,-5.558002481058518,-15.381096187998828,-1.6845264163611517,0.09780529904618912,8.28273949583194,-18.037820767311604,1.3545348218565962,-16.636768743036104,-1.5902208255214865,-7.843969861215534,-5.153440723614705,-2.1106923716738235,-7.529907748144327,-4.725430330065272,81.07842131078671,-9.244484844273455,2.773178171662404,0.619076673135415,-114.82148269817395,-28.952139168542946,-2.4239562384275413,-0.9013554581368923,-20.990464737564476,-5.246127715131855,2.81467907348668,-16.799224631038545,-6.155177625753824,-7.663051405345717,-49.96336719450097,-11.68745901103106,2.1315805610797676,1.250418449392394,-4.157683048603729,-7.841077170319403,13.915612196387302,-0.6951609999966445,61.98974568526237,-9.92139521226741,-45.17617483724759,-14.875396960538287,-2.6472420692872976,0.6670213210114914,-17.436329352489093,-17.43928202628857,-3.5095467719622246,-10.388429807526093,-2.1125905695453366,-31.62397631072706,-0.6205309149352346,-2.335956708432744,-2.504859676074232,4.0322983436470805,-4.72198158868386,-1.7887289374728315,0.4101003261814816,1.0747991207647032,-0.12599755991571118,-4.431563564303447,-1.211860034310644,-0.32219372564212073,-0.7708169386371656,-1.4101098243043466,4.628624122766551,2.144666447251615,0.3344882121109863,-3.1251897821987993,0.243029378773834,-1.4851380593382522,0.3517257323386613,-0.2739991910850857,1.318193699449236,-0.780046251088358,-0.5603323518570954,-11.918000287481007,-0.16910425572822035,1.8571470515819075,7.465469877672611,-10.166349946609653,1.812020522222202,0.7680398748375371,-1.0806567103099838,-10.913568021221968,-2.938210883977933,-0.753096066343033,-23.932871640688756,-26.248344110950814,-7.287085817615507,-13.094344309003489,-3.923725189549455,7.41867305557427,36.857867681257645,5.708725821082578,2.9177663378320555,-0.1677439395809243,-42.474307308363514,1.6259326067716158,-2.129634945110796,-30.307803133080796,-4.891522683614612,-1.077763026458109,-10.919079024364919,0.44747408302659736,0.21749090688907172,29.302569210918634,0.06482632039619425,-7.099398276532368,6.50715672429649,5.619151497712746,-38.58154309064158,-1.6417484071281028,26.641469062111536,-4.907584320275687,-2.193029372619364,-7.133284827861931,28.572662859515674,-9.086512675569377,-1.3527155853584887,-15.267963225218775,3.4926566457371773,9.359168464088203,-4.938586656315689,-2.638306491303688,-7.918153629394237,7.560506225371313,-6.01160553356888,-8.863401519311973,1.3886417450879425,0.06861316006513714,10.343795008691473,-1.0644313433017558,-2.0440984435725817,-0.14361980323122214,-1.1479143685681763,1.8444843295488647,-7.830370214285047,-7.518845156881128,-17.433510707208047,-9.004845603508082,0.1284061045282372,2.7420692260860866,3.3417884026081097,6.165707711158065,3.6736027945164644,-7.949828804172963,8.008158462425081,10.237024659036544,-0.9925001505116522,-1.1717963761403578,-9.900052558784994,-2.7924397540236154,8.427375268092998,1.2778513320405378,-3.453223778854847,4.546318334876986,-11.971560779637114,13.965248522128565,5.931788121564878,-0.4182144910882247,22.056900634391532,-0.6935135678478738,-2.165132214139025,-2.6442616457010124,-108.703274821353,-1.2613358307845988,2.0176095395075944,-1.5792524545681481,-2.4146293954038613,-1.9732898554421126,0.45930502029703785,-7.904720906738827,-7.568640685061956,-7.544895104621666,-4.889960984398744,-8.62801722462677,0.9606265480099178,-7.4582049785305085,-1.826210206900415,3.791698706007833,12.399840147238256,-7.571240682179762,-25.87038157954711,-2.7409388469611837,-6.147032782805702,23.21885613929046,-2.2213008621709927,-3.579344127142755,-0.9948056964326142,-19.70407569195649,-0.96533969638159,-12.10721544204886,-0.06677544526717193,0.6239542722047774,0.023124884927544335,3.1217034893336737,0.2785102339186358,0.12268432903978231,-0.5727371405981772,-6.811437229439293,-19.60481236629445,3.6976955174148767,4.0239111186713625,-3.7078704887570786,13.324853884280827,-0.2827092059545577,1.2952016616249253,3.428580015597555,-2.796144460967276,-2.1868196994285864,8.57412885575722,1.0022610060541253,0.2484392458229244,1.8376814076171484,1.771083308563315,-1.1635676712748113,0.5193537705150727,-6.7530609719953105,0.5260792404028612,0.20011173307721014,-1.954566660994801,0.46976212360990593,0.04718868057505096,-1.7939216360926562,2.0067085565946177,-12.46631790175577,0.1266623419248641,-0.39918471592885396,1.1755475640378192,0.27197477038293105,-22.838118959769012,-13.040432022420301,-37.609778104995605,-9.323168238961593,-4.504037979373415,4.103783487935163,68.33926071608681,-25.44920780720172,-16.29939478725352,-1.481313909111674,-15.38717003612773,-6.905583096689396,1.7419755680600342,5.461505976449648,5.147350304736451,5.63461280831543,36.72728055719689,8.241119293091575,-0.4144641342104004,34.01452589153561,1.0771692606360534,-11.874956836417383,7.679767606930706,-21.689658010085417,48.30465611911602,-1.1366770618021866,-40.796004897355864,1.1864672085966683,-5.094148904534081,-4.472611845878014,-7.694517262089655,5.592893181788754,0.9692950106560183,5.103166799231868,7.379264014789605,6.357658850393292,-0.49872250961758496,-8.587577197520929,-4.623873565028598,-2.3597760639811467,-3.172174097777436,1.8122842926061435,-3.1021205786902257,-1.6293243999547844,4.536064845409577,-6.86251432731628,-2.963992024007631,-8.511627743913552,-2.008600178352037,-9.063992624224008,-4.474398673758358,14.409019185435954,-2.753399906162617,7.312419668362939,1.9201574469827027,-20.252793924998013,-2.174551163735688,1.8891012818739277,-4.135454692222019,-0.9703328301252472,2.596851070870481,-4.453316444378549,1.0032375258432,-8.852434519873595,-1.4860038988584496,-3.663582266855044,-0.2478370599217519,-3.2157185801624384,6.664111116074889,-4.650864836524096,-4.7153258530588325,-2.0195121547277077,-5.921143056026165,1.7020411453570774,-18.3352047896217,11.254478974788393,1.6466586206999454,-9.036405827299346,-42.8069543356446,-17.295102532078417,-1.955417368654114,-3.8153444400184697,-31.354148259810852,-4.50614486282829,2.8230068025492066,-0.830311488645168,-11.289366503131898,-6.513560895853154,16.60548499913503,-14.01671949303367,1.5585146668255743,-10.099933154753478,5.768020824077905,17.59264368197413,18.846482717423825,19.98691828661328,76.78000415562681,-24.657835236573753,-18.498689964931682,0.2502284731354151,-6.675005439299803,-6.064872031466612,8.524883475114855,-7.990257146594713,-0.18391120403555739,-19.298172272761605,-6.418579521261713,-7.326251911791602,6.616652209039517,0.020171486074249102,6.78851186093182,5.13919396785807,0.1052555723649312,-3.8240672940285596,11.370661900523588,-5.956822092320446,-0.9620867016586591,-0.19646120264371186,-19.959493414782223,0.6219276292676859,1.8138818124144782,-37.717549474665944,-2.8491543446769607,7.080913856002584,-24.7327753526147,-6.508645184759937,-2.9498104378333103,-3.009503436142176,-0.749894428816787,-3.19023803523485,0.7681999367790523,-3.0232442921356135,9.757104259574033,-4.987499331636495,-11.00491563011428,-0.1903803511398709,-0.3494260112398883,-2.710798185539203,3.712475449378992,-23.885233592431018,0.1456557882624156,13.016329342587278,-0.14397143143120478,26.026740654473716,15.854523621564454,-4.249272907789896,-11.317583566262599,5.193178613916236,2.218170077425995,-15.221188356275476,13.88763448944214,-30.253237006513103,-26.202450584727213,3.146434129110046,-42.10214139415243,4.027121882410351,7.969152636417751,3.9043844762758204,-5.971769387958608,5.1378107045188335,0.2559489218985377,-19.624556437738427,0.4237353858378184,10.61510899826676,-4.489407042713783,-17.27795329429129,17.31469460478439,-14.22432239636814,-23.860840628729086,-2.28194678277097,-3.4183733649220036,-4.92966175101205,-10.08560332308388,5.122138489673452,-9.61630847487726,-11.559610898281647,-1.7235941855311248,-0.11058618155568736,-8.604310423680287,-6.702852222536827,6.689550963431557,2.4253724573335353,-2.685297200572546,-12.630858750130045,-3.1471714905910573,-1.0149043122369121,4.691324835777197,0.699632025209511,2.7940231340551,-2.305621680212852,-0.5593060612627572,2.8943113126258573,-0.8145459466552214,5.137014066252445,-4.523358953883779,-7.3543859616711,-1.8946426531801124,-3.11359903375858,1.3037910613677557,4.7828952202617385,1.0092127998344766,2.0251229835119267,-1.3586018728774658,3.2043684713770033,11.299427059895631,-1.7151329444974446,-1.0271059504084161,-4.494319886554238,-0.35843339313464,-0.4401662351626263,-17.238260207538598,-2.477323166503729,-5.79777107994233,17.481470370704955,-4.044969928405852,0.08369687000923097,-4.942455446965798,-2.948081122554137,-7.584417722074294,-7.919361515302378,0.41267931370287403,-15.913742079879835,11.823517604150073,-0.4452919768211082,-5.249552135243454,-9.317995598990871,-19.66432385458335,-13.818306775144569,2.5748972520318674,4.86497550671081,-8.82639207822592,-12.494858038600775,-5.3761027108953305,-8.918484851641082,0.21269181060299694,-6.899509373995493,1.2448925316444892,-2.781684143534026,10.572739728187642,-10.480114794118583,-8.133672214198993,-10.629393863941743,-11.537443390583148,-5.884989406010103,-1.5840646468673933,-7.456399584148927,-10.508525790800968,-33.90083007483015,-3.000549051926529,-6.652238127646583,-4.789911504036581,6.886890537097371,1.257898552527268,-9.657826094577807,7.8364627877332715,0.1078206790178972,-3.132031299555603,2.983204148701137,20.692781989617142,-2.8833742560817015,7.160549374880218,-2.6926885579670397,-20.375073487686024,-1.2259700301127863,-0.3105185261571281,-19.048894203093766,-2.2862492956192764,3.8761301906299503,-26.116111212170875,-6.054580801124492,1.968027622131793,-2.1499982421822197,-6.9803636617483225,2.620352019696355,8.25786700915699,-8.242139292864808,-11.09431523256894,-5.098392956972213,-10.656298220185796,-0.09553965506043818,0.3610703113954085,-1.6813088148243158,-27.975430794186583,-23.37747817323633,-5.873760408476634,4.160323123281795,-7.612257538281055,5.959403537172429,-2.6715581067363643,1.8073674100913955,47.128663406135594,5.6950842323280835,1.5978400978879606,-1.6580679627974773,-139.67781610412442,-2.1725887004018554,-2.302630794070525,-4.086837752379247,-5.60704566119761,-2.2955129121510316,4.045881885450162,4.72283615649844,-2.568161669358558,-4.064903314854747,-7.162783332831346,25.760573857939125,4.579323610456078,6.872883655190349,-1.2013381408337054,-2.4161626542142147,-0.19701044319325242,-2.86702202627471,-26.805730975296154,-2.0956219796773987,-3.771393339502407,-0.6624332154920572,-1.8640245009455096,-2.390627902158187,0.7293316636519332,-6.561652607925341,-4.996602190745407,-2.597960649791393,-3.21652250003996,2.316494415702618,1.3591045345985546,-1.516301765510618,3.373730169773501,0.4860038943128646,-2.137152544102966,-6.406458540868665,8.098914442951648,3.326193041831599,-1.3500233573395108,-6.505468497831364,-22.05535302457924,-6.438169393524498,3.1372555052135804,3.158494636151783,5.571757337218754,0.5079355063737968,0.14367573413266546,-2.0076204126194677,1.99233276594025,-0.7282877775403245,-2.2148630115014334,-2.2737028266949815,0.4555005317191343,1.1576772016467793,38.61108037423734,0.2873522060190783,-1.2588245167977037,3.484123327983517,-0.8458439479247686,-6.879561255961256,0.06622090910011551,-9.539660833528128,-0.2420645882532137,-2.158425666496438,3.6222262693014566,-0.10357544362224193,0.9995095780148306,-1.6890927229304329,1.051651291008516,4.8652261128228025,-1.2402083087000224,-0.759521662735418,-25.444368444916513,-1.8231772648285796,2.9803981301455313,0.9566855658853762,-7.066732158712835,-0.35420611094260535,-0.8005272543372604,-6.410914160923459,4.295999196755945,-0.01215049459325456,-3.254482243109841,14.342662456165066,1.068520295680998,-0.1683784397582391,-5.04025493405189,1.797297748865337,-1.113956798372635,4.641732008464078,12.145190478744192,1.5206967977366617,-0.35326632106544387,0.17206985136686537,-1.4076671412202226,-2.209162781850423,-9.381597736301662,10.274674588163332,-2.5710767196639495,-0.7928479892260673,1.1423950682984108,0.3171127016106956,-8.100950918422926,-4.805579558727122,-10.357314383228829,-9.601120471767151,-2.92076071443904,-6.142417784205117,11.353644573396112,-1.7298071406296853,0.22927830791622278,-5.844302418295868,-22.51502329089154,-7.905389164978727,1.5078320659180664,-7.988509646323352E-05,-11.290568220290682,-13.710045555693235,-0.44499986972729183,-2.1538195831583367,-0.31843203995000463,4.419420382113675,0.783808640796889,-4.926708980119378,3.4764286036953886,-10.798047183574674,1.1077878063912219,-11.264004432603677,-16.54027325785098,-5.791532957691698,-4.393565713393288,-11.388549058702635,-18.741601165435252,-28.359890344714515,1.3681576736719532,-17.951055038584506,-10.882477781061173,2.8187071952719056,3.2388490912227694,-2.112384000698126,57.745260460394405,5.735851126763028,0.5031987285466387,6.3959321234936715,-87.23287956452127,-6.738959151960797,0.12873714034137088,4.225398721134521,-12.51123682133718,2.562975322711851,-3.26018204976709,4.763089645921547,13.965051955480053,10.293920121684925,-42.68625448807444,-5.726003083859507,-0.8574472985644026,13.491356532459012,-6.5503261577945775,-0.5721900683975989,-6.30246681590228,12.5592493256801,-36.48722908532931,6.343576294929707,21.687639725151573,10.153565798188668,-1.941890865536318,9.465018962089804,2.3484093156075514,14.369927332881645,-0.7323017958987847,14.732783215606979,6.708061443877396,-4.635354137776476,-0.33326092071532254,3.4891829960184,0.8818158007969156,0.9444796917822577,-0.6965143660356384,1.0348141927853642,0.5894634276187908,1.80709147089005,-3.3315512921985184,-1.7638983402581738,-3.2252283534102375,0.626702929483227,5.182751656808248,1.605363375206179,1.3616181464481787,-2.7046197789412436,1.2079264942294157,-0.5067812591895501,1.0202571409879113,2.892656235700268,-0.9574991418250202,-7.4172045530971635,0.10911692271032503,-0.7927255585919697,2.8358518385469513,0.0667038625935298,-3.2294368960266873,-3.720761364003966,1.235726388774504,0.8892198804616077,-7.242165223660674,-3.67107625993947,1.64985265296458,-0.49462844332388295,1.8631975099024225,1.514513601026699,8.52665638027959,-0.5041312423011692,-11.774023812967672,3.561661425843935,-4.779746508895015,-15.606682908966937,-0.29132792178993244,-8.88678720225334,-4.207599167616286,-0.2753729925121495,-2.804930641397762,4.025254628636365,4.2090500834292435,-23.167519391987632,-11.678039322163066,-13.429154543471128,7.404706909641818,-0.9518795510889543,-0.20359496705520955,-12.503562234428886,-7.641573574105613,-4.96425512501138,9.058500258162278,-26.13705463021236,-27.62325919048376,-10.514653562189137,-2.380716631113631,6.925103406450281,-8.12661145417475,0.34935550638639395,39.34605287354474,-5.4799771548385126,-0.5219685486764335,7.457115819932484,-20.396328253553726,15.621678056251081],"Storage":{"Data":[2.7552164819164586,5.166604678996909,12.906129497903837,1.0787717866118,-5.629818217748709,14.88910282601508,83.71324655597404,-34.563959753621155,-24.44309310928949,1.5270345720339424,-21.101487960629438,-0.04153999509242882,1.3910760076424635,-5.730775089552796,12.8727609031569,-12.145136704886653,-21.492731349340126,1.273258396265789,-0.2509867132627434,-28.7259264447067,-3.5572684174248743,-23.082673899939195,-4.095458826311964,-22.061675393733616,-118.99701615645765,18.45909328039849,-6.449035530408455,-3.740381404020883,3.3235183930859145,-5.525728882982381,1.4648095628442244,11.76703271557074,1.4605445530505283,5.9471555903281,2.759572927717847,-3.1588522467555586,4.8390342255857295,-3.13239645134588,-12.652416429383933,-3.056013044265126,-1.710418330583298,-12.171315097891632,-6.70184703179212,8.951186240771682,-0.3397791935721715,2.7971970361420615,-29.572419685823554,-0.1188782370050615,-0.8712204650281424,-0.9116819916043566,-15.081346807382992,-12.0430018244309,-9.23530680744152,-11.604253924786171,-1.2388602138399594,3.169239362497678,-0.33638357814886105,3.1026855090254695,7.025082125546517,7.205150526072698,-74.19505261463583,-2.38164861563438,26.84398564649859,-6.1648826569865935,-3.592978104429967,-7.167107613857572,-0.03439402922775603,-30.040523804785405,-2.772961635755161,-0.22713662736172058,-11.002204966932728,6.131563428105764,-0.7518634807802649,-4.342283764457199,5.76938283960811,1.8852900049512527,3.564311640147571,-3.0671951140012843,0.13427233142878497,4.9566507144252965,0.48569358233152005,3.2919895795343512,0.8166296537760054,5.771372735771373,1.2982906083042853,-13.744368981637994,6.443204861862088,2.1390772538031246,8.175824437565145,-7.701617856999653,-3.9563473688150133,-1.0364446484072198,-0.3924556254515443,1.4357844277218441,-4.933239219661097,4.326511674074485,11.594132807250311,3.9466553886930744,2.948797712681767,-2.6448605273537686,1.5317241940073412,0.9197869746810691,-0.9419051917227131,4.658773458423662,8.419365837070256,2.9790033398149105,0.6167096432615611,-0.5254260238800308,-1.2191799459369468,-9.699950891731262,-5.6243106706021955,-7.755123259863421,3.4277230264978398,-8.323428876231633,2.707117467596272,-0.7285408392214966,-11.764890361843843,-2.613754458241881,-3.485240427593824,-5.009133332449584,6.113868487883475,1.065292913714528,-5.428828540004237,-11.969773696303479,4.841064850117862,7.539272267798111,-4.000477863743569,8.342074153929143,-7.243761157423135,-5.0932570825935235,3.32715319999623,-2.444180564048347,12.688436221397364,-9.467347496872176,-0.8714393874613374,-6.385378169270462,5.993338196155808,-1.2328361701889254,-14.296844712850879,-1.2214916315508049,-5.958240456125102,-6.848958298020529,-6.191890275580787,2.687811164151239,0.12323979828446936,0.7708471105327839,-5.683764853640158,-0.20673437829007157,-5.33837531717572,-4.518294173549194,0.8026861948956128,-1.0965516379770766,3.1956589323527322,1.5087450202667911,0.6161648148994783,-1.0093104274316402,-1.2406986980549217,-4.768696349075015,3.708409518800179,-0.18515445755550355,0.14536185404147045,0.6187382698192927,-1.1656426652171143,-5.789117694515451,-0.07325723715211284,-1.3165279269684553,1.2887564640902642,-0.9455451151924033,-0.28909045714852855,0.17585200464263048,1.5422579399698697,1.2714466829029156,-5.26019304124702,-0.7512340463379125,1.043536725817392,1.5523186601384766,1.650317175822869,-3.300869286860278,-0.16868366648380662,-0.36674820541592074,-6.914367450651998,-1.4602571396346704,-5.490197587751564,-10.221758408703245,-2.409874695739417,-7.481898196924397,11.885489207169552,-3.935633178381505,1.5699399064730908,-3.3390029797249663,-19.837061642372635,-6.7734567866210975,2.8944059118095544,1.6899117439289018,-8.96817945530744,-15.206997135222268,-1.2617256933344851,-3.1545395321319543,-0.2050507976049921,6.163653065857285,0.001692091889218567,-4.811911959916821,1.173707826887885,-11.039933646503087,-1.9727770129666133,-7.077791235892592,-13.548329861005232,-3.2820342317655427,-0.04168712297766459,-11.257512923758142,-13.507381443141675,-25.58450643685629,0.16389346837306223,-15.146613583888453,-8.489201894968044,3.004199635012627,0.9355414025739345,0.902003567475872,1.368405268355858,0.16323691727665413,1.0511191850440982,0.8039238790706328,0.8329248585020051,0.9203754085826164,0.8307500401084271,0.48569670549906035,1.0721080914624206,0.8875965752514433,0.6711916977955891,0.7553118019008881,0.4939164718906452,0.1918117268578926,0.6479051941864169,0.8696733946439161,-2.134983471529607,0.6986820638925346,1.1913354497663078,1.06510148641284,0.5238913286783443,-0.31326834539792897,0.5702390887147472,0.5455851178549219,0.7676478774894059,0.8774991791443183,0.9674267545519054,0.548919203438128,0.8191505947840887,1.0229609845355547,0.37770720654667017,0.5589943569009477,0.6936737910515377,0.7800229243510981,-4.303283108619446,7.474303914033992,-122.14846753499255,-5.643993497724888,-7.083590057893753,9.123318547543079,75.79725905064447,27.875764186226274,6.95739505894462,3.105024852068585,3.31090661458995,-3.0961462243367657,0.08022907787742238,18.28843711425404,10.61577861190461,12.127497124328237,57.594014125556704,26.259600918736453,-1.157487004591448,-23.64159986332592,2.419651903155373,8.870110302704665,2.870081498998053,14.891751189699459,31.713700948785384,-12.160542491440909,29.070314102484723,-6.94205577034498,-16.59516767580619,10.757240859459683,13.43400484506931,7.672420391612222,3.4421962566237783,2.3333013708948016,10.909399216210169,35.98921299484683,0.0035119143755886107,16.428399405052204,-5.81066098505296,-4.171873961633863,0.8298509249130389,-3.7889155071207763,-1.149851836325526,0.4505056645523862,-3.8237858938953657,0.07038578116962847,0.26671202028714996,-3.0680598420942107,1.8063409951274272,-2.638592613857155,0.273454261632989,-6.25180358008909,-1.8675585232462586,3.488908638883895,1.9434867797172581,-8.900828827694198,-1.8744498815112267,6.147799085799168,0.73518794773855,-14.783829912178518,11.23696694906806,-6.03274877478341,0.8654412520045985,-1.5555387992548497,-0.47112069989116706,-2.9533493255198198,11.055061979769464,-5.768368598924007,7.068072717815267,-8.241786508298091,-8.703421388182301,0.988619910707188,-7.709117706550799,-4.836193900763748,-12.927681179155524,-7.641191021498637,-4.750863287055059,-8.181973979515409,12.688836677138829,-4.140865149353147,4.908997372389674,-2.905107476353121,-24.525332662342294,-10.575657267880196,1.7202903004474472,-1.5346813215104818,-10.096265200680019,-14.132911986827333,0.06996369046221221,-3.474508060360125,-0.6705447536791301,5.310104745002131,-3.591930786263793,-3.76714037400736,2.371950452971527,-12.068725929709982,1.4526238285889146,-6.737598843748561,-12.945141360655409,-2.3693870692822268,-4.868121391727114,-9.873618065721203,-16.02408180869736,-28.316352265509387,-0.21706873271046367,-13.936024859110299,-7.72321116151125,2.3362193274748386,-1.4497909904750275,1.6306887754493873,11.135859224853295,-3.741043203051708,5.83297862571135,-0.11268368680187199,53.4516911802576,1.2103241021818054,0.7007786411627115,-0.12759509418707213,12.404137372166032,1.269896214386075,0.15445662217749342,1.9872276277157541,-0.08977607112409881,-2.8290773116499426,-0.8081545853906404,-11.46389735747228,0.7701112786722224,0.7641835215778515,3.1011802667157005,6.066443764653578,-0.5160806708929031,1.5402371868655478,-27.144280671518683,-2.247831712904654,-0.8828191769441617,-0.4435707689083193,2.0550173864647974,12.465622972869966,-5.747415244243401,-12.937970837389582,-0.5041046956039374,-1.240244804289529,-0.44369909715545547,-0.15509264224518995,-1.1707108900213292,14.27457590466722,-14.233725694139125,2.42300156764357,-1.2695836104288793,1.6443004989990717,6.490078534430342,17.648516752024992,-17.661815078176758,-1.8803034380814778,-14.967195627312044,-3.289967245384073,3.741744726852129,-36.04979631558172,-4.076471204846695,-9.687242351036012,17.308527478309838,-9.463423199406376,-0.14820938580062412,33.829564074826116,-4.84741048643639,-5.858255092202417,-18.32879250487498,-9.2506115561778,-3.9039116498069775,2.22111329356294,0.9091077131800882,-0.371380108839566,-2.670398100406618,-3.841206792393109,2.650605644898612,-23.46510070521001,1.570496933928366,-5.112690474935023,6.613852938579029,-5.095202970578867,-0.7966701001560658,2.154090785357758,-0.9819033335690026,-6.306264049624452,-2.5571144732866755,2.3326858184199843,-3.8377522147953993,0.3574808168162158,4.6625558893255405,-1.1187255226210855,-0.49159137321746316,6.2730558181749485,0.7818977392835941,8.671752521927688,-7.102697631678673,-3.730954569851241,0.8965276532061259,-5.467380012067938,-0.08896582460850165,5.3479998808114315,0.82082265907462,-1.256811222832135,5.151371415844089,-1.6786862739161692,-0.1880835797798496,-3.2209771441351345,-1.3179307515800212,-2.963941235341163,-2.7441990995805168,-2.5422279913499004,-0.3418734075889507,-1.85441484002402,2.452003353036831,-0.9924389758912556,0.10114801450018246,-2.1449252267643715,-4.266340392504364,-6.5070195147129954,-5.700978329271783,-3.1696772070655532,1.7489435032880674,-8.57599756292301,11.46750314428593,-5.786995559646919,-1.9672080829790743,-3.0228196597114914,-13.645831317952599,-9.074038942679621,0.35345199717191617,-1.3292224095913412,8.422235858327033,-7.939308733143801,-4.6875073924675155,-5.928441570885529,-1.0683471111111214,0.5989324822051424,-0.6684164973153162,-5.376194200631353,-3.5583152013469537,-0.3558438748262955,-5.529202199917567,-12.230774387135316,-10.545675704591734,7.260799085927797,1.2028519721384916,-6.133263989389106,-7.598945156828671,-26.52740421806978,0.7318234589332544,-16.014496978530843,-6.61578625938793,6.232113562172299,-0.2997367343517043,1.4229925849881937,-36.44458965992728,3.811381629245854,-7.8043384625733765,-7.03819895434731,21.69604104087061,-1.447952696040734,1.8506868461831152,-2.5838938699280516,-23.094069987287952,4.761289927491323,-1.5681968855308308,2.179833875078971,6.899444166040221,2.4598834068470103,-0.45285196824853896,-10.260158047036525,1.8094304580699965,-0.2846461319221725,1.6928976631442627,-5.649300024909556,3.9890139438724557,1.9856464341660256,-5.558002481058518,-15.381096187998828,-1.6845264163611517,0.09780529904618912,8.28273949583194,-18.037820767311604,1.3545348218565962,-16.636768743036104,-1.5902208255214865,-7.843969861215534,-5.153440723614705,-2.1106923716738235,-7.529907748144327,-4.725430330065272,81.07842131078671,-9.244484844273455,2.773178171662404,0.619076673135415,-114.82148269817395,-28.952139168542946,-2.4239562384275413,-0.9013554581368923,-20.990464737564476,-5.246127715131855,2.81467907348668,-16.799224631038545,-6.155177625753824,-7.663051405345717,-49.96336719450097,-11.68745901103106,2.1315805610797676,1.250418449392394,-4.157683048603729,-7.841077170319403,13.915612196387302,-0.6951609999966445,61.98974568526237,-9.92139521226741,-45.17617483724759,-14.875396960538287,-2.6472420692872976,0.6670213210114914,-17.436329352489093,-17.43928202628857,-3.5095467719622246,-10.388429807526093,-2.1125905695453366,-31.62397631072706,-0.6205309149352346,-2.335956708432744,-2.504859676074232,4.0322983436470805,-4.72198158868386,-1.7887289374728315,0.4101003261814816,1.0747991207647032,-0.12599755991571118,-4.431563564303447,-1.211860034310644,-0.32219372564212073,-0.7708169386371656,-1.4101098243043466,4.628624122766551,2.144666447251615,0.3344882121109863,-3.1251897821987993,0.243029378773834,-1.4851380593382522,0.3517257323386613,-0.2739991910850857,1.318193699449236,-0.780046251088358,-0.5603323518570954,-11.918000287481007,-0.16910425572822035,1.8571470515819075,7.465469877672611,-10.166349946609653,1.812020522222202,0.7680398748375371,-1.0806567103099838,-10.913568021221968,-2.938210883977933,-0.753096066343033,-23.932871640688756,-26.248344110950814,-7.287085817615507,-13.094344309003489,-3.923725189549455,7.41867305557427,36.857867681257645,5.708725821082578,2.9177663378320555,-0.1677439395809243,-42.474307308363514,1.6259326067716158,-2.129634945110796,-30.307803133080796,-4.891522683614612,-1.077763026458109,-10.919079024364919,0.44747408302659736,0.21749090688907172,29.302569210918634,0.06482632039619425,-7.099398276532368,6.50715672429649,5.619151497712746,-38.58154309064158,-1.6417484071281028,26.641469062111536,-4.907584320275687,-2.193029372619364,-7.133284827861931,28.572662859515674,-9.086512675569377,-1.3527155853584887,-15.267963225218775,3.4926566457371773,9.359168464088203,-4.938586656315689,-2.638306491303688,-7.918153629394237,7.560506225371313,-6.01160553356888,-8.863401519311973,1.3886417450879425,0.06861316006513714,10.343795008691473,-1.0644313433017558,-2.0440984435725817,-0.14361980323122214,-1.1479143685681763,1.8444843295488647,-7.830370214285047,-7.518845156881128,-17.433510707208047,-9.004845603508082,0.1284061045282372,2.7420692260860866,3.3417884026081097,6.165707711158065,3.6736027945164644,-7.949828804172963,8.008158462425081,10.237024659036544,-0.9925001505116522,-1.1717963761403578,-9.900052558784994,-2.7924397540236154,8.427375268092998,1.2778513320405378,-3.453223778854847,4.546318334876986,-11.971560779637114,13.965248522128565,5.931788121564878,-0.4182144910882247,22.056900634391532,-0.6935135678478738,-2.165132214139025,-2.6442616457010124,-108.703274821353,-1.2613358307845988,2.0176095395075944,-1.5792524545681481,-2.4146293954038613,-1.9732898554421126,0.45930502029703785,-7.904720906738827,-7.568640685061956,-7.544895104621666,-4.889960984398744,-8.62801722462677,0.9606265480099178,-7.4582049785305085,-1.826210206900415,3.791698706007833,12.399840147238256,-7.571240682179762,-25.87038157954711,-2.7409388469611837,-6.147032782805702,23.21885613929046,-2.2213008621709927,-3.579344127142755,-0.9948056964326142,-19.70407569195649,-0.96533969638159,-12.10721544204886,-0.06677544526717193,0.6239542722047774,0.023124884927544335,3.1217034893336737,0.2785102339186358,0.12268432903978231,-0.5727371405981772,-6.811437229439293,-19.60481236629445,3.6976955174148767,4.0239111186713625,-3.7078704887570786,13.324853884280827,-0.2827092059545577,1.2952016616249253,3.428580015597555,-2.796144460967276,-2.1868196994285864,8.57412885575722,1.0022610060541253,0.2484392458229244,1.8376814076171484,1.771083308563315,-1.1635676712748113,0.5193537705150727,-6.7530609719953105,0.5260792404028612,0.20011173307721014,-1.954566660994801,0.46976212360990593,0.04718868057505096,-1.7939216360926562,2.0067085565946177,-12.46631790175577,0.1266623419248641,-0.39918471592885396,1.1755475640378192,0.27197477038293105,-22.838118959769012,-13.040432022420301,-37.609778104995605,-9.323168238961593,-4.504037979373415,4.103783487935163,68.33926071608681,-25.44920780720172,-16.29939478725352,-1.481313909111674,-15.38717003612773,-6.905583096689396,1.7419755680600342,5.461505976449648,5.147350304736451,5.63461280831543,36.72728055719689,8.241119293091575,-0.4144641342104004,34.01452589153561,1.0771692606360534,-11.874956836417383,7.679767606930706,-21.689658010085417,48.30465611911602,-1.1366770618021866,-40.796004897355864,1.1864672085966683,-5.094148904534081,-4.472611845878014,-7.694517262089655,5.592893181788754,0.9692950106560183,5.103166799231868,7.379264014789605,6.357658850393292,-0.49872250961758496,-8.587577197520929,-4.623873565028598,-2.3597760639811467,-3.172174097777436,1.8122842926061435,-3.1021205786902257,-1.6293243999547844,4.536064845409577,-6.86251432731628,-2.963992024007631,-8.511627743913552,-2.008600178352037,-9.063992624224008,-4.474398673758358,14.409019185435954,-2.753399906162617,7.312419668362939,1.9201574469827027,-20.252793924998013,-2.174551163735688,1.8891012818739277,-4.135454692222019,-0.9703328301252472,2.596851070870481,-4.453316444378549,1.0032375258432,-8.852434519873595,-1.4860038988584496,-3.663582266855044,-0.2478370599217519,-3.2157185801624384,6.664111116074889,-4.650864836524096,-4.7153258530588325,-2.0195121547277077,-5.921143056026165,1.7020411453570774,-18.3352047896217,11.254478974788393,1.6466586206999454,-9.036405827299346,-42.8069543356446,-17.295102532078417,-1.955417368654114,-3.8153444400184697,-31.354148259810852,-4.50614486282829,2.8230068025492066,-0.830311488645168,-11.289366503131898,-6.513560895853154,16.60548499913503,-14.01671949303367,1.5585146668255743,-10.099933154753478,5.768020824077905,17.59264368197413,18.846482717423825,19.98691828661328,76.78000415562681,-24.657835236573753,-18.498689964931682,0.2502284731354151,-6.675005439299803,-6.064872031466612,8.524883475114855,-7.990257146594713,-0.18391120403555739,-19.298172272761605,-6.418579521261713,-7.326251911791602,6.616652209039517,0.020171486074249102,6.78851186093182,5.13919396785807,0.1052555723649312,-3.8240672940285596,11.370661900523588,-5.956822092320446,-0.9620867016586591,-0.19646120264371186,-19.959493414782223,0.6219276292676859,1.8138818124144782,-37.717549474665944,-2.8491543446769607,7.080913856002584,-24.7327753526147,-6.508645184759937,-2.9498104378333103,-3.009503436142176,-0.749894428816787,-3.19023803523485,0.7681999367790523,-3.0232442921356135,9.757104259574033,-4.987499331636495,-11.00491563011428,-0.1903803511398709,-0.3494260112398883,-2.710798185539203,3.712475449378992,-23.885233592431018,0.1456557882624156,13.016329342587278,-0.14397143143120478,26.026740654473716,15.854523621564454,-4.249272907789896,-11.317583566262599,5.193178613916236,2.218170077425995,-15.221188356275476,13.88763448944214,-30.253237006513103,-26.202450584727213,3.146434129110046,-42.10214139415243,4.027121882410351,7.969152636417751,3.9043844762758204,-5.971769387958608,5.1378107045188335,0.2559489218985377,-19.624556437738427,0.4237353858378184,10.61510899826676,-4.489407042713783,-17.27795329429129,17.31469460478439,-14.22432239636814,-23.860840628729086,-2.28194678277097,-3.4183733649220036,-4.92966175101205,-10.08560332308388,5.122138489673452,-9.61630847487726,-11.559610898281647,-1.7235941855311248,-0.11058618155568736,-8.604310423680287,-6.702852222536827,6.689550963431557,2.4253724573335353,-2.685297200572546,-12.630858750130045,-3.1471714905910573,-1.0149043122369121,4.691324835777197,0.699632025209511,2.7940231340551,-2.305621680212852,-0.5593060612627572,2.8943113126258573,-0.8145459466552214,5.137014066252445,-4.523358953883779,-7.3543859616711,-1.8946426531801124,-3.11359903375858,1.3037910613677557,4.7828952202617385,1.0092127998344766,2.0251229835119267,-1.3586018728774658,3.2043684713770033,11.299427059895631,-1.7151329444974446,-1.0271059504084161,-4.494319886554238,-0.35843339313464,-0.4401662351626263,-17.238260207538598,-2.477323166503729,-5.79777107994233,17.481470370704955,-4.044969928405852,0.08369687000923097,-4.942455446965798,-2.948081122554137,-7.584417722074294,-7.919361515302378,0.41267931370287403,-15.913742079879835,11.823517604150073,-0.4452919768211082,-5.249552135243454,-9.317995598990871,-19.66432385458335,-13.818306775144569,2.5748972520318674,4.86497550671081,-8.82639207822592,-12.494858038600775,-5.3761027108953305,-8.918484851641082,0.21269181060299694,-6.899509373995493,1.2448925316444892,-2.781684143534026,10.572739728187642,-10.480114794118583,-8.133672214198993,-10.629393863941743,-11.537443390583148,-5.884989406010103,-1.5840646468673933,-7.456399584148927,-10.508525790800968,-33.90083007483015,-3.000549051926529,-6.652238127646583,-4.789911504036581,6.886890537097371,1.257898552527268,-9.657826094577807,7.8364627877332715,0.1078206790178972,-3.132031299555603,2.983204148701137,20.692781989617142,-2.8833742560817015,7.160549374880218,-2.6926885579670397,-20.375073487686024,-1.2259700301127863,-0.3105185261571281,-19.048894203093766,-2.2862492956192764,3.8761301906299503,-26.116111212170875,-6.054580801124492,1.968027622131793,-2.1499982421822197,-6.9803636617483225,2.620352019696355,8.25786700915699,-8.242139292864808,-11.09431523256894,-5.098392956972213,-10.656298220185796,-0.09553965506043818,0.3610703113954085,-1.6813088148243158,-27.975430794186583,-23.37747817323633,-5.873760408476634,4.160323123281795,-7.612257538281055,5.959403537172429,-2.6715581067363643,1.8073674100913955,47.128663406135594,5.6950842323280835,1.5978400978879606,-1.6580679627974773,-139.67781610412442,-2.1725887004018554,-2.302630794070525,-4.086837752379247,-5.60704566119761,-2.2955129121510316,4.045881885450162,4.72283615649844,-2.568161669358558,-4.064903314854747,-7.162783332831346,25.760573857939125,4.579323610456078,6.872883655190349,-1.2013381408337054,-2.4161626542142147,-0.19701044319325242,-2.86702202627471,-26.805730975296154,-2.0956219796773987,-3.771393339502407,-0.6624332154920572,-1.8640245009455096,-2.390627902158187,0.7293316636519332,-6.561652607925341,-4.996602190745407,-2.597960649791393,-3.21652250003996,2.316494415702618,1.3591045345985546,-1.516301765510618,3.373730169773501,0.4860038943128646,-2.137152544102966,-6.406458540868665,8.098914442951648,3.326193041831599,-1.3500233573395108,-6.505468497831364,-22.05535302457924,-6.438169393524498,3.1372555052135804,3.158494636151783,5.571757337218754,0.5079355063737968,0.14367573413266546,-2.0076204126194677,1.99233276594025,-0.7282877775403245,-2.2148630115014334,-2.2737028266949815,0.4555005317191343,1.1576772016467793,38.61108037423734,0.2873522060190783,-1.2588245167977037,3.484123327983517,-0.8458439479247686,-6.879561255961256,0.06622090910011551,-9.539660833528128,-0.2420645882532137,-2.158425666496438,3.6222262693014566,-0.10357544362224193,0.9995095780148306,-1.6890927229304329,1.051651291008516,4.8652261128228025,-1.2402083087000224,-0.759521662735418,-25.444368444916513,-1.8231772648285796,2.9803981301455313,0.9566855658853762,-7.066732158712835,-0.35420611094260535,-0.8005272543372604,-6.410914160923459,4.295999196755945,-0.01215049459325456,-3.254482243109841,14.342662456165066,1.068520295680998,-0.1683784397582391,-5.04025493405189,1.797297748865337,-1.113956798372635,4.641732008464078,12.145190478744192,1.5206967977366617,-0.35326632106544387,0.17206985136686537,-1.4076671412202226,-2.209162781850423,-9.381597736301662,10.274674588163332,-2.5710767196639495,-0.7928479892260673,1.1423950682984108,0.3171127016106956,-8.100950918422926,-4.805579558727122,-10.357314383228829,-9.601120471767151,-2.92076071443904,-6.142417784205117,11.353644573396112,-1.7298071406296853,0.22927830791622278,-5.844302418295868,-22.51502329089154,-7.905389164978727,1.5078320659180664,-7.988509646323352E-05,-11.290568220290682,-13.710045555693235,-0.44499986972729183,-2.1538195831583367,-0.31843203995000463,4.419420382113675,0.783808640796889,-4.926708980119378,3.4764286036953886,-10.798047183574674,1.1077878063912219,-11.264004432603677,-16.54027325785098,-5.791532957691698,-4.393565713393288,-11.388549058702635,-18.741601165435252,-28.359890344714515,1.3681576736719532,-17.951055038584506,-10.882477781061173,2.8187071952719056,3.2388490912227694,-2.112384000698126,57.745260460394405,5.735851126763028,0.5031987285466387,6.3959321234936715,-87.23287956452127,-6.738959151960797,0.12873714034137088,4.225398721134521,-12.51123682133718,2.562975322711851,-3.26018204976709,4.763089645921547,13.965051955480053,10.293920121684925,-42.68625448807444,-5.726003083859507,-0.8574472985644026,13.491356532459012,-6.5503261577945775,-0.5721900683975989,-6.30246681590228,12.5592493256801,-36.48722908532931,6.343576294929707,21.687639725151573,10.153565798188668,-1.941890865536318,9.465018962089804,2.3484093156075514,14.369927332881645,-0.7323017958987847,14.732783215606979,6.708061443877396,-4.635354137776476,-0.33326092071532254,3.4891829960184,0.8818158007969156,0.9444796917822577,-0.6965143660356384,1.0348141927853642,0.5894634276187908,1.80709147089005,-3.3315512921985184,-1.7638983402581738,-3.2252283534102375,0.626702929483227,5.182751656808248,1.605363375206179,1.3616181464481787,-2.7046197789412436,1.2079264942294157,-0.5067812591895501,1.0202571409879113,2.892656235700268,-0.9574991418250202,-7.4172045530971635,0.10911692271032503,-0.7927255585919697,2.8358518385469513,0.0667038625935298,-3.2294368960266873,-3.720761364003966,1.235726388774504,0.8892198804616077,-7.242165223660674,-3.67107625993947,1.64985265296458,-0.49462844332388295,1.8631975099024225,1.514513601026699,8.52665638027959,-0.5041312423011692,-11.774023812967672,3.561661425843935,-4.779746508895015,-15.606682908966937,-0.29132792178993244,-8.88678720225334,-4.207599167616286,-0.2753729925121495,-2.804930641397762,4.025254628636365,4.2090500834292435,-23.167519391987632,-11.678039322163066,-13.429154543471128,7.404706909641818,-0.9518795510889543,-0.20359496705520955,-12.503562234428886,-7.641573574105613,-4.96425512501138,9.058500258162278,-26.13705463021236,-27.62325919048376,-10.514653562189137,-2.380716631113631,6.925103406450281,-8.12661145417475,0.34935550638639395,39.34605287354474,-5.4799771548385126,-0.5219685486764335,7.457115819932484,-20.396328253553726,15.621678056251081],"RowCount":36,"ColumnCount":36},"ColumnCount":36,"RowCount":36},{"Values":[-3.6498183007762646,-11.932460350973821,-3.117213609697295,-1.3323366660886895,-3.167249856516913,5.29017358245206,-5.322040920872845,-3.4866126687586845,-3.664637939018557,-3.205722415199398,-1.495751517865244,-4.044728497561741,-1.5758310012699073,-1.9305083572619317,-6.597825967490664,-3.1078331511995367,4.522161426712156,-0.36660711235187465,22.414161892247236,-1.7814773525798477,-23.82163601775341,-7.504354503815333,-0.9475869209718903,-4.662483371399514,-15.357396453741885,-2.0782502381547574,-7.187088693650232,-25.17333356267589,-6.562714055373325,-4.172411602653449,16.24692744217464,-8.167109206820253,-8.961184715062435,-6.4014326033673346,-0.6179917679514049,-9.538385548620491,3.7981687867457454,-0.9152329033060747,-0.1945907071492651,-2.073296766093671,1.6327701155946759,-3.111854270653165,-1.8175698958315167,-2.5230590103596158,0.2778744692483174,-15.581357717798813,-8.679342243566927,-1.0588268890551173,3.9362858252770376,-7.112539643850401,-6.508218472661447,-3.764644649140207,-7.3449096549112785,-5.21346328058648,17.89106291495308,-23.317241336725452,18.628955991255143,0.316928527143601,1.277994339420799,-1.4947186410218913,0.6830285752038222,0.393886875918631,-13.373887461039606,-10.017175719573048,-2.937580979616219,-3.163802053789857,-0.9964159582145502,1.0915592995336956,-0.2607179889028508,-0.5432957403051212,-0.8176308359863279,14.027608399699094,-7.787121306565823,6.133081875419947,-3.777046578026609,-9.079907025551998,-4.2695002192316425,-3.6407808121471392,-5.472807873444818,-5.146438269242898,9.514868876161923,-3.2872844361683144,-1.1561754825530444,-3.0081607937879764,-3.1483911318833675,2.766664737915819,2.401651598653531,0.355560233615685,-1.6172088342690796,-0.7933193605896259,-32.344246068281784,-0.3981763320414624,-0.3519259762241304,-6.75921908443169,0.33565520617034633,3.535303105617621,-9.619650496460194,-4.406361300485628,9.242917409749486,-1.2957572329144553,-3.679131568522114,-2.369527595281605,-5.431583389745762,-1.4816194862026404,6.427478640609295,-2.7742187983815807,-5.191130719760645,-0.9261177423001273,-4.650036813341988,-3.0285740696655106,-5.904104699984362,-1.3829331516690235,0.19366243366498792,-3.1025054160478307,-3.8673278284704273,-2.446103856118489,-9.749857419520248,-4.842556493580988,6.188427628219858,-1.7782896607626364,-2.356554244774621,-2.894677568298884,-7.9863037228601605,-13.617544277103878,-6.473451318226521,6.707163132728612,-13.627338897090096,-6.847293694540106,-30.010269825772816,-1.3183130629094848,-1.2047273474688147,4.102109400432436,-0.6458086621258663,-0.5387136619896197,-6.11592336153136,-22.978989119580195,-1.801766925212046,-0.7201217835792819,-5.341001694917241,1.0823989351140721,-1.7896859939321355,-3.616561510897409,4.119898265212921,-0.009844674256019925,-13.730324112217136,-20.726263298470688,8.222700122263376,-8.154486502000497,-2.22547418478239,-6.820710992154424,-1.1998107942815004,-10.945740513552968,-1.5015920314828186,-0.0135223015291083,1.3662102482763765,-18.734289530738472,0.12216120925615374,0.9418993255694231,-10.098696793194396,0.32883659210884647,1.4581156020906378,-0.9731172013513133,-8.38496990837453,-1.311644926000927,-10.030198112239887,-5.450507663036564,-2.780742623530357,-3.004742466691224,-7.7414975406870745,-0.6787871910563447,-7.098847603061171,27.237746178241217,-21.02355679442511,1.5252110468065094,-0.6611751100855507,-0.06405759874199841,0.9189945522132933,3.854579536177129,-0.31888151864755326,3.411192421621397,-2.664491961941919,-1.2530606468825818,3.703872223143321,-1.456367070463466,-1.7500649527070353,-1.1095041433260926,-4.3669247537065985,-2.0636635474322613,2.5453134534762945,-16.63355483225674,-4.342605717427132,-5.699824301615772,3.8412408881803772,-5.024562830553475,-6.62126037783015,-6.2635867641404275,-4.868184193433111,10.354416645343845,-1.938145808643975,10.538782006005471,0.626250918405205,7.430555365383103,0.10107602105785045,0.851898221516051,4.786136511432192,2.0025128386830287,-7.51101987718818,-11.267981026046364,-4.496768454514429,-9.43997415001061,-4.3220471623544805,-6.589847618132117,-4.326752478783773,-11.746458345493597,-3.9767647850087404,16.730453543257248,-0.2535550898517567,-2.7385665619587045,16.236581678120118,-1.493099813721564,-1.066543006437441,-4.12060921654094,-27.960036719374703,-1.5448484770829736,30.5883118398498,-3.166647359497599,-4.555766927736398,-8.119951169351578,-13.753401024611783,15.470676358948163,-3.622114933134137,-9.779999617403169,-6.055504436724824,-7.688024552850464,-31.100735781071094,-1.4440765769933306,-2.487389021157074,-2.3898436094407995,0.525832229639155,-1.6634685407463567,16.452461292705898,-2.0224903214392556,0.01918286540288841,-0.4356601138394223,3.9206018554333304,17.22758115903861,-4.056062041402962,-0.5320543392825582,-6.055748380124543,-1.7969481028237002,-4.228478154289023,-0.5768431516026827,4.574182955474287,-4.294048189299227,-1.354774409155554,-2.6999423439910974,0.22022076222381515,-3.018760116563957,-5.560545682320995,-4.1596212631887814,-0.45010732016777427,-0.23630285709188542,-2.9197166402303343,-28.967485674197682,-1.8633339284743105,4.254870507829568,-6.228340835228061,-1.6152709835395478,-1.2194777006313562,-1.5608976507440255,-1.0243885008760416,-8.201999347728838,-5.5126841085773375,-12.242078498260103,-2.8497676814924677,-1.340938202952482,9.527987945107245,-1.3603574785050778,-13.306725735554782,-9.619008902580122,-12.01190554801318,-18.18313973081401,-0.4801077919429798,-27.473570805012095,3.3499264220863445,-23.826035501054395,-0.26705139166436986,-14.961179747154198,-1.0389110757632376,-4.880097519581018,1.5142314051103751,1.6771923135074418,-0.32798227487854237,-1.728928826929271,-1.1651075924930316,4.119461395502083,1.1034304868705898,-8.529802957486838,-11.220029209196989,-5.106489232117415,-10.75670519056343,17.738570742191143,-7.054347330015559,-5.994079164701249,-4.7721970430208245,-6.39801097910739,-1.3866292806432685,-2.2706838679201744,-3.784139343740191,6.430570232440588,-4.691485686824179,-6.4055952697541425,-5.339096651031931,-4.9159985325529645,-5.284790212610364,-21.500657916949308,15.609062209859928,4.522599404645594,2.7523457384593026,3.5073963489224185,5.270497396280836,8.20079501640288,1.1042062055921669,-1.577982283032191],"Storage":{"Data":[-3.6498183007762646,-11.932460350973821,-3.117213609697295,-1.3323366660886895,-3.167249856516913,5.29017358245206,-5.322040920872845,-3.4866126687586845,-3.664637939018557,-3.205722415199398,-1.495751517865244,-4.044728497561741,-1.5758310012699073,-1.9305083572619317,-6.597825967490664,-3.1078331511995367,4.522161426712156,-0.36660711235187465,22.414161892247236,-1.7814773525798477,-23.82163601775341,-7.504354503815333,-0.9475869209718903,-4.662483371399514,-15.357396453741885,-2.0782502381547574,-7.187088693650232,-25.17333356267589,-6.562714055373325,-4.172411602653449,16.24692744217464,-8.167109206820253,-8.961184715062435,-6.4014326033673346,-0.6179917679514049,-9.538385548620491,3.7981687867457454,-0.9152329033060747,-0.1945907071492651,-2.073296766093671,1.6327701155946759,-3.111854270653165,-1.8175698958315167,-2.5230590103596158,0.2778744692483174,-15.581357717798813,-8.679342243566927,-1.0588268890551173,3.9362858252770376,-7.112539643850401,-6.508218472661447,-3.764644649140207,-7.3449096549112785,-5.21346328058648,17.89106291495308,-23.317241336725452,18.628955991255143,0.316928527143601,1.277994339420799,-1.4947186410218913,0.6830285752038222,0.393886875918631,-13.373887461039606,-10.017175719573048,-2.937580979616219,-3.163802053789857,-0.9964159582145502,1.0915592995336956,-0.2607179889028508,-0.5432957403051212,-0.8176308359863279,14.027608399699094,-7.787121306565823,6.133081875419947,-3.777046578026609,-9.079907025551998,-4.2695002192316425,-3.6407808121471392,-5.472807873444818,-5.146438269242898,9.514868876161923,-3.2872844361683144,-1.1561754825530444,-3.0081607937879764,-3.1483911318833675,2.766664737915819,2.401651598653531,0.355560233615685,-1.6172088342690796,-0.7933193605896259,-32.344246068281784,-0.3981763320414624,-0.3519259762241304,-6.75921908443169,0.33565520617034633,3.535303105617621,-9.619650496460194,-4.406361300485628,9.242917409749486,-1.2957572329144553,-3.679131568522114,-2.369527595281605,-5.431583389745762,-1.4816194862026404,6.427478640609295,-2.7742187983815807,-5.191130719760645,-0.9261177423001273,-4.650036813341988,-3.0285740696655106,-5.904104699984362,-1.3829331516690235,0.19366243366498792,-3.1025054160478307,-3.8673278284704273,-2.446103856118489,-9.749857419520248,-4.842556493580988,6.188427628219858,-1.7782896607626364,-2.356554244774621,-2.894677568298884,-7.9863037228601605,-13.617544277103878,-6.473451318226521,6.707163132728612,-13.627338897090096,-6.847293694540106,-30.010269825772816,-1.3183130629094848,-1.2047273474688147,4.102109400432436,-0.6458086621258663,-0.5387136619896197,-6.11592336153136,-22.978989119580195,-1.801766925212046,-0.7201217835792819,-5.341001694917241,1.0823989351140721,-1.7896859939321355,-3.616561510897409,4.119898265212921,-0.009844674256019925,-13.730324112217136,-20.726263298470688,8.222700122263376,-8.154486502000497,-2.22547418478239,-6.820710992154424,-1.1998107942815004,-10.945740513552968,-1.5015920314828186,-0.0135223015291083,1.3662102482763765,-18.734289530738472,0.12216120925615374,0.9418993255694231,-10.098696793194396,0.32883659210884647,1.4581156020906378,-0.9731172013513133,-8.38496990837453,-1.311644926000927,-10.030198112239887,-5.450507663036564,-2.780742623530357,-3.004742466691224,-7.7414975406870745,-0.6787871910563447,-7.098847603061171,27.237746178241217,-21.02355679442511,1.5252110468065094,-0.6611751100855507,-0.06405759874199841,0.9189945522132933,3.854579536177129,-0.31888151864755326,3.411192421621397,-2.664491961941919,-1.2530606468825818,3.703872223143321,-1.456367070463466,-1.7500649527070353,-1.1095041433260926,-4.3669247537065985,-2.0636635474322613,2.5453134534762945,-16.63355483225674,-4.342605717427132,-5.699824301615772,3.8412408881803772,-5.024562830553475,-6.62126037783015,-6.2635867641404275,-4.868184193433111,10.354416645343845,-1.938145808643975,10.538782006005471,0.626250918405205,7.430555365383103,0.10107602105785045,0.851898221516051,4.786136511432192,2.0025128386830287,-7.51101987718818,-11.267981026046364,-4.496768454514429,-9.43997415001061,-4.3220471623544805,-6.589847618132117,-4.326752478783773,-11.746458345493597,-3.9767647850087404,16.730453543257248,-0.2535550898517567,-2.7385665619587045,16.236581678120118,-1.493099813721564,-1.066543006437441,-4.12060921654094,-27.960036719374703,-1.5448484770829736,30.5883118398498,-3.166647359497599,-4.555766927736398,-8.119951169351578,-13.753401024611783,15.470676358948163,-3.622114933134137,-9.779999617403169,-6.055504436724824,-7.688024552850464,-31.100735781071094,-1.4440765769933306,-2.487389021157074,-2.3898436094407995,0.525832229639155,-1.6634685407463567,16.452461292705898,-2.0224903214392556,0.01918286540288841,-0.4356601138394223,3.9206018554333304,17.22758115903861,-4.056062041402962,-0.5320543392825582,-6.055748380124543,-1.7969481028237002,-4.228478154289023,-0.5768431516026827,4.574182955474287,-4.294048189299227,-1.354774409155554,-2.6999423439910974,0.22022076222381515,-3.018760116563957,-5.560545682320995,-4.1596212631887814,-0.45010732016777427,-0.23630285709188542,-2.9197166402303343,-28.967485674197682,-1.8633339284743105,4.254870507829568,-6.228340835228061,-1.6152709835395478,-1.2194777006313562,-1.5608976507440255,-1.0243885008760416,-8.201999347728838,-5.5126841085773375,-12.242078498260103,-2.8497676814924677,-1.340938202952482,9.527987945107245,-1.3603574785050778,-13.306725735554782,-9.619008902580122,-12.01190554801318,-18.18313973081401,-0.4801077919429798,-27.473570805012095,3.3499264220863445,-23.826035501054395,-0.26705139166436986,-14.961179747154198,-1.0389110757632376,-4.880097519581018,1.5142314051103751,1.6771923135074418,-0.32798227487854237,-1.728928826929271,-1.1651075924930316,4.119461395502083,1.1034304868705898,-8.529802957486838,-11.220029209196989,-5.106489232117415,-10.75670519056343,17.738570742191143,-7.054347330015559,-5.994079164701249,-4.7721970430208245,-6.39801097910739,-1.3866292806432685,-2.2706838679201744,-3.784139343740191,6.430570232440588,-4.691485686824179,-6.4055952697541425,-5.339096651031931,-4.9159985325529645,-5.284790212610364,-21.500657916949308,15.609062209859928,4.522599404645594,2.7523457384593026,3.5073963489224185,5.270497396280836,8.20079501640288,1.1042062055921669,-1.577982283032191],"RowCount":9,"ColumnCount":36},"ColumnCount":36,"RowCount":9}],"BiasHidden":[{"Values":[-15.60920490222633,100.63118466538599,-21.802747117943014,-32.6888302956607,-18.053302184104012,20.319670315705444,-7.152271540535597,-34.14673265155073,-91.14083588118301,9.031571104498283,-332.7194409429342,122.84906302565142,-36.18865183285347,35.17250938333541,50.01962976227437,17.227178272269516,-37.09420335647138,92.11131649478706,-105.43530406716651,-102.91683502707849,-96.22894771700311,-49.143186526149535,-23.683002837819146,16.068636227214643,40.98737349026436,-7.821756771283203,-67.58787489152937,37.57034886975839,27.31723518682318,-88.5534580453593,41.443794897879734,165.52820944317392,16.11142836700098,-20.355981004917652,-8.985782051385103,-21.988959313204305],"Storage":{"Data":[-15.60920490222633,100.63118466538599,-21.802747117943014,-32.6888302956607,-18.053302184104012,20.319670315705444,-7.152271540535597,-34.14673265155073,-91.14083588118301,9.031571104498283,-332.7194409429342,122.84906302565142,-36.18865183285347,35.17250938333541,50.01962976227437,17.227178272269516,-37.09420335647138,92.11131649478706,-105.43530406716651,-102.91683502707849,-96.22894771700311,-49.143186526149535,-23.683002837819146,16.068636227214643,40.98737349026436,-7.821756771283203,-67.58787489152937,37.57034886975839,27.31723518682318,-88.5534580453593,41.443794897879734,165.52820944317392,16.11142836700098,-20.355981004917652,-8.985782051385103,-21.988959313204305],"RowCount":36,"ColumnCount":1},"ColumnCount":1,"RowCount":36},{"Values":[5.23779274369544,-3.9750804220440283,1.365090284202581,0.09890271693019148,-2.5079984689879606,-0.5459767627299612,-0.37828738224486513,3.924100439976342,-4.696193710730232,3.13213293570107,308.1504380585385,16.493824364750704,4.934719425371014,-0.25643552195357605,9.518675097204842,29.02893585620373,5.203046636975769,18.523852802588067,51.152706182508425,4.9155638769922145,-15.888598402445021,0.527651973176816,3.5074284307251666,-8.015261589585565,-16.951720252209796,41.35841801013047,2.6893281559947817,-4.280418844319505,-1.5403284692362134,44.08644531533122,22.472149285375043,241.32927198858482,-7.581636913461173,22.343830128178382,-0.35079484694214763,6.458100541569217],"Storage":{"Data":[5.23779274369544,-3.9750804220440283,1.365090284202581,0.09890271693019148,-2.5079984689879606,-0.5459767627299612,-0.37828738224486513,3.924100439976342,-4.696193710730232,3.13213293570107,308.1504380585385,16.493824364750704,4.934719425371014,-0.25643552195357605,9.518675097204842,29.02893585620373,5.203046636975769,18.523852802588067,51.152706182508425,4.9155638769922145,-15.888598402445021,0.527651973176816,3.5074284307251666,-8.015261589585565,-16.951720252209796,41.35841801013047,2.6893281559947817,-4.280418844319505,-1.5403284692362134,44.08644531533122,22.472149285375043,241.32927198858482,-7.581636913461173,22.343830128178382,-0.35079484694214763,6.458100541569217],"RowCount":36,"ColumnCount":1},"ColumnCount":1,"RowCount":36},{"Values":[-10.807287269052416,-2.031138514592674,-11.523910939806015,-5.426453926226159,-3.802392665732296,-2.235309946702291,-7.735900136659604,-1.9331720398749772,-6.606374012263935],"Storage":{"Data":[-10.807287269052416,-2.031138514592674,-11.523910939806015,-5.426453926226159,-3.802392665732296,-2.235309946702291,-7.735900136659604,-1.9331720398749772,-6.606374012263935],"RowCount":9,"ColumnCount":1},"ColumnCount":1,"RowCount":9}],"ActivationsHiddenSigmoid":[{"Values":[4.8756178813545746E-57,1.0,4.960908952812687E-39,1.884193057737512E-24,6.361487017223988E-25,0.9999998636564963,9.186433879760017E-10,2.3417217970747162E-12,2.558496090977306E-107,1.0,1.0,1.0,3.17895778118119E-59,1.0,1.0,1.0,1.1933163237645388E-79,1.0,3.816985965928404E-156,5.311792330869368E-239,1.7706984443776087E-194,1.395650062980905E-46,1.502304026905597E-44,1.0,1.0,1.0,9.074609539977729E-73,1.0,1.0,1.9775761933167637E-15,1.0,1.0,0.9999999999955296,9.470057808488021E-55,2.6196897806968095E-11,7.503330076902538E-22],"Storage":{"Data":[4.8756178813545746E-57,1.0,4.960908952812687E-39,1.884193057737512E-24,6.361487017223988E-25,0.9999998636564963,9.186433879760017E-10,2.3417217970747162E-12,2.558496090977306E-107,1.0,1.0,1.0,3.17895778118119E-59,1.0,1.0,1.0,1.1933163237645388E-79,1.0,3.816985965928404E-156,5.311792330869368E-239,1.7706984443776087E-194,1.395650062980905E-46,1.502304026905597E-44,1.0,1.0,1.0,9.074609539977729E-73,1.0,1.0,1.9775761933167637E-15,1.0,1.0,0.9999999999955296,9.470057808488021E-55,2.6196897806968095E-11,7.503330076902538E-22],"RowCount":36,"ColumnCount":1},"ColumnCount":1,"RowCount":36},{"Values":[2.1564965164519794E-16,2.3731575780837634E-25,1.2612946953071482E-13,1.2573067338322249E-15,5.2287649236786815E-09,2.8697599616355016E-39,1.0,1.8058502220524848E-28,2.6024255812746593E-18,3.564928102220001E-15,5.0412220050177556E-24,2.5098241504655277E-18,0.9999999999999563,1.148168992531316E-58,1.4925727743101002E-25,1.044653307432599E-24,3.8395016448218636E-43,4.0506247087929483E-41,1.0,1.0,1.7048445769474735E-16,9.974607860679345E-18,1.0,9.948243904190039E-21,2.818804483237325E-07,1.257042762589516E-31,1.4146533153495962E-44,4.1677827122691575E-19,3.465682630573698E-14,7.051882591874632E-18,8.685553898797568E-31,3.4710614879375512E-34,1.6287894967382205E-12,5.963025426547731E-41,3.682758475584329E-29,0.999999999815353],"Storage":{"Data":[2.1564965164519794E-16,2.3731575780837634E-25,1.2612946953071482E-13,1.2573067338322249E-15,5.2287649236786815E-09,2.8697599616355016E-39,1.0,1.8058502220524848E-28,2.6024255812746593E-18,3.564928102220001E-15,5.0412220050177556E-24,2.5098241504655277E-18,0.9999999999999563,1.148168992531316E-58,1.4925727743101002E-25,1.044653307432599E-24,3.8395016448218636E-43,4.0506247087929483E-41,1.0,1.0,1.7048445769474735E-16,9.974607860679345E-18,1.0,9.948243904190039E-21,2.818804483237325E-07,1.257042762589516E-31,1.4146533153495962E-44,4.1677827122691575E-19,3.465682630573698E-14,7.051882591874632E-18,8.685553898797568E-31,3.4710614879375512E-34,1.6287894967382205E-12,5.963025426547731E-41,3.682758475584329E-29,0.999999999815353],"RowCount":36,"ColumnCount":1},"ColumnCount":1,"RowCount":36},{"Values":[0.098986179934388,2.1471122885625436E-11,0.10448567622396478,0.08189071572630165,0.17518083061190395,0.05766589508461231,0.14084819713133948,0.13406980028000662,3.4637407836680947E-19],"Storage":{"Data":[0.098986179934388,2.1471122885625436E-11,0.10448567622396478,0.08189071572630165,0.17518083061190395,0.05766589508461231,0.14084819713133948,0.13406980028000662,3.4637407836680947E-19],"RowCount":9,"ColumnCount":1},"ColumnCount":1,"RowCount":9}]}