{"NumberInput":9,"NumberNeurons":18,"NumberOutput":9,"NumberOfLayers":3,"WeightsHidden":[{"Values":[-1.232997892558132,-64.68982334440297,-2.2735296839816472,2.823453277620678,-2.3454175848547147,-3.679693724639118,3.007571504321589,-7.571811619253567,-5.396416253468787,42.928842819174946,28.210568584297608,108.89856280244238,29.63309382690366,41.68411477988446,55.557847084614274,-5.504084762337095,19.926185483426774,31.55854123949603,11.792311499939963,-40.12268158379838,7.810002676503191,1.452150910225109,7.832854835529914,-7.4795643811430335,10.217890680147146,12.309572020533013,17.526252967136333,27.80722597836483,-17.388874062448632,93.36034727501935,-48.21083970215539,-44.557347813717655,-49.05296880428053,-19.90515052901742,21.632717251373432,5.833599137663596,5.4879816057832285,-98.29342089837286,-4.946996022200898,0.5063602616845326,-16.760720081672837,-5.733572449467913,3.1517465902981474,-24.10954223124258,-8.182811552067554,-322.48793251398354,-26.147062559927885,151.09222382000817,47.68418949182906,6.770687928526229,-188.81444210989736,-93.66319446890729,-43.85135721253829,48.03368913019225,6.902648604551644,-0.32418916813080867,0.37402111437633717,6.2288464493745375,-15.864266724248708,-3.0644491178315536,-2.4515521620855134,21.60325272648726,5.102896136243989,19.65750418263958,-11.184579791689282,2.1813696309717967,42.09758223776752,-13.473312572187847,86.82474306088449,-26.297679328550213,20.167051972974313,9.275748719535462,16.092458067885122,-62.13582332112719,12.843286912325107,2.971152511796323,0.8841072557979611,-7.320893354318558,7.140946673732479,27.7525532854149,26.72871009853032,104.39069532462258,-6.648301990828312,125.16327753171117,16.985246033021692,-36.5525547543988,168.89187064600944,-19.588599149083592,44.621366031635795,-0.5553257513079422,7.648168242088804,-5.708823290253447,12.54084078788157,4.318986371807451,32.239228453135105,-8.143528961868636,20.19788422139087,12.84850736702925,10.196737448994199,166.16119415811372,-33.2827053753715,14.484952753579977,26.583570150802295,-61.620305943199924,175.86010314408853,-47.25306928526455,34.81886667659163,27.08056117256739,-0.8860772890299835,7.998097807949324,11.255131650932329,5.486767513527867,62.88335188821065,-5.5352996031747645,12.067921637112466,26.6267110561577,1.9275769931995363,195.7989823195365,-9.000550266577397,-16.21284235116065,-1.951423779947191,-66.16105167763912,44.43371436291464,-21.14366871505113,27.470593660356847,-5.119135846416985,5.269334228612318,-2.9701071176006337,16.67382674345713,6.321678162360108,28.16197399161118,-2.306974563177541,10.249543876793615,24.61555771007741,14.658514591633157,296.92771857717406,9.24092013756962,40.40808650579855,46.88714118584889,-46.05330067361157,192.42411861303563,-37.02753840334664,16.829318126632693,3.689320734262045,1.8346561570231468,45.68495608089793,10.86796661183577,10.165166761413989,76.6828658251405,4.176130379870488,-0.31564232542855974,16.231587024355157,5.878703332562552,254.04313105880325,-35.05824638438715,-99.22316205479612,13.190167322883633,-8.356505199276661,233.18859232227646,21.786040901216452,18.216493715483523,-0.13669033720148788],"Storage":{"Data":[-1.232997892558132,-64.68982334440297,-2.2735296839816472,2.823453277620678,-2.3454175848547147,-3.679693724639118,3.007571504321589,-7.571811619253567,-5.396416253468787,42.928842819174946,28.210568584297608,108.89856280244238,29.63309382690366,41.68411477988446,55.557847084614274,-5.504084762337095,19.926185483426774,31.55854123949603,11.792311499939963,-40.12268158379838,7.810002676503191,1.452150910225109,7.832854835529914,-7.4795643811430335,10.217890680147146,12.309572020533013,17.526252967136333,27.80722597836483,-17.388874062448632,93.36034727501935,-48.21083970215539,-44.557347813717655,-49.05296880428053,-19.90515052901742,21.632717251373432,5.833599137663596,5.4879816057832285,-98.29342089837286,-4.946996022200898,0.5063602616845326,-16.760720081672837,-5.733572449467913,3.1517465902981474,-24.10954223124258,-8.182811552067554,-322.48793251398354,-26.147062559927885,151.09222382000817,47.68418949182906,6.770687928526229,-188.81444210989736,-93.66319446890729,-43.85135721253829,48.03368913019225,6.902648604551644,-0.32418916813080867,0.37402111437633717,6.2288464493745375,-15.864266724248708,-3.0644491178315536,-2.4515521620855134,21.60325272648726,5.102896136243989,19.65750418263958,-11.184579791689282,2.1813696309717967,42.09758223776752,-13.473312572187847,86.82474306088449,-26.297679328550213,20.167051972974313,9.275748719535462,16.092458067885122,-62.13582332112719,12.843286912325107,2.971152511796323,0.8841072557979611,-7.320893354318558,7.140946673732479,27.7525532854149,26.72871009853032,104.39069532462258,-6.648301990828312,125.16327753171117,16.985246033021692,-36.5525547543988,168.89187064600944,-19.588599149083592,44.621366031635795,-0.5553257513079422,7.648168242088804,-5.708823290253447,12.54084078788157,4.318986371807451,32.239228453135105,-8.143528961868636,20.19788422139087,12.84850736702925,10.196737448994199,166.16119415811372,-33.2827053753715,14.484952753579977,26.583570150802295,-61.620305943199924,175.86010314408853,-47.25306928526455,34.81886667659163,27.08056117256739,-0.8860772890299835,7.998097807949324,11.255131650932329,5.486767513527867,62.88335188821065,-5.5352996031747645,12.067921637112466,26.6267110561577,1.9275769931995363,195.7989823195365,-9.000550266577397,-16.21284235116065,-1.951423779947191,-66.16105167763912,44.43371436291464,-21.14366871505113,27.470593660356847,-5.119135846416985,5.269334228612318,-2.9701071176006337,16.67382674345713,6.321678162360108,28.16197399161118,-2.306974563177541,10.249543876793615,24.61555771007741,14.658514591633157,296.92771857717406,9.24092013756962,40.40808650579855,46.88714118584889,-46.05330067361157,192.42411861303563,-37.02753840334664,16.829318126632693,3.689320734262045,1.8346561570231468,45.68495608089793,10.86796661183577,10.165166761413989,76.6828658251405,4.176130379870488,-0.31564232542855974,16.231587024355157,5.878703332562552,254.04313105880325,-35.05824638438715,-99.22316205479612,13.190167322883633,-8.356505199276661,233.18859232227646,21.786040901216452,18.216493715483523,-0.13669033720148788],"RowCount":18,"ColumnCount":9},"ColumnCount":9,"RowCount":18},{"Values":[1.5429736202270241,-1.8906910857536796,0.7870772482743198,5.172442163633832,4.233959023266491,1.4796116559730197,-1.5374201287848128,2.8192195017133805,2.896360745272198,4.168618040891589,2.0523522218836514,-0.3287645812210309,-0.6851884555890047,-0.4173658723662277,1.873786795143146,2.75754220643375,2.1387313447751155,3.712355006658109,2.665322987260932,8.658609870465522,-4.459010702155253,-3.183042142494057,-3.8272176557233766,2.1987485743783264,0.540848457743915,-6.8338016672717945,-5.3336037482035765,-2.9569798728323113,-3.37061942531722,2.5221586980205837,3.0964106845790056,-0.10908746026883853,-5.4676267783967605,-0.6252846962653282,-6.508051844570989,-9.919088407151005,1.5571288391440792,-2.679888377990177,-2.534269306773264,5.5903204108287925,4.78255693523931,1.470350317716328,-1.8785190676566224,2.6010367533653205,5.90482491836234,4.321880495798224,6.79494823450992,-0.3734797654186425,-0.5476424097610836,-0.7782021610166502,-0.648833613878538,2.7772998066377,2.2346742537212703,4.0756556683128,2.973624702027664,-1.5936741984012315,-2.2763543402609243,3.8386596368863932,3.616893821223921,1.1638650311310845,-1.5631365287026502,3.4923831253089177,3.0815785877377215,4.011822738863622,2.55905673430941,-0.4630907320815744,-0.7345808933132295,-1.0507961596439785,-0.3738107106991992,2.573196145279263,1.5737933280351857,2.7334672052403035,-4.897759925956136,-3.380406894369074,-7.01707272572171,-8.653587330026003,-7.429036829633912,-2.2982829076965525,-8.081537659633717,-5.069434576100851,-4.6148476293243235,0.3467840803713451,-1.2496235928006245,-3.106280952144253,-4.075297099130478,-2.0000076530009747,-10.527652547286047,-1.0667292300579942,-4.302207888225073,-8.785325854259726,2.449616546512144,-1.4643768203756995,-1.4090980658495582,3.934712641946467,3.9814574710870136,1.436800360629136,-1.101656369993307,2.9811369701978623,2.9367967402329236,3.5565931563709667,1.8332173471538855,-0.2790051412675543,-0.7272466005338061,-0.8638640401321205,0.4070342481538999,2.5728619124628325,1.9644938170041182,2.7754044688362134,1.6580178000217471,-1.4550786771564215,2.691007154342891,4.228666720114135,6.42415685170354,1.042543761398347,-1.0255038385656754,4.369170735438598,1.9989540946390651,3.319684171965634,1.3354246760187616,-0.6234465062826979,-0.6330809476810878,1.2528491959045198,-0.47965897262704127,1.9307575178184786,3.4915764597152146,3.754354849871644,8.758426982830162,2.492553849924873,-2.2719657040825862,3.9782729900567544,3.2127902963804322,0.21479224778647493,0.14250809312121193,6.360697791453216,3.9463062330377343,3.0419095718187323,3.0770022766208047,-0.4243324945423053,-0.852067889400649,-0.7078490480343231,1.6589144103338693,1.3307589841288714,3.5511649825507012,3.524593233742753,1.3875565860590768,-1.9317559769657715,0.9205691435829041,6.684161642857125,4.440247626107289,0.8874071056729541,-0.826863575005055,2.3765503657348717,2.2553536498493743,3.37909700618542,0.7092838564193449,-0.7495525351188372,-1.2493528366835989,1.651905686092801,-0.6594255599825714,1.8667421140791982,1.7842077717553686,5.184282761063304,-1.5498323519916157,5.811560172846892,-1.512578281540621,-7.716866346480021,-11.882417632289236,13.599767158240834,6.081492359225066,-8.473685440818478,-8.940458457833254,-17.551945034387238,-6.81999687436312,-1.072591658997894,1.2164165330814156,-3.72558095305543,-9.42998052447293,-11.896823393721174,-5.243515971987861,-15.268291402184843,1.997200007244918,5.12065545850448,0.19191841022407485,5.031105889169741,1.5846318784107745,2.17038006801507,3.0366151849574488,1.8782150190652582,4.952500883891256,4.032368325212177,-1.5203596338261969,0.9557326103224776,1.8295303794812248,-0.729525812512288,-0.24418392759307495,1.523331115853747,0.2657475545532633,4.650388206009151,-2.153817414120749,-8.738457237614266,1.9195645591720807,-3.73432107865676,-11.757630199730484,-6.30279056233463,-4.607027846886753,-8.841557688564707,-11.170437870855187,-11.390551851353772,-10.351076774425994,-4.298396350821888,-5.767538014247929,-5.8135557920169765,-5.264171146953415,-5.2861236735743,1.644234035370161,-9.696515586827738,-0.027441878843846322,-2.679315911168096,1.8845693867841822,6.960640478039198,5.246727560666602,1.6094235293125594,-3.089464094422236,6.125985839381012,4.342417429039975,6.063067345651687,3.9066581759350796,-1.1701252992208158,-1.1149950236960358,-0.8552755066958023,2.879863068014883,4.39169937653276,4.108219715330492,9.714118539915958,-3.5572420607442528,-0.1145012178661105,5.05459062090669,5.054011271257893,5.4479593411636325,-1.6963396895101,1.2331896088215037,6.671740491528851,4.641214432553183,4.444715897634187,10.408163006785953,-0.7360971824960868,-0.8339388845965097,1.7757581488257803,4.497390062873038,1.727659815110933,3.9598164728749783,5.951604684302539,4.737441076610517,3.842781264959022,-3.9863122147742702,-6.336247462298618,8.096806373740725,0.9739468001110814,4.638320189154699,4.5246562389471245,13.493246215205973,15.618261460971233,7.8204252557245955,0.5142251128148372,0.2578378754756616,0.21199905326386856,0.9058787899536775,19.670339481969084,0.40017172447857297,11.600131746639581,1.4393446598876,2.6203652207131323,8.113287365515081,-8.481967302364266,-4.761876578309357,2.18679461616906,1.5318274336271984,-9.73041861950985,0.5375790122439946,4.086704495251218,-8.724621312845732,1.519890710954841,1.5675891714096952,4.634179977733624,1.841153199034947,1.146662439358047,-0.7950179733176536,-9.58695097793342,2.5862944027174515,-0.05460283536137788,-2.309228104949563,2.27283751515303,8.304797331365313,8.835970854472299,-0.9318711036924999,4.414433860860778,8.381825133871258,9.945159606185374,10.673834983860406,2.992572760789957,2.6023889015280246,-3.998844935876724,0.34413334797527434,11.532722966752061,1.7994104941440074,2.598085489924667,1.1951329623032205,-0.9305139319496719,3.105689152850147,3.9865482605013334,6.411467732586986,0.3881055464414032,-1.3426797194829279,4.295346067012439,2.2590223271540264,3.656659536456523,0.8731582447664132,-0.8570383526992976,-1.2279531047184764,0.650728520336268,-0.6749180294288548,0.8729797937849565,3.2509821803995615,7.433979645728319],"Storage":{"Data":[1.5429736202270241,-1.8906910857536796,0.7870772482743198,5.172442163633832,4.233959023266491,1.4796116559730197,-1.5374201287848128,2.8192195017133805,2.896360745272198,4.168618040891589,2.0523522218836514,-0.3287645812210309,-0.6851884555890047,-0.4173658723662277,1.873786795143146,2.75754220643375,2.1387313447751155,3.712355006658109,2.665322987260932,8.658609870465522,-4.459010702155253,-3.183042142494057,-3.8272176557233766,2.1987485743783264,0.540848457743915,-6.8338016672717945,-5.3336037482035765,-2.9569798728323113,-3.37061942531722,2.5221586980205837,3.0964106845790056,-0.10908746026883853,-5.4676267783967605,-0.6252846962653282,-6.508051844570989,-9.919088407151005,1.5571288391440792,-2.679888377990177,-2.534269306773264,5.5903204108287925,4.78255693523931,1.470350317716328,-1.8785190676566224,2.6010367533653205,5.90482491836234,4.321880495798224,6.79494823450992,-0.3734797654186425,-0.5476424097610836,-0.7782021610166502,-0.648833613878538,2.7772998066377,2.2346742537212703,4.0756556683128,2.973624702027664,-1.5936741984012315,-2.2763543402609243,3.8386596368863932,3.616893821223921,1.1638650311310845,-1.5631365287026502,3.4923831253089177,3.0815785877377215,4.011822738863622,2.55905673430941,-0.4630907320815744,-0.7345808933132295,-1.0507961596439785,-0.3738107106991992,2.573196145279263,1.5737933280351857,2.7334672052403035,-4.897759925956136,-3.380406894369074,-7.01707272572171,-8.653587330026003,-7.429036829633912,-2.2982829076965525,-8.081537659633717,-5.069434576100851,-4.6148476293243235,0.3467840803713451,-1.2496235928006245,-3.106280952144253,-4.075297099130478,-2.0000076530009747,-10.527652547286047,-1.0667292300579942,-4.302207888225073,-8.785325854259726,2.449616546512144,-1.4643768203756995,-1.4090980658495582,3.934712641946467,3.9814574710870136,1.436800360629136,-1.101656369993307,2.9811369701978623,2.9367967402329236,3.5565931563709667,1.8332173471538855,-0.2790051412675543,-0.7272466005338061,-0.8638640401321205,0.4070342481538999,2.5728619124628325,1.9644938170041182,2.7754044688362134,1.6580178000217471,-1.4550786771564215,2.691007154342891,4.228666720114135,6.42415685170354,1.042543761398347,-1.0255038385656754,4.369170735438598,1.9989540946390651,3.319684171965634,1.3354246760187616,-0.6234465062826979,-0.6330809476810878,1.2528491959045198,-0.47965897262704127,1.9307575178184786,3.4915764597152146,3.754354849871644,8.758426982830162,2.492553849924873,-2.2719657040825862,3.9782729900567544,3.2127902963804322,0.21479224778647493,0.14250809312121193,6.360697791453216,3.9463062330377343,3.0419095718187323,3.0770022766208047,-0.4243324945423053,-0.852067889400649,-0.7078490480343231,1.6589144103338693,1.3307589841288714,3.5511649825507012,3.524593233742753,1.3875565860590768,-1.9317559769657715,0.9205691435829041,6.684161642857125,4.440247626107289,0.8874071056729541,-0.826863575005055,2.3765503657348717,2.2553536498493743,3.37909700618542,0.7092838564193449,-0.7495525351188372,-1.2493528366835989,1.651905686092801,-0.6594255599825714,1.8667421140791982,1.7842077717553686,5.184282761063304,-1.5498323519916157,5.811560172846892,-1.512578281540621,-7.716866346480021,-11.882417632289236,13.599767158240834,6.081492359225066,-8.473685440818478,-8.940458457833254,-17.551945034387238,-6.81999687436312,-1.072591658997894,1.2164165330814156,-3.72558095305543,-9.42998052447293,-11.896823393721174,-5.243515971987861,-15.268291402184843,1.997200007244918,5.12065545850448,0.19191841022407485,5.031105889169741,1.5846318784107745,2.17038006801507,3.0366151849574488,1.8782150190652582,4.952500883891256,4.032368325212177,-1.5203596338261969,0.9557326103224776,1.8295303794812248,-0.729525812512288,-0.24418392759307495,1.523331115853747,0.2657475545532633,4.650388206009151,-2.153817414120749,-8.738457237614266,1.9195645591720807,-3.73432107865676,-11.757630199730484,-6.30279056233463,-4.607027846886753,-8.841557688564707,-11.170437870855187,-11.390551851353772,-10.351076774425994,-4.298396350821888,-5.767538014247929,-5.8135557920169765,-5.264171146953415,-5.2861236735743,1.644234035370161,-9.696515586827738,-0.027441878843846322,-2.679315911168096,1.8845693867841822,6.960640478039198,5.246727560666602,1.6094235293125594,-3.089464094422236,6.125985839381012,4.342417429039975,6.063067345651687,3.9066581759350796,-1.1701252992208158,-1.1149950236960358,-0.8552755066958023,2.879863068014883,4.39169937653276,4.108219715330492,9.714118539915958,-3.5572420607442528,-0.1145012178661105,5.05459062090669,5.054011271257893,5.4479593411636325,-1.6963396895101,1.2331896088215037,6.671740491528851,4.641214432553183,4.444715897634187,10.408163006785953,-0.7360971824960868,-0.8339388845965097,1.7757581488257803,4.497390062873038,1.727659815110933,3.9598164728749783,5.951604684302539,4.737441076610517,3.842781264959022,-3.9863122147742702,-6.336247462298618,8.096806373740725,0.9739468001110814,4.638320189154699,4.5246562389471245,13.493246215205973,15.618261460971233,7.8204252557245955,0.5142251128148372,0.2578378754756616,0.21199905326386856,0.9058787899536775,19.670339481969084,0.40017172447857297,11.600131746639581,1.4393446598876,2.6203652207131323,8.113287365515081,-8.481967302364266,-4.761876578309357,2.18679461616906,1.5318274336271984,-9.73041861950985,0.5375790122439946,4.086704495251218,-8.724621312845732,1.519890710954841,1.5675891714096952,4.634179977733624,1.841153199034947,1.146662439358047,-0.7950179733176536,-9.58695097793342,2.5862944027174515,-0.05460283536137788,-2.309228104949563,2.27283751515303,8.304797331365313,8.835970854472299,-0.9318711036924999,4.414433860860778,8.381825133871258,9.945159606185374,10.673834983860406,2.992572760789957,2.6023889015280246,-3.998844935876724,0.34413334797527434,11.532722966752061,1.7994104941440074,2.598085489924667,1.1951329623032205,-0.9305139319496719,3.105689152850147,3.9865482605013334,6.411467732586986,0.3881055464414032,-1.3426797194829279,4.295346067012439,2.2590223271540264,3.656659536456523,0.8731582447664132,-0.8570383526992976,-1.2279531047184764,0.650728520336268,-0.6749180294288548,0.8729797937849565,3.2509821803995615,7.433979645728319],"RowCount":18,"ColumnCount":18},"ColumnCount":18,"RowCount":18},{"Values":[6.142895236223022,0.19423817373791608,-0.38614078658921863,-0.20071846691515516,-2.7462341529381886,0.6533444470989559,0.46565352214570743,-0.12514528506950648,-0.031231249338692577,0.06632901134021633,-1.2126537000584687,1.8832773657808328,0.18609581613418721,1.340349717630122,-0.21676440444350895,0.30183112894045194,-0.5207282839176053,0.4075286509600648,5.729790197892447,-0.39074939285487653,-0.006493835878139936,-0.06651406288901181,-0.7586976968906685,-0.6390922890694937,-0.5347316373157407,0.03240433138875236,-0.3595804515201797,-0.3980581320426104,-0.7675124722885842,0.010231907867787509,-0.33849412268533485,0.08672203307515905,-0.07017886046248407,-0.35684226160122084,-0.640682144834028,0.2958435894767827,5.050737954586615,1.2453042923334203,0.7066924756355534,0.8685474426333196,-1.8490727954115003,0.6668645668336055,1.4938117362701444,0.8831851656603127,0.6782149253065621,1.4787001914343856,-0.05967443478476114,3.4617909422338675,1.49218450413606,1.2049363267266233,0.7960056481825596,1.7264841647820872,0.4244998049976767,1.4140400096750159,-0.3320585128564407,-1.0739528836080414,-1.166841503715366,-0.9817190870867369,-1.332414861946779,0.022433089153504605,-1.3660219251528112,-1.2702910751610326,-1.0623635172454473,-1.0026513400026287,-1.7580236690200433,-2.7879761176919335,-1.2080563367492256,-0.09720761193691901,-1.2366138103946662,-1.3723380261472977,-1.2436272656467944,-1.1434429567698077,-2.418253614910001,-0.9713168159881406,-0.9287133410767654,-0.8970345023081533,0.3963277624655915,0.5288384705335014,-1.0104139434392088,-1.1802998937791305,-0.5594485099719293,-1.1703933549823617,-0.8022756069962352,-2.7194054077957737,-1.184199772119186,0.21904284064461896,-1.0183419848187576,-1.4779284778148012,-0.6742424895468477,-1.4020895853483073,2.8281692504699287,-0.7467808480169486,-0.2572660723693659,0.7241733464306934,-0.2961026034632926,0.6335083915989335,-0.8159078388873539,0.16546413001416604,-0.08239327977430207,-0.725796240234443,-0.04675392555961552,-1.1534434519333456,-0.5471729905751977,6.030160033307566,0.6223306532069944,-0.8014809555365644,-0.011564356454477393,4.284971260046028,6.572436840844828,0.3563569814576252,0.28995081505890413,0.539845873822427,-1.2420632253146273,0.8605559196024551,0.45653122985793293,0.5792784514136449,0.6103930762848438,0.3961364738810818,-0.3420008968471872,1.4101099531288823,0.3218019879740503,1.5927076624788226,0.39750833088446047,0.34793035852276255,0.2402340979500705,1.2473510492392066,-0.762909308191121,-1.2748359725885159,-1.288538684528689,-1.464784637896907,-1.362072201252994,-0.5872279842386209,-1.3397872602894396,-1.3718028657235664,-1.3078282251950006,-1.4842240310357735,-1.6726685095560747,-2.5441859242420555,-1.6022382908523618,-0.29975659182416414,-1.6248314114933393,-1.7418363951295237,-1.5211627567916346,-1.4674830470859863,-2.5816311611155807,-1.4380317827791131,-0.9448041834896874,-1.103464640095487,-0.4765531595340867,-0.7532598178061379,-1.6202330149787798,-0.9600736350844306,-1.1344547647527692,-1.30245570168376,-1.362927106354313,-2.2468804389234474,-1.3447938928845686,0.0570010633665368,-1.2579505529961514,-1.3888321245763062,-1.709073885183352,-1.2607410256993687,-7.333447930484335,-1.3524360217485032,-1.8322292086636387,-2.2954898912442623,-3.240551601146302,-1.4040473529351827,-1.384535243026962,-2.1205533735182827,-1.5924882308505786,-1.284063834119732,-1.9978182218483287,-0.9744241332124762,-1.0799329272077518,-7.05172339396311,-2.001897368173871,-1.3622487916958672,-1.2121017020675227,-3.9513389474424123,-0.3614455169341356,-1.5917026083766164,-0.798450426279845,-0.7187207351945514,-1.1925193133358876,0.10308383164722684,-1.4930945410588676,-0.7406362725174358,-0.6540235236823736,-1.51225381731288,-1.0317294504303653,-3.0314306720954125,-1.333136366412345,0.3375818701971367,-0.869766580588162,-1.7161414446651007,-0.8219894474463225,-1.1867809911541678,3.1843994927844688,-0.1406647817173367,-0.12320301469210704,0.04062948547139198,-1.0190073851687171,0.07558179374187986,-0.2660174536183689,-0.08411268581669384,-0.11934083545120606,-0.1187202277297498,-0.4516847272987785,0.15972637926104022,-0.04117564546105126,-0.0034105427882320303,0.038573240550448,-0.09996810444265011,0.07702635738314498,-0.03980320822295837,2.730435649907315,-0.12481948442852943,0.1420190633925263,0.274396347720094,-0.717450760752251,0.3661052459366706,-0.12434754808084439,0.1890868944153953,0.1273892348778937,-0.01499755580424609,-0.09101216178365559,0.593690120529102,0.025616988500204992,0.18062969342527274,0.3504576101874457,-0.07807389415257499,0.23130239745504758,0.13629004719655777,1.7886572986704417,1.0397380589879968,0.5657425029248556,0.5443352415946922,-0.9765265994430518,0.39096991932783776,1.150179845330257,0.5922022892609536,0.45013736962103296,1.060687320479689,-0.04354177124215582,1.9818989792896666,1.0118681300442638,0.8118497660427644,0.46823120251446243,1.1955156639366233,0.2359851863144426,0.9095555946052538,-0.817367351710554,-0.6814413693612028,-0.488727210344274,-0.5565499999885588,-0.1073468366090649,-0.6167284111920637,-0.6900964915227751,-0.4769556700884513,-0.5433307116871418,-0.6826488022154789,-0.43928002116798637,-0.8181546270429102,-0.6696398245463538,-0.6354952346872333,-0.4703086043857873,-0.7193493638710041,-0.44097611010420945,-0.5665240768415,-5.312607493164413,-1.2626166718444816,-1.5483274674800511,-2.4403444055627492,-0.26475139273019993,-4.648283416762889,-1.4409594268631973,-1.6570729039776895,-3.62384065215634,-1.2938395660094488,-1.2786981018333956,-1.4610884103494355,-1.1097743588932607,-4.925496230698119,-1.682270677367267,-1.3612755271099934,-1.72483305274185,-2.8244731650677752,-0.18766360314418964,-0.5028241385522987,-0.9744721476803363,-0.8657388006845887,-0.5966365473593178,-0.012511790156930831,-0.5743145435793429,-0.9389753378711545,-0.5820466441902548,-0.644618100192883,-1.131452867853783,-0.3017658843627932,-0.5898808012437067,0.4587257251270562,-1.123889829229716,-0.5472320939788394,-1.0176093019983892,-0.7808949748049347,-5.921811185643045,-1.2649719890837747,-0.8355637647027842,-1.2049649558870745,-3.316915011450608,-2.7707637974067634,-1.4620733008643545,-1.0727306969853194,-2.161678902271157,-1.4252103653998878,-1.6552883556675853,-2.967851051786998,-1.3547205411644507,-0.6045730987731918,-1.1693893382686618,-1.5243710954153868,-1.9183245071766903,-1.2573378154058363],"Storage":{"Data":[6.142895236223022,0.19423817373791608,-0.38614078658921863,-0.20071846691515516,-2.7462341529381886,0.6533444470989559,0.46565352214570743,-0.12514528506950648,-0.031231249338692577,0.06632901134021633,-1.2126537000584687,1.8832773657808328,0.18609581613418721,1.340349717630122,-0.21676440444350895,0.30183112894045194,-0.5207282839176053,0.4075286509600648,5.729790197892447,-0.39074939285487653,-0.006493835878139936,-0.06651406288901181,-0.7586976968906685,-0.6390922890694937,-0.5347316373157407,0.03240433138875236,-0.3595804515201797,-0.3980581320426104,-0.7675124722885842,0.010231907867787509,-0.33849412268533485,0.08672203307515905,-0.07017886046248407,-0.35684226160122084,-0.640682144834028,0.2958435894767827,5.050737954586615,1.2453042923334203,0.7066924756355534,0.8685474426333196,-1.8490727954115003,0.6668645668336055,1.4938117362701444,0.8831851656603127,0.6782149253065621,1.4787001914343856,-0.05967443478476114,3.4617909422338675,1.49218450413606,1.2049363267266233,0.7960056481825596,1.7264841647820872,0.4244998049976767,1.4140400096750159,-0.3320585128564407,-1.0739528836080414,-1.166841503715366,-0.9817190870867369,-1.332414861946779,0.022433089153504605,-1.3660219251528112,-1.2702910751610326,-1.0623635172454473,-1.0026513400026287,-1.7580236690200433,-2.7879761176919335,-1.2080563367492256,-0.09720761193691901,-1.2366138103946662,-1.3723380261472977,-1.2436272656467944,-1.1434429567698077,-2.418253614910001,-0.9713168159881406,-0.9287133410767654,-0.8970345023081533,0.3963277624655915,0.5288384705335014,-1.0104139434392088,-1.1802998937791305,-0.5594485099719293,-1.1703933549823617,-0.8022756069962352,-2.7194054077957737,-1.184199772119186,0.21904284064461896,-1.0183419848187576,-1.4779284778148012,-0.6742424895468477,-1.4020895853483073,2.8281692504699287,-0.7467808480169486,-0.2572660723693659,0.7241733464306934,-0.2961026034632926,0.6335083915989335,-0.8159078388873539,0.16546413001416604,-0.08239327977430207,-0.725796240234443,-0.04675392555961552,-1.1534434519333456,-0.5471729905751977,6.030160033307566,0.6223306532069944,-0.8014809555365644,-0.011564356454477393,4.284971260046028,6.572436840844828,0.3563569814576252,0.28995081505890413,0.539845873822427,-1.2420632253146273,0.8605559196024551,0.45653122985793293,0.5792784514136449,0.6103930762848438,0.3961364738810818,-0.3420008968471872,1.4101099531288823,0.3218019879740503,1.5927076624788226,0.39750833088446047,0.34793035852276255,0.2402340979500705,1.2473510492392066,-0.762909308191121,-1.2748359725885159,-1.288538684528689,-1.464784637896907,-1.362072201252994,-0.5872279842386209,-1.3397872602894396,-1.3718028657235664,-1.3078282251950006,-1.4842240310357735,-1.6726685095560747,-2.5441859242420555,-1.6022382908523618,-0.29975659182416414,-1.6248314114933393,-1.7418363951295237,-1.5211627567916346,-1.4674830470859863,-2.5816311611155807,-1.4380317827791131,-0.9448041834896874,-1.103464640095487,-0.4765531595340867,-0.7532598178061379,-1.6202330149787798,-0.9600736350844306,-1.1344547647527692,-1.30245570168376,-1.362927106354313,-2.2468804389234474,-1.3447938928845686,0.0570010633665368,-1.2579505529961514,-1.3888321245763062,-1.709073885183352,-1.2607410256993687,-7.333447930484335,-1.3524360217485032,-1.8322292086636387,-2.2954898912442623,-3.240551601146302,-1.4040473529351827,-1.384535243026962,-2.1205533735182827,-1.5924882308505786,-1.284063834119732,-1.9978182218483287,-0.9744241332124762,-1.0799329272077518,-7.05172339396311,-2.001897368173871,-1.3622487916958672,-1.2121017020675227,-3.9513389474424123,-0.3614455169341356,-1.5917026083766164,-0.798450426279845,-0.7187207351945514,-1.1925193133358876,0.10308383164722684,-1.4930945410588676,-0.7406362725174358,-0.6540235236823736,-1.51225381731288,-1.0317294504303653,-3.0314306720954125,-1.333136366412345,0.3375818701971367,-0.869766580588162,-1.7161414446651007,-0.8219894474463225,-1.1867809911541678,3.1843994927844688,-0.1406647817173367,-0.12320301469210704,0.04062948547139198,-1.0190073851687171,0.07558179374187986,-0.2660174536183689,-0.08411268581669384,-0.11934083545120606,-0.1187202277297498,-0.4516847272987785,0.15972637926104022,-0.04117564546105126,-0.0034105427882320303,0.038573240550448,-0.09996810444265011,0.07702635738314498,-0.03980320822295837,2.730435649907315,-0.12481948442852943,0.1420190633925263,0.274396347720094,-0.717450760752251,0.3661052459366706,-0.12434754808084439,0.1890868944153953,0.1273892348778937,-0.01499755580424609,-0.09101216178365559,0.593690120529102,0.025616988500204992,0.18062969342527274,0.3504576101874457,-0.07807389415257499,0.23130239745504758,0.13629004719655777,1.7886572986704417,1.0397380589879968,0.5657425029248556,0.5443352415946922,-0.9765265994430518,0.39096991932783776,1.150179845330257,0.5922022892609536,0.45013736962103296,1.060687320479689,-0.04354177124215582,1.9818989792896666,1.0118681300442638,0.8118497660427644,0.46823120251446243,1.1955156639366233,0.2359851863144426,0.9095555946052538,-0.817367351710554,-0.6814413693612028,-0.488727210344274,-0.5565499999885588,-0.1073468366090649,-0.6167284111920637,-0.6900964915227751,-0.4769556700884513,-0.5433307116871418,-0.6826488022154789,-0.43928002116798637,-0.8181546270429102,-0.6696398245463538,-0.6354952346872333,-0.4703086043857873,-0.7193493638710041,-0.44097611010420945,-0.5665240768415,-5.312607493164413,-1.2626166718444816,-1.5483274674800511,-2.4403444055627492,-0.26475139273019993,-4.648283416762889,-1.4409594268631973,-1.6570729039776895,-3.62384065215634,-1.2938395660094488,-1.2786981018333956,-1.4610884103494355,-1.1097743588932607,-4.925496230698119,-1.682270677367267,-1.3612755271099934,-1.72483305274185,-2.8244731650677752,-0.18766360314418964,-0.5028241385522987,-0.9744721476803363,-0.8657388006845887,-0.5966365473593178,-0.012511790156930831,-0.5743145435793429,-0.9389753378711545,-0.5820466441902548,-0.644618100192883,-1.131452867853783,-0.3017658843627932,-0.5898808012437067,0.4587257251270562,-1.123889829229716,-0.5472320939788394,-1.0176093019983892,-0.7808949748049347,-5.921811185643045,-1.2649719890837747,-0.8355637647027842,-1.2049649558870745,-3.316915011450608,-2.7707637974067634,-1.4620733008643545,-1.0727306969853194,-2.161678902271157,-1.4252103653998878,-1.6552883556675853,-2.967851051786998,-1.3547205411644507,-0.6045730987731918,-1.1693893382686618,-1.5243710954153868,-1.9183245071766903,-1.2573378154058363],"RowCount":18,"ColumnCount":18},"ColumnCount":18,"RowCount":18},{"Values":[-0.7909323291084912,-2.2664819555082945,0.9349003081157639,0.1275515432402748,0.1773436899963658,1.111625280967496,0.17651239638897315,-2.0157974201453173,0.22946212411411304,-0.39586984478715087,-1.3388219280517617,0.5251618600808492,-0.060608132128293295,0.10534525423134504,0.0183194438724308,-0.001263509106845741,-0.9368674355849372,0.14401254712027803,0.13273980916786673,-1.1499372201773603,0.17323028616297015,-0.08427229686845251,-0.006378595057877916,0.020971184871382467,-0.006671650754209786,-0.8150066427277732,0.12478028489356745,0.2100001353302237,-1.2064878524633673,0.24554139327329894,-0.036567102731159803,-0.07996867697430143,0.08973544565106578,0.024563788925272112,-0.7398555100619763,0.11837472598246869,0.27012707286538595,-1.314734047410867,0.26274659997611965,0.17111499822373827,0.05613056737099194,0.28164532290325467,-0.06452054743822805,-0.15887962857761334,-0.03604968821180141,-0.016310611789111303,-0.5415107922396336,0.07456508240865974,0.007405859397032988,0.25103167404402543,0.48623717877916184,-0.20780313223785815,-0.3454612359210074,0.14389122002162363,-0.40527687882436353,-1.459735257762406,0.6104134770425481,-0.028405449539964895,0.0945546959158954,0.06648211391433695,0.022427259094917985,-0.9111221473365335,0.12624710085062257,0.11063829118447849,-1.14602039339902,0.2049869990779443,-0.0020254633722903616,0.017244348523915664,0.15539203041659994,-0.09401918223918218,-0.776494915192095,0.10829809735218864,-0.2737297793735765,-1.3395510910627821,0.32124425396231604,0.0939425067449127,0.025231798084987017,0.08532313669863954,0.001044492588374917,-0.6376856757915201,0.06924988718030095,-0.34926458827969514,-1.2825186554591699,0.52014009594266,-0.022384729536751427,0.10328577347151663,0.045512224835026906,0.040689326602642954,-0.8783990365191132,0.1385153878890704,0.07498043330255882,-1.3094143154196243,0.2165453207390832,0.03491274400171162,-0.041509337358328735,0.08720551947575705,-0.005624442261344277,-0.5914164584646086,0.07849060799135242,-0.421855432910516,-1.739671058423424,0.766021871217151,0.31842739012374494,0.11454315564304238,0.6375732953393967,0.3054164021577513,-1.240789347834855,0.4583505984160729,-0.31402602626613874,-1.3124922560333276,0.4854096988686564,0.06844599914093769,0.09377105371692417,0.06221143038186159,-0.0064165802600749154,-0.8060684918642816,0.13109147707382984,0.0023710914073387696,0.0018062277417079222,0.0026006760053480286,0.003190817240641724,0.0022284676329049316,0.00419712420354897,0.0029917614996603746,0.00173151980399726,0.005128737254946923,0.05317252277486477,-1.0899103692848455,0.2114358367224791,-0.031661931515243,0.00918812281631616,0.0785741390266464,-0.09466983564259414,-0.6350802824607116,0.10188684986323926,-0.4878830565358828,-1.308152134537447,0.43102702494331274,0.025922974215308318,0.0004358077479329414,0.004913423562531651,-0.01566595212784105,-0.9319592593686157,0.11611011049318433,-0.06115086661955721,-1.3632652649872505,0.20423012375786662,0.19014732933266837,-0.007052643033480056,0.1938346572741361,-0.023433344100966275,-0.6996921609165522,0.012213438418106902,0.2845355718743141,-1.2911847666362735,0.1338256407153944,-0.05741404762299104,-0.13306381338746875,0.29038457120846123,0.05768118193047583,-1.161163557857271,0.16023427519618513],"Storage":{"Data":[-0.7909323291084912,-2.2664819555082945,0.9349003081157639,0.1275515432402748,0.1773436899963658,1.111625280967496,0.17651239638897315,-2.0157974201453173,0.22946212411411304,-0.39586984478715087,-1.3388219280517617,0.5251618600808492,-0.060608132128293295,0.10534525423134504,0.0183194438724308,-0.001263509106845741,-0.9368674355849372,0.14401254712027803,0.13273980916786673,-1.1499372201773603,0.17323028616297015,-0.08427229686845251,-0.006378595057877916,0.020971184871382467,-0.006671650754209786,-0.8150066427277732,0.12478028489356745,0.2100001353302237,-1.2064878524633673,0.24554139327329894,-0.036567102731159803,-0.07996867697430143,0.08973544565106578,0.024563788925272112,-0.7398555100619763,0.11837472598246869,0.27012707286538595,-1.314734047410867,0.26274659997611965,0.17111499822373827,0.05613056737099194,0.28164532290325467,-0.06452054743822805,-0.15887962857761334,-0.03604968821180141,-0.016310611789111303,-0.5415107922396336,0.07456508240865974,0.007405859397032988,0.25103167404402543,0.48623717877916184,-0.20780313223785815,-0.3454612359210074,0.14389122002162363,-0.40527687882436353,-1.459735257762406,0.6104134770425481,-0.028405449539964895,0.0945546959158954,0.06648211391433695,0.022427259094917985,-0.9111221473365335,0.12624710085062257,0.11063829118447849,-1.14602039339902,0.2049869990779443,-0.0020254633722903616,0.017244348523915664,0.15539203041659994,-0.09401918223918218,-0.776494915192095,0.10829809735218864,-0.2737297793735765,-1.3395510910627821,0.32124425396231604,0.0939425067449127,0.025231798084987017,0.08532313669863954,0.001044492588374917,-0.6376856757915201,0.06924988718030095,-0.34926458827969514,-1.2825186554591699,0.52014009594266,-0.022384729536751427,0.10328577347151663,0.045512224835026906,0.040689326602642954,-0.8783990365191132,0.1385153878890704,0.07498043330255882,-1.3094143154196243,0.2165453207390832,0.03491274400171162,-0.041509337358328735,0.08720551947575705,-0.005624442261344277,-0.5914164584646086,0.07849060799135242,-0.421855432910516,-1.739671058423424,0.766021871217151,0.31842739012374494,0.11454315564304238,0.6375732953393967,0.3054164021577513,-1.240789347834855,0.4583505984160729,-0.31402602626613874,-1.3124922560333276,0.4854096988686564,0.06844599914093769,0.09377105371692417,0.06221143038186159,-0.0064165802600749154,-0.8060684918642816,0.13109147707382984,0.0023710914073387696,0.0018062277417079222,0.0026006760053480286,0.003190817240641724,0.0022284676329049316,0.00419712420354897,0.0029917614996603746,0.00173151980399726,0.005128737254946923,0.05317252277486477,-1.0899103692848455,0.2114358367224791,-0.031661931515243,0.00918812281631616,0.0785741390266464,-0.09466983564259414,-0.6350802824607116,0.10188684986323926,-0.4878830565358828,-1.308152134537447,0.43102702494331274,0.025922974215308318,0.0004358077479329414,0.004913423562531651,-0.01566595212784105,-0.9319592593686157,0.11611011049318433,-0.06115086661955721,-1.3632652649872505,0.20423012375786662,0.19014732933266837,-0.007052643033480056,0.1938346572741361,-0.023433344100966275,-0.6996921609165522,0.012213438418106902,0.2845355718743141,-1.2911847666362735,0.1338256407153944,-0.05741404762299104,-0.13306381338746875,0.29038457120846123,0.05768118193047583,-1.161163557857271,0.16023427519618513],"RowCount":9,"ColumnCount":18},"ColumnCount":18,"RowCount":9}],"BiasHidden":[{"Values":[11.641743336568608,-52.08482160992796,14.754185169828915,9.773184085118743,42.73074759788525,-9.374122434317764,12.391538650532254,24.010312097502467,17.078377293746673,170.6585971575164,-25.82444094058557,87.81585448331953,41.544384338580876,-47.415532471934156,168.69934306537334,-49.88942361788968,36.49674522503478,20.94982447249873],"Storage":{"Data":[11.641743336568608,-52.08482160992796,14.754185169828915,9.773184085118743,42.73074759788525,-9.374122434317764,12.391538650532254,24.010312097502467,17.078377293746673,170.6585971575164,-25.82444094058557,87.81585448331953,41.544384338580876,-47.415532471934156,168.69934306537334,-49.88942361788968,36.49674522503478,20.94982447249873],"RowCount":18,"ColumnCount":1},"ColumnCount":1,"RowCount":18},{"Values":[-4.149809026711464,-5.294095435992017,-5.735570103600597,-0.7425587357756345,-2.0061494754375704,-3.054162254497629,-1.9986082479622052,-1.795524359939234,-0.31659235742266273,-4.721282362026699,-1.2033109676899063,-4.759149943860169,-3.969907062654177,-2.7707387882573404,-0.3068552630851506,-1.5326037879362657,-1.2676715006633414,1.1390352414184353],"Storage":{"Data":[-4.149809026711464,-5.294095435992017,-5.735570103600597,-0.7425587357756345,-2.0061494754375704,-3.054162254497629,-1.9986082479622052,-1.795524359939234,-0.31659235742266273,-4.721282362026699,-1.2033109676899063,-4.759149943860169,-3.969907062654177,-2.7707387882573404,-0.3068552630851506,-1.5326037879362657,-1.2676715006633414,1.1390352414184353],"RowCount":18,"ColumnCount":1},"ColumnCount":1,"RowCount":18},{"Values":[-1.138177508601456,-1.5189621384946224,-1.549010697419198,-0.8071888642492486,3.826502084916628,-0.44782387904245524,-0.7023300273911058,-1.1203959226483717,0.10289877803681671,-0.8239469127027547,1.5128261962283531,-1.7372936093980191,-1.4114105744194334,-1.451191339886088,-0.8327379927760056,-0.04297986743779004,-0.23571612068199818,-1.9579263297443177],"Storage":{"Data":[-1.138177508601456,-1.5189621384946224,-1.549010697419198,-0.8071888642492486,3.826502084916628,-0.44782387904245524,-0.7023300273911058,-1.1203959226483717,0.10289877803681671,-0.8239469127027547,1.5128261962283531,-1.7372936093980191,-1.4114105744194334,-1.451191339886088,-0.8327379927760056,-0.04297986743779004,-0.23571612068199818,-1.9579263297443177],"RowCount":18,"ColumnCount":1},"ColumnCount":1,"RowCount":18},{"Values":[-2.184215460368239,-2.8117704122677556,-2.104322473529611,-2.1102659988238,-2.1037088565712705,-2.118728177793058,-2.0862197474482,-3.0600788326312203,-2.1968552487553903],"Storage":{"Data":[-2.184215460368239,-2.8117704122677556,-2.104322473529611,-2.1102659988238,-2.1037088565712705,-2.118728177793058,-2.0862197474482,-3.0600788326312203,-2.1968552487553903],"RowCount":9,"ColumnCount":1},"ColumnCount":1,"RowCount":9}],"ActivationsHiddenSigmoid":[{"Values":[1.0,1.0138197558130738E-90,1.0,0.9999999999855969,1.0,6.904434504742456E-13,1.0,1.0,1.0,1.0,1.6039473127885434E-37,1.0,1.0,4.1348643790964763E-70,1.0,8.421367302321243E-84,1.0,1.0],"Storage":{"Data":[1.0,1.0138197558130738E-90,1.0,0.9999999999855969,1.0,6.904434504742456E-13,1.0,1.0,1.0,1.0,1.6039473127885434E-37,1.0,1.0,4.1348643790964763E-70,1.0,8.421367302321243E-84,1.0,1.0],"RowCount":18,"ColumnCount":1},"ColumnCount":1,"RowCount":18},{"Values":[0.9999987815548723,9.409130428626774E-09,8.051080159552391E-08,0.9999998197587087,0.999999999621638,0.9999999979604737,1.1027247084421934E-07,0.9999999660805863,0.9999999999388416,0.9999999999693738,0.9999999982751684,4.049703391945494E-07,5.1537274303974755E-08,1.0724505891013735E-08,1.0207481917742888E-09,0.9999999999998987,0.9999997403084778,0.9999999996308901],"Storage":{"Data":[0.9999987815548723,9.409130428626774E-09,8.051080159552391E-08,0.9999998197587087,0.999999999621638,0.9999999979604737,1.1027247084421934E-07,0.9999999660805863,0.9999999999388416,0.9999999999693738,0.9999999982751684,4.049703391945494E-07,5.1537274303974755E-08,1.0724505891013735E-08,1.0207481917742888E-09,0.9999999999998987,0.9999997403084778,0.9999999996308901],"RowCount":18,"ColumnCount":1},"ColumnCount":1,"RowCount":18},{"Values":[2.8341288949632064E-08,2.7492113620379172E-06,3.688240001068936E-06,4.7564931924446194E-06,2.4867705663698476E-05,0.00016946991672794654,2.9197259023245334E-06,4.149526700912137E-06,3.085176984381366E-06,3.3614856025434208E-06,3.9671381735342906E-06,1.975451582870065E-09,3.4428039914021675E-06,0.0025046723670149864,4.068947413843234E-06,2.1829446403743335E-06,3.335208577921696E-06,3.580483476880034E-06],"Storage":{"Data":[2.8341288949632064E-08,2.7492113620379172E-06,3.688240001068936E-06,4.7564931924446194E-06,2.4867705663698476E-05,0.00016946991672794654,2.9197259023245334E-06,4.149526700912137E-06,3.085176984381366E-06,3.3614856025434208E-06,3.9671381735342906E-06,1.975451582870065E-09,3.4428039914021675E-06,0.0025046723670149864,4.068947413843234E-06,2.1829446403743335E-06,3.335208577921696E-06,3.580483476880034E-06],"RowCount":18,"ColumnCount":1},"ColumnCount":1,"RowCount":18},{"Values":[0.10126137644064326,0.05669816456351467,0.108783473511073,0.10820505494749755,0.10884405984230054,0.10739847595483176,0.1095897790303613,0.04478849159959337,0.10011820038894693],"Storage":{"Data":[0.10126137644064326,0.05669816456351467,0.108783473511073,0.10820505494749755,0.10884405984230054,0.10739847595483176,0.1095897790303613,0.04478849159959337,0.10011820038894693],"RowCount":9,"ColumnCount":1},"ColumnCount":1,"RowCount":9}]}